<?xml version="1.0"?>
<MethodSetup Method="MLP::MLP_ANN_N3_NC300">
  <GeneralInfo>
    <Info name="TMVA Release" value="4.2.1 [262657]"/>
    <Info name="ROOT Release" value="6.06/01 [394753]"/>
    <Info name="Creator" value="brucms16"/>
    <Info name="Date" value="Wed Sep  7 03:28:08 2016"/>
    <Info name="Host" value="Linux vocms0315.cern.ch 2.6.32-573.26.1.el6.x86_64 #1 SMP Wed May 4 09:23:05 CEST 2016 x86_64 x86_64 x86_64 GNU/Linux"/>
    <Info name="Dir" value="/home/t3cms/brucms16/CMSSW_8_0_14/src/UserCode/SkeletonAnalysis/macros"/>
    <Info name="Training events" value="15056"/>
    <Info name="TrainingTime" value="1.53242017e+02"/>
    <Info name="AnalysisType" value="Classification"/>
  </GeneralInfo>
  <Options>
    <Option name="NCycles" modified="Yes">300</Option>
    <Option name="HiddenLayers" modified="Yes">N,N,N+3</Option>
    <Option name="NeuronType" modified="No">sigmoid</Option>
    <Option name="RandomSeed" modified="No">1</Option>
    <Option name="EstimatorType" modified="No">CE</Option>
    <Option name="NeuronInputType" modified="No">sum</Option>
    <Option name="V" modified="Yes">False</Option>
    <Option name="VerbosityLevel" modified="No">Default</Option>
    <Option name="VarTransform" modified="Yes">Norm</Option>
    <Option name="H" modified="Yes">False</Option>
    <Option name="CreateMVAPdfs" modified="No">False</Option>
    <Option name="IgnoreNegWeightsInTraining" modified="No">False</Option>
    <Option name="TrainingMethod" modified="No">BP</Option>
    <Option name="LearningRate" modified="Yes">9.000000e-02</Option>
    <Option name="DecayRate" modified="Yes">1.000000e-02</Option>
    <Option name="TestRate" modified="No">10</Option>
    <Option name="EpochMonitoring" modified="No">False</Option>
    <Option name="Sampling" modified="No">1.000000e+00</Option>
    <Option name="SamplingEpoch" modified="No">1.000000e+00</Option>
    <Option name="SamplingImportance" modified="No">1.000000e+00</Option>
    <Option name="SamplingTraining" modified="No">True</Option>
    <Option name="SamplingTesting" modified="No">False</Option>
    <Option name="ResetStep" modified="No">50</Option>
    <Option name="Tau" modified="No">3.000000e+00</Option>
    <Option name="BPMode" modified="No">sequential</Option>
    <Option name="BatchSize" modified="No">-1</Option>
    <Option name="ConvergenceImprove" modified="No">1.000000e-30</Option>
    <Option name="ConvergenceTests" modified="No">-1</Option>
    <Option name="UseRegulator" modified="No">False</Option>
    <Option name="UpdateLimit" modified="No">10000</Option>
    <Option name="CalculateErrors" modified="No">False</Option>
    <Option name="WeightRange" modified="No">1.000000e+00</Option>
  </Options>
  <Variables NVar="11">
    <Variable VarIndex="0" Expression="Jet1Pt" Label="Jet1Pt" Title="Jet1Pt" Unit="" Internal="Jet1Pt" Type="F" Min="1.10048698e+02" Max="1.57276038e+03"/>
    <Variable VarIndex="1" Expression="LepPt" Label="LepPt" Title="LepPt" Unit="" Internal="LepPt" Type="F" Min="5.00075817e+00" Max="2.99984379e+01"/>
    <Variable VarIndex="2" Expression="LepChg" Label="LepChg" Title="LepChg" Unit="" Internal="LepChg" Type="F" Min="-1.00000000e+00" Max="1.00000000e+00"/>
    <Variable VarIndex="3" Expression="LepEta" Label="LepEta" Title="LepEta" Unit="" Internal="LepEta" Type="F" Min="-2.48411560e+00" Max="2.49880052e+00"/>
    <Variable VarIndex="4" Expression="Met" Label="Met" Title="Met" Unit="" Internal="Met" Type="F" Min="2.80020294e+02" Max="1.28947937e+03"/>
    <Variable VarIndex="5" Expression="mt" Label="mt" Title="mt" Unit="" Internal="mt" Type="F" Min="5.37815737e-04" Max="3.00527191e+02"/>
    <Variable VarIndex="6" Expression="HT20" Label="HT20" Title="HT20" Unit="" Internal="HT20" Type="F" Min="1.12003395e+02" Max="4.50487305e+03"/>
    <Variable VarIndex="7" Expression="NbLoose30" Label="NbLoose30" Title="NbLoose30" Unit="" Internal="NbLoose30" Type="F" Min="0.00000000e+00" Max="6.00000000e+00"/>
    <Variable VarIndex="8" Expression="Njet" Label="Njet" Title="Njet" Unit="" Internal="Njet" Type="F" Min="1.00000000e+00" Max="1.40000000e+01"/>
    <Variable VarIndex="9" Expression="JetHBpt" Label="JetHBpt" Title="JetHBpt" Unit="" Internal="JetHBpt" Type="F" Min="-9.99000000e+02" Max="1.37842883e+03"/>
    <Variable VarIndex="10" Expression="DrJetHBLep" Label="DrJetHBLep" Title="DrJetHBLep" Unit="" Internal="DrJetHBLep" Type="F" Min="-9.99000000e+02" Max="5.38026333e+00"/>
  </Variables>
  <Spectators NSpec="0"/>
  <Classes NClass="2">
    <Class Name="Signal" Index="0"/>
    <Class Name="Background" Index="1"/>
  </Classes>
  <Transformations NTransformations="1">
    <Transform Name="Normalize">
      <Selection>
        <Input NInputs="11">
          <Input Type="Variable" Label="Jet1Pt" Expression="Jet1Pt"/>
          <Input Type="Variable" Label="LepPt" Expression="LepPt"/>
          <Input Type="Variable" Label="LepChg" Expression="LepChg"/>
          <Input Type="Variable" Label="LepEta" Expression="LepEta"/>
          <Input Type="Variable" Label="Met" Expression="Met"/>
          <Input Type="Variable" Label="mt" Expression="mt"/>
          <Input Type="Variable" Label="HT20" Expression="HT20"/>
          <Input Type="Variable" Label="NbLoose30" Expression="NbLoose30"/>
          <Input Type="Variable" Label="Njet" Expression="Njet"/>
          <Input Type="Variable" Label="JetHBpt" Expression="JetHBpt"/>
          <Input Type="Variable" Label="DrJetHBLep" Expression="DrJetHBLep"/>
        </Input>
        <Output NOutputs="11">
          <Output Type="Variable" Label="Jet1Pt" Expression="Jet1Pt"/>
          <Output Type="Variable" Label="LepPt" Expression="LepPt"/>
          <Output Type="Variable" Label="LepChg" Expression="LepChg"/>
          <Output Type="Variable" Label="LepEta" Expression="LepEta"/>
          <Output Type="Variable" Label="Met" Expression="Met"/>
          <Output Type="Variable" Label="mt" Expression="mt"/>
          <Output Type="Variable" Label="HT20" Expression="HT20"/>
          <Output Type="Variable" Label="NbLoose30" Expression="NbLoose30"/>
          <Output Type="Variable" Label="Njet" Expression="Njet"/>
          <Output Type="Variable" Label="JetHBpt" Expression="JetHBpt"/>
          <Output Type="Variable" Label="DrJetHBLep" Expression="DrJetHBLep"/>
        </Output>
      </Selection>
      <Class ClassIndex="0">
        <Ranges>
          <Range Index="0" Min="1.1004869842529297e+02" Max="1.2779298095703125e+03"/>
          <Range Index="1" Min="5.0007581710815430e+00" Max="2.9949773788452148e+01"/>
          <Range Index="2" Min="-1.0000000000000000e+00" Max="1.0000000000000000e+00"/>
          <Range Index="3" Min="-2.4711689949035645e+00" Max="2.3791146278381348e+00"/>
          <Range Index="4" Min="2.8022933959960938e+02" Max="1.2514943847656250e+03"/>
          <Range Index="5" Min="5.5733408778905869e-02" Max="3.0052719116210938e+02"/>
          <Range Index="6" Min="1.1735253143310547e+02" Max="2.3474851074218750e+03"/>
          <Range Index="7" Min="0.0000000000000000e+00" Max="5.0000000000000000e+00"/>
          <Range Index="8" Min="1.0000000000000000e+00" Max="1.1000000000000000e+01"/>
          <Range Index="9" Min="2.0057344436645508e+01" Max="1.0570437011718750e+03"/>
          <Range Index="10" Min="6.2708742916584015e-05" Max="4.9576835632324219e+00"/>
        </Ranges>
      </Class>
      <Class ClassIndex="1">
        <Ranges>
          <Range Index="0" Min="1.1005755615234375e+02" Max="1.5727603759765625e+03"/>
          <Range Index="1" Min="5.0013527870178223e+00" Max="2.9998437881469727e+01"/>
          <Range Index="2" Min="-1.0000000000000000e+00" Max="1.0000000000000000e+00"/>
          <Range Index="3" Min="-2.4841156005859375e+00" Max="2.4988005161285400e+00"/>
          <Range Index="4" Min="2.8002029418945312e+02" Max="1.2894793701171875e+03"/>
          <Range Index="5" Min="5.3781573660671711e-04" Max="2.1579251098632812e+02"/>
          <Range Index="6" Min="1.1200339508056641e+02" Max="4.5048730468750000e+03"/>
          <Range Index="7" Min="0.0000000000000000e+00" Max="6.0000000000000000e+00"/>
          <Range Index="8" Min="1.0000000000000000e+00" Max="1.4000000000000000e+01"/>
          <Range Index="9" Min="-9.9900000000000000e+02" Max="1.3784288330078125e+03"/>
          <Range Index="10" Min="-9.9900000000000000e+02" Max="5.3802633285522461e+00"/>
        </Ranges>
      </Class>
      <Class ClassIndex="2">
        <Ranges>
          <Range Index="0" Min="1.1004869842529297e+02" Max="1.5727603759765625e+03"/>
          <Range Index="1" Min="5.0007581710815430e+00" Max="2.9998437881469727e+01"/>
          <Range Index="2" Min="-1.0000000000000000e+00" Max="1.0000000000000000e+00"/>
          <Range Index="3" Min="-2.4841156005859375e+00" Max="2.4988005161285400e+00"/>
          <Range Index="4" Min="2.8002029418945312e+02" Max="1.2894793701171875e+03"/>
          <Range Index="5" Min="5.3781573660671711e-04" Max="3.0052719116210938e+02"/>
          <Range Index="6" Min="1.1200339508056641e+02" Max="4.5048730468750000e+03"/>
          <Range Index="7" Min="0.0000000000000000e+00" Max="6.0000000000000000e+00"/>
          <Range Index="8" Min="1.0000000000000000e+00" Max="1.4000000000000000e+01"/>
          <Range Index="9" Min="-9.9900000000000000e+02" Max="1.3784288330078125e+03"/>
          <Range Index="10" Min="-9.9900000000000000e+02" Max="5.3802633285522461e+00"/>
        </Ranges>
      </Class>
    </Transform>
  </Transformations>
  <MVAPdfs/>
  <Weights>
    <Layout NLayers="5">
      <Layer Index="0" NNeurons="12">
        <Neuron NSynapses="11">
          8.6757141054663423e-01 5.9438470007030175e-01 1.4311917087309953e+00 4.1191933644427303e+00 -2.0165676829366355e+00 -5.5340054139545247e-01 1.4525282742875063e+00 1.5476085944412934e+00 -2.2996725843477530e+00 -3.7891347401686631e-01 -3.3951777293343803e+00 
        </Neuron>
        <Neuron NSynapses="11">
          2.4808601475826588e+00 -4.0287980783198429e-01 -3.1405635349663816e+00 -4.4295019293151844e-01 9.3977424461697190e-01 -1.8772612391329730e+00 2.3823939648475188e+00 -1.1889872606839559e-01 3.1507322497574219e+00 1.1021486793382929e+00 -2.1276337602832252e-01 
        </Neuron>
        <Neuron NSynapses="11">
          1.4188220348712615e+00 7.5372785526969105e-02 4.6017257051795074e-01 -4.1116306661467563e+00 1.2393977995347378e+00 5.9634025954754444e-01 -3.6602079293036400e+00 4.2657164598356651e-01 -3.5055231452496399e-01 -9.4289774481014804e-02 -7.7104029234893090e-01 
        </Neuron>
        <Neuron NSynapses="11">
          -1.0615508293729649e-02 6.8788784372196932e-02 1.5635528128217981e+00 -9.5300512445851426e-01 1.5384212874781855e+00 -2.4476833191953467e+00 5.9574215833872979e-01 1.0393911881586677e+00 -3.5910501573615239e-01 5.2360084007731222e+00 -3.0252842052121975e+00 
        </Neuron>
        <Neuron NSynapses="11">
          6.2974318393746902e+00 -3.0779421224955290e+00 9.0623978929076170e+00 7.2849854238765055e-01 2.3987902723081111e+00 6.7020681612451405e+00 4.0420911916878541e+00 1.1325873956871315e+00 -4.3857885865423407e+00 1.0576087445613137e-01 -6.3764263870302618e-01 
        </Neuron>
        <Neuron NSynapses="11">
          -1.5846533357166332e+00 -1.7437034697207555e+01 6.0250569983019558e-02 3.4360521052233448e+00 1.3182042351536039e-01 -2.8281430932763536e+00 3.1541104062283247e-03 -6.6068764961997872e-01 2.7665294940849106e+00 2.4297475926910277e+00 3.3870003759583454e+00 
        </Neuron>
        <Neuron NSynapses="11">
          -1.3960625905106678e+00 3.4986072146900971e+00 -4.3331768665176975e+00 -7.2815756739315185e-01 -6.0694561854608120e-01 -1.9565999108427488e+00 -1.1511403377179640e-01 7.0671335102850819e-01 3.7123071575256392e+00 1.7283493463232775e+00 -7.1781485315350080e-01 
        </Neuron>
        <Neuron NSynapses="11">
          -6.6187650732867898e+00 -3.4140069857569133e-01 -3.7749049541160886e+00 3.5549289520999749e-01 1.6604395465191009e+00 1.3883621743429801e+00 -2.9121930180089945e+00 -1.2539986672773660e+00 6.6809616035702080e-01 1.8676046374388058e-01 -8.4613559491717005e-01 
        </Neuron>
        <Neuron NSynapses="11">
          -5.9112113815004523e+00 2.4171628423742128e-01 -7.4666070628775372e-01 1.3218684413275676e+00 1.6268960870239968e+00 -9.7720548129227092e-01 -2.2482851381243862e+00 1.6781124072241702e+00 -3.8050981014446226e+00 -5.7709329621594696e+00 -6.5944728781353703e+00 
        </Neuron>
        <Neuron NSynapses="11">
          -1.4546585291793210e+00 3.1706670075607066e+00 -5.2512113396313023e+00 1.0433203095180246e+00 1.3204549615394174e+00 7.1994891244455586e-02 3.7087436075779610e+00 -1.0832334935177785e+00 4.2738921506753069e-01 -1.2849642645502346e+00 -3.4757555231796761e-01 
        </Neuron>
        <Neuron NSynapses="11">
          -1.7607823622370433e+00 -2.3268669513642242e+00 1.2080181890220729e+00 1.0261246129506396e+00 -1.7591097408491760e+00 2.6933107177719751e+00 5.0706220243600297e-01 -6.2062285857338773e-01 -4.9346276301707159e-01 -2.5995188235174425e+00 -4.4058369244513731e+00 
        </Neuron>
        <Neuron NSynapses="11">
          1.9251713345894991e-01 -3.0032915850778230e+00 2.4303315690692209e+00 1.3196756524706481e+00 -3.7847489418727898e-01 4.5371463525664896e-01 2.0879472458832252e-01 -1.4650879977846727e+00 2.2516653934274317e-01 -1.0223069969174015e+00 -4.4922048262059153e+00 
        </Neuron>
      </Layer>
      <Layer Index="1" NNeurons="12">
        <Neuron NSynapses="11">
          6.2010833489821471e-01 -7.6679501921024629e-01 1.7227360637756217e+00 -1.3880667100334676e+00 3.3125569411224234e+00 -2.2592812206530621e+00 -1.4376698190032036e+00 3.5666903327875037e+00 1.8113463420391476e+00 -3.8054228444949580e+00 -1.7137250026441506e+00 
        </Neuron>
        <Neuron NSynapses="11">
          1.2748511587820204e+00 -3.5442917921352906e+00 8.2632334682525377e-01 3.3450524145000653e+00 -2.4633829896441188e+00 2.7970391023462043e-01 -2.3083904895932328e+00 -5.0664994595804531e+00 -2.2536988334188126e+00 -1.1817423355475281e+00 -1.3625816682824925e+00 
        </Neuron>
        <Neuron NSynapses="11">
          -9.3043630437137737e-01 2.5472433714663745e-01 1.8747338403912386e+00 -2.5796505200370063e+00 -7.5278206636181322e-01 -1.1043823096842500e+00 3.6190465877291693e+00 3.0215619754714633e+00 2.8377037712547288e+00 -1.8952226374917882e+00 2.0122706789594478e+00 
        </Neuron>
        <Neuron NSynapses="11">
          -7.1428864047492058e-01 -8.5285724574672250e-01 1.1847237568864444e+00 -1.5969908354616305e+00 -2.1888207924663364e-01 8.8419050846998448e-01 2.2919576478356696e+00 6.7620540814060792e-01 2.6420379819913307e+00 4.1548363591108055e+00 -2.0667405102833518e+00 
        </Neuron>
        <Neuron NSynapses="11">
          5.0039235860732578e-01 -4.3530133889383538e-02 6.3674603835096377e-01 -1.8802873230022159e+00 -1.0294179891948467e+00 1.2873717652232359e+00 2.6256549529482260e+00 -9.4790665760439807e-01 1.7352579811973071e-01 -3.8904976729475044e-01 3.6521962037211814e-01 
        </Neuron>
        <Neuron NSynapses="11">
          7.9154424019381797e-01 -1.2313801522195066e-01 1.0560733484226204e+00 -2.7141583482067722e+00 2.8755262466877971e+00 2.4477281219303499e+00 2.8434869225617607e+00 -1.9233138561201999e+00 -1.3112815520183927e+00 -4.5833040587059930e+00 1.9596583873717224e-02 
        </Neuron>
        <Neuron NSynapses="11">
          8.4076709831519369e-01 -1.2003115868130327e+00 3.5757272598530667e+00 -8.0184424454130576e-01 -6.2336569508796902e-02 -2.8947677418368212e+00 1.8020244013258830e+00 3.4895266204916746e+00 3.6078403977825374e-01 -1.1785615640539135e+00 1.8888387543297382e+00 
        </Neuron>
        <Neuron NSynapses="11">
          1.0973419588787450e+00 4.3042824651611028e-01 -1.6712784509751419e-01 -1.7955604652620498e+00 -9.4226695423274553e-01 1.8941920241768950e+00 1.4359005270113840e+00 8.9890056035919352e-01 4.3992588062717486e-01 1.9933550150009776e+00 -1.6432029801353822e+00 
        </Neuron>
        <Neuron NSynapses="11">
          -1.9475334929381878e+00 -5.7883690125072707e-01 -3.2379798623143290e+00 3.2315495296698180e+00 1.0768430433051679e+00 -2.2454231225275274e+00 -2.3424846680516818e+00 -3.0748996272847084e+00 -2.9856735801257090e+00 1.3083970501159536e+00 3.2782598263360813e-01 
        </Neuron>
        <Neuron NSynapses="11">
          9.9078790451288223e-01 8.3404368776320759e-01 -4.4995279807631032e+00 1.5055583460128577e+00 -3.0792616196604623e+00 9.8457283390073569e-01 -3.2848437420853277e-01 -2.3104354323776661e+00 -2.2783459071054635e+00 -2.9248347875631686e-01 -3.8735329707369809e-01 
        </Neuron>
        <Neuron NSynapses="11">
          -3.2553496599544580e+00 -1.3278088526002658e+00 -4.6973393545598716e+00 1.6767543550905410e+00 -2.0794707623996467e+00 -2.1013104515814485e+00 5.5998887773794115e-01 -5.7112965398222686e+00 -2.3700090416907829e+00 -1.9763427769364645e+00 -6.0775031332706930e-01 
        </Neuron>
        <Neuron NSynapses="11">
          1.9826431073449129e+00 9.7498343747319272e-01 8.0618472126464641e-02 -8.9825216442833611e-01 -1.8025512442549907e+00 -1.2952882405677929e-01 -2.1781241394847686e+00 2.1945305277490683e+00 -8.5085055347278737e-01 1.5671149396606099e+00 -9.6981003012519307e-01 
        </Neuron>
      </Layer>
      <Layer Index="2" NNeurons="12">
        <Neuron NSynapses="14">
          -1.7249984480188207e+00 -5.3105236364680131e-01 -2.9362483027992456e+00 1.6326166459134886e-01 -1.1548280115115770e+00 -1.2884898374923555e+00 -1.8930210208998761e+00 3.5082590007654058e-01 6.7725146295359162e-01 -5.5841920527653588e-01 -1.6331316773054516e+00 -5.7029954781022818e-01 -2.1869936882422772e-01 2.5666549006221878e-01 
        </Neuron>
        <Neuron NSynapses="14">
          8.1570999686347889e-01 -1.9219671728136628e-01 -4.1846211112697013e-01 -4.1209009002072255e-01 -1.7807166440812507e+00 -5.7914108931063735e-01 -1.7128481795281967e+00 -1.5330534426066460e+00 -1.1269219425840362e+00 1.4826834556628847e+00 -1.6921303781335575e+00 1.5014364024111826e+00 -1.6135819402660734e+00 1.0390477593429417e+00 
        </Neuron>
        <Neuron NSynapses="14">
          -3.5725730939494453e+00 8.8681162070269326e-01 -1.2034289369774922e+00 -2.9045650038351245e+00 -9.0696637111502043e-01 3.1324814337919921e-01 -2.5156501111517082e+00 -2.5233301346431816e+00 -2.4282522454081494e+00 -1.9125345687645652e+00 4.2415786866757071e-01 -1.1227780738057256e+00 -7.8284886744424395e-02 -1.1694710135257624e+00 
        </Neuron>
        <Neuron NSynapses="14">
          1.2197509165536766e+00 -1.6539028355060845e+00 -2.7971728813913250e+00 -2.2487273353624624e+00 -2.6289421045093086e-02 -1.3258602141067826e+00 -1.2051044765470473e+00 1.9361425191674395e+00 5.5589657637289613e-01 -1.8151462632623530e-02 2.1438368661807883e+00 -2.8385158158609438e+00 6.6080275665294974e-01 2.8792176516062679e-01 
        </Neuron>
        <Neuron NSynapses="14">
          -3.2010296641112039e+00 -9.0887453349539726e-01 6.6516738612762982e-01 -8.5124866378685282e-01 -7.1418224614401493e-01 1.6634911943352020e+00 2.0123141237963704e+00 2.6184763932635740e+00 -2.8386906853598646e+00 3.2214968570492652e-01 -2.4721795340240065e+00 2.2127006458438601e+00 -3.0407617783031191e+00 -2.0621347451121572e+00 
        </Neuron>
        <Neuron NSynapses="14">
          5.8838241662844071e-01 1.4394475978900025e+00 2.3426323055092850e+00 7.5979411051853141e-01 1.9996599272305551e-01 -1.8952032582436515e-01 -9.5787779057865141e-01 9.6109666961486306e-01 3.0160565110351256e+00 -1.7803043682208457e+00 5.9004084275005297e-01 -1.6429043795004237e+00 -2.3872101229633258e-01 -5.2745695898040436e-02 
        </Neuron>
        <Neuron NSynapses="14">
          -1.4704235270044730e+00 -1.2941366774428760e+00 2.5933748591018779e+00 1.8794420789853650e+00 -3.2086026605275114e-01 -5.4040952011384236e-01 -1.0978630453951099e+00 -2.4379850032213173e+00 -2.5909252623201828e+00 5.2046435065063301e-01 -1.1322515128320119e+00 -1.0387820454825143e+00 -4.7575168679044877e-01 -2.1585250283048625e+00 
        </Neuron>
        <Neuron NSynapses="14">
          -3.5552788240666073e+00 -1.7776882027123331e+00 1.3186305517172685e+00 -1.0293072597619091e+00 -2.4880414125980370e+00 -1.1625080701229737e+00 -1.7510659420477230e+00 -3.9544267887670759e+00 6.3585891980035403e-01 -2.7238564598755248e+00 -1.8184496490212165e+00 3.2570474899759105e+00 1.3324860343636044e-02 1.9858212056007196e-01 
        </Neuron>
        <Neuron NSynapses="14">
          -1.5300166674373379e+00 1.3163588747027484e+00 3.9567735740393419e+00 1.2045670269893924e+00 -1.3487928196362076e+00 -1.0737328194109348e+00 -2.4979269262985273e+00 -2.6574968841923197e-01 1.0297279305924394e+00 -1.0394316001007855e+00 4.8501100410022702e-01 1.7113111840201476e+00 1.2101863762875638e+00 -1.3859404540375089e+00 
        </Neuron>
        <Neuron NSynapses="14">
          3.1636135691442484e+00 8.4905890752019753e-01 -3.8372876156777211e+00 -7.7269928612212779e-01 -1.2867152507925854e+00 9.8383893035196346e-01 6.2812810086923343e-01 1.1649233886710559e+00 2.4317555361862868e+00 -5.2258238108447719e-01 1.6916876603248592e+00 -5.1175496917062435e-01 9.8585391423384616e-01 -1.3481450956417451e+00 
        </Neuron>
        <Neuron NSynapses="14">
          7.3087830639777673e-01 -1.7270606646095210e+00 2.2011797448314990e-01 1.2652100145546117e+00 -7.4673375094630157e-01 -8.6142334397535880e-01 5.8062889096126113e-02 -1.8860357841168489e+00 5.4979479902071060e-01 -2.1597363087897561e+00 1.8058748293834925e-01 -9.6027054356405650e-01 2.2479906528725286e+00 9.5171930329861121e-01 
        </Neuron>
        <Neuron NSynapses="14">
          1.2601895526891347e+00 -6.9385845123103279e-02 -2.2911011213387287e+00 -7.4848413690322357e-01 -1.9424155099782187e-01 -1.9507282849317962e+00 -6.6096912979722755e-01 -1.6168866870228366e-02 -1.5952147394740974e+00 -1.9853679382087086e+00 -2.0065503223075782e+00 -4.2268470921527257e-01 -1.3831168948315273e+00 -2.8730920576669101e+00 
        </Neuron>
      </Layer>
      <Layer Index="3" NNeurons="15">
        <Neuron NSynapses="1">
          -4.0354515434367038e+00 
        </Neuron>
        <Neuron NSynapses="1">
          -1.3924363528584880e+00 
        </Neuron>
        <Neuron NSynapses="1">
          2.9313093258653731e+00 
        </Neuron>
        <Neuron NSynapses="1">
          1.0077885106655349e+00 
        </Neuron>
        <Neuron NSynapses="1">
          -9.6697291143334940e-01 
        </Neuron>
        <Neuron NSynapses="1">
          -9.1938703301685365e-01 
        </Neuron>
        <Neuron NSynapses="1">
          -2.8092954890871611e+00 
        </Neuron>
        <Neuron NSynapses="1">
          -1.7483627688126646e+00 
        </Neuron>
        <Neuron NSynapses="1">
          -2.9508607967002258e+00 
        </Neuron>
        <Neuron NSynapses="1">
          -1.6608088153298635e+00 
        </Neuron>
        <Neuron NSynapses="1">
          -1.9136141202104870e+00 
        </Neuron>
        <Neuron NSynapses="1">
          8.0341546335019220e-01 
        </Neuron>
        <Neuron NSynapses="1">
          -1.5708076227919057e+00 
        </Neuron>
        <Neuron NSynapses="1">
          7.2691868879940835e-01 
        </Neuron>
        <Neuron NSynapses="1">
          3.7030438950551570e-01 
        </Neuron>
      </Layer>
      <Layer Index="4" NNeurons="1">
        <Neuron NSynapses="0"/>
      </Layer>
    </Layout>
  </Weights>
</MethodSetup>
