<?xml version="1.0"?>
<MethodSetup Method="MLP::MLP_ANN_N3_NC900">
  <GeneralInfo>
    <Info name="TMVA Release" value="4.2.1 [262657]"/>
    <Info name="ROOT Release" value="6.06/01 [394753]"/>
    <Info name="Creator" value="brucms16"/>
    <Info name="Date" value="Wed Sep  7 04:01:25 2016"/>
    <Info name="Host" value="Linux vocms0315.cern.ch 2.6.32-573.26.1.el6.x86_64 #1 SMP Wed May 4 09:23:05 CEST 2016 x86_64 x86_64 x86_64 GNU/Linux"/>
    <Info name="Dir" value="/home/t3cms/brucms16/CMSSW_8_0_14/src/UserCode/SkeletonAnalysis/macros"/>
    <Info name="Training events" value="15056"/>
    <Info name="TrainingTime" value="4.58357110e+02"/>
    <Info name="AnalysisType" value="Classification"/>
  </GeneralInfo>
  <Options>
    <Option name="NCycles" modified="Yes">900</Option>
    <Option name="HiddenLayers" modified="Yes">N,N,N+3</Option>
    <Option name="NeuronType" modified="No">sigmoid</Option>
    <Option name="RandomSeed" modified="No">1</Option>
    <Option name="EstimatorType" modified="No">CE</Option>
    <Option name="NeuronInputType" modified="No">sum</Option>
    <Option name="V" modified="Yes">False</Option>
    <Option name="VerbosityLevel" modified="No">Default</Option>
    <Option name="VarTransform" modified="Yes">Norm</Option>
    <Option name="H" modified="Yes">False</Option>
    <Option name="CreateMVAPdfs" modified="No">False</Option>
    <Option name="IgnoreNegWeightsInTraining" modified="No">False</Option>
    <Option name="TrainingMethod" modified="No">BP</Option>
    <Option name="LearningRate" modified="Yes">9.000000e-02</Option>
    <Option name="DecayRate" modified="Yes">1.000000e-02</Option>
    <Option name="TestRate" modified="No">10</Option>
    <Option name="EpochMonitoring" modified="No">False</Option>
    <Option name="Sampling" modified="No">1.000000e+00</Option>
    <Option name="SamplingEpoch" modified="No">1.000000e+00</Option>
    <Option name="SamplingImportance" modified="No">1.000000e+00</Option>
    <Option name="SamplingTraining" modified="No">True</Option>
    <Option name="SamplingTesting" modified="No">False</Option>
    <Option name="ResetStep" modified="No">50</Option>
    <Option name="Tau" modified="No">3.000000e+00</Option>
    <Option name="BPMode" modified="No">sequential</Option>
    <Option name="BatchSize" modified="No">-1</Option>
    <Option name="ConvergenceImprove" modified="No">1.000000e-30</Option>
    <Option name="ConvergenceTests" modified="No">-1</Option>
    <Option name="UseRegulator" modified="No">False</Option>
    <Option name="UpdateLimit" modified="No">10000</Option>
    <Option name="CalculateErrors" modified="No">False</Option>
    <Option name="WeightRange" modified="No">1.000000e+00</Option>
  </Options>
  <Variables NVar="11">
    <Variable VarIndex="0" Expression="Jet1Pt" Label="Jet1Pt" Title="Jet1Pt" Unit="" Internal="Jet1Pt" Type="F" Min="1.10048698e+02" Max="1.57276038e+03"/>
    <Variable VarIndex="1" Expression="LepPt" Label="LepPt" Title="LepPt" Unit="" Internal="LepPt" Type="F" Min="5.00075817e+00" Max="2.99984379e+01"/>
    <Variable VarIndex="2" Expression="LepChg" Label="LepChg" Title="LepChg" Unit="" Internal="LepChg" Type="F" Min="-1.00000000e+00" Max="1.00000000e+00"/>
    <Variable VarIndex="3" Expression="LepEta" Label="LepEta" Title="LepEta" Unit="" Internal="LepEta" Type="F" Min="-2.48411560e+00" Max="2.49880052e+00"/>
    <Variable VarIndex="4" Expression="Met" Label="Met" Title="Met" Unit="" Internal="Met" Type="F" Min="2.80020294e+02" Max="1.28947937e+03"/>
    <Variable VarIndex="5" Expression="mt" Label="mt" Title="mt" Unit="" Internal="mt" Type="F" Min="5.37815737e-04" Max="3.00527191e+02"/>
    <Variable VarIndex="6" Expression="HT20" Label="HT20" Title="HT20" Unit="" Internal="HT20" Type="F" Min="1.12003395e+02" Max="4.50487305e+03"/>
    <Variable VarIndex="7" Expression="NbLoose30" Label="NbLoose30" Title="NbLoose30" Unit="" Internal="NbLoose30" Type="F" Min="0.00000000e+00" Max="6.00000000e+00"/>
    <Variable VarIndex="8" Expression="Njet" Label="Njet" Title="Njet" Unit="" Internal="Njet" Type="F" Min="1.00000000e+00" Max="1.40000000e+01"/>
    <Variable VarIndex="9" Expression="JetHBpt" Label="JetHBpt" Title="JetHBpt" Unit="" Internal="JetHBpt" Type="F" Min="-9.99000000e+02" Max="1.37842883e+03"/>
    <Variable VarIndex="10" Expression="DrJetHBLep" Label="DrJetHBLep" Title="DrJetHBLep" Unit="" Internal="DrJetHBLep" Type="F" Min="-9.99000000e+02" Max="5.38026333e+00"/>
  </Variables>
  <Spectators NSpec="0"/>
  <Classes NClass="2">
    <Class Name="Signal" Index="0"/>
    <Class Name="Background" Index="1"/>
  </Classes>
  <Transformations NTransformations="1">
    <Transform Name="Normalize">
      <Selection>
        <Input NInputs="11">
          <Input Type="Variable" Label="Jet1Pt" Expression="Jet1Pt"/>
          <Input Type="Variable" Label="LepPt" Expression="LepPt"/>
          <Input Type="Variable" Label="LepChg" Expression="LepChg"/>
          <Input Type="Variable" Label="LepEta" Expression="LepEta"/>
          <Input Type="Variable" Label="Met" Expression="Met"/>
          <Input Type="Variable" Label="mt" Expression="mt"/>
          <Input Type="Variable" Label="HT20" Expression="HT20"/>
          <Input Type="Variable" Label="NbLoose30" Expression="NbLoose30"/>
          <Input Type="Variable" Label="Njet" Expression="Njet"/>
          <Input Type="Variable" Label="JetHBpt" Expression="JetHBpt"/>
          <Input Type="Variable" Label="DrJetHBLep" Expression="DrJetHBLep"/>
        </Input>
        <Output NOutputs="11">
          <Output Type="Variable" Label="Jet1Pt" Expression="Jet1Pt"/>
          <Output Type="Variable" Label="LepPt" Expression="LepPt"/>
          <Output Type="Variable" Label="LepChg" Expression="LepChg"/>
          <Output Type="Variable" Label="LepEta" Expression="LepEta"/>
          <Output Type="Variable" Label="Met" Expression="Met"/>
          <Output Type="Variable" Label="mt" Expression="mt"/>
          <Output Type="Variable" Label="HT20" Expression="HT20"/>
          <Output Type="Variable" Label="NbLoose30" Expression="NbLoose30"/>
          <Output Type="Variable" Label="Njet" Expression="Njet"/>
          <Output Type="Variable" Label="JetHBpt" Expression="JetHBpt"/>
          <Output Type="Variable" Label="DrJetHBLep" Expression="DrJetHBLep"/>
        </Output>
      </Selection>
      <Class ClassIndex="0">
        <Ranges>
          <Range Index="0" Min="1.1004869842529297e+02" Max="1.2779298095703125e+03"/>
          <Range Index="1" Min="5.0007581710815430e+00" Max="2.9949773788452148e+01"/>
          <Range Index="2" Min="-1.0000000000000000e+00" Max="1.0000000000000000e+00"/>
          <Range Index="3" Min="-2.4711689949035645e+00" Max="2.3791146278381348e+00"/>
          <Range Index="4" Min="2.8022933959960938e+02" Max="1.2514943847656250e+03"/>
          <Range Index="5" Min="5.5733408778905869e-02" Max="3.0052719116210938e+02"/>
          <Range Index="6" Min="1.1735253143310547e+02" Max="2.3474851074218750e+03"/>
          <Range Index="7" Min="0.0000000000000000e+00" Max="5.0000000000000000e+00"/>
          <Range Index="8" Min="1.0000000000000000e+00" Max="1.1000000000000000e+01"/>
          <Range Index="9" Min="2.0057344436645508e+01" Max="1.0570437011718750e+03"/>
          <Range Index="10" Min="6.2708742916584015e-05" Max="4.9576835632324219e+00"/>
        </Ranges>
      </Class>
      <Class ClassIndex="1">
        <Ranges>
          <Range Index="0" Min="1.1005755615234375e+02" Max="1.5727603759765625e+03"/>
          <Range Index="1" Min="5.0013527870178223e+00" Max="2.9998437881469727e+01"/>
          <Range Index="2" Min="-1.0000000000000000e+00" Max="1.0000000000000000e+00"/>
          <Range Index="3" Min="-2.4841156005859375e+00" Max="2.4988005161285400e+00"/>
          <Range Index="4" Min="2.8002029418945312e+02" Max="1.2894793701171875e+03"/>
          <Range Index="5" Min="5.3781573660671711e-04" Max="2.1579251098632812e+02"/>
          <Range Index="6" Min="1.1200339508056641e+02" Max="4.5048730468750000e+03"/>
          <Range Index="7" Min="0.0000000000000000e+00" Max="6.0000000000000000e+00"/>
          <Range Index="8" Min="1.0000000000000000e+00" Max="1.4000000000000000e+01"/>
          <Range Index="9" Min="-9.9900000000000000e+02" Max="1.3784288330078125e+03"/>
          <Range Index="10" Min="-9.9900000000000000e+02" Max="5.3802633285522461e+00"/>
        </Ranges>
      </Class>
      <Class ClassIndex="2">
        <Ranges>
          <Range Index="0" Min="1.1004869842529297e+02" Max="1.5727603759765625e+03"/>
          <Range Index="1" Min="5.0007581710815430e+00" Max="2.9998437881469727e+01"/>
          <Range Index="2" Min="-1.0000000000000000e+00" Max="1.0000000000000000e+00"/>
          <Range Index="3" Min="-2.4841156005859375e+00" Max="2.4988005161285400e+00"/>
          <Range Index="4" Min="2.8002029418945312e+02" Max="1.2894793701171875e+03"/>
          <Range Index="5" Min="5.3781573660671711e-04" Max="3.0052719116210938e+02"/>
          <Range Index="6" Min="1.1200339508056641e+02" Max="4.5048730468750000e+03"/>
          <Range Index="7" Min="0.0000000000000000e+00" Max="6.0000000000000000e+00"/>
          <Range Index="8" Min="1.0000000000000000e+00" Max="1.4000000000000000e+01"/>
          <Range Index="9" Min="-9.9900000000000000e+02" Max="1.3784288330078125e+03"/>
          <Range Index="10" Min="-9.9900000000000000e+02" Max="5.3802633285522461e+00"/>
        </Ranges>
      </Class>
    </Transform>
  </Transformations>
  <MVAPdfs/>
  <Weights>
    <Layout NLayers="5">
      <Layer Index="0" NNeurons="12">
        <Neuron NSynapses="11">
          8.2557191985924439e-01 5.4089473688167833e-01 1.4492349781953284e+00 4.2467945707877215e+00 -2.0299574600718180e+00 -5.2079751263989116e-01 1.3854619370341761e+00 1.4448562971082026e+00 -2.2179116378880042e+00 -3.8085781910552602e-01 -3.4212842543692665e+00 
        </Neuron>
        <Neuron NSynapses="11">
          2.4997438373215060e+00 -3.9683353505231461e-01 -3.1664873849727311e+00 -4.0067770424670135e-01 9.7263774112747625e-01 -1.8975200823466722e+00 2.3887917539101222e+00 -1.9307557424503047e-01 3.1243883630930140e+00 1.0834540420679601e+00 -2.3035204306796167e-01 
        </Neuron>
        <Neuron NSynapses="11">
          1.4300888293866081e+00 8.1553840434222147e-02 5.0877029611885671e-01 -4.2575237199140901e+00 1.2290799447527632e+00 5.8189634592018358e-01 -3.6487164363126334e+00 5.5381896320561452e-01 -3.8670889231730898e-01 -1.4040242390485613e-01 -7.7020509250503666e-01 
        </Neuron>
        <Neuron NSynapses="11">
          1.2486479791956330e-02 5.4405083300859691e-02 1.5799968228833072e+00 -1.0776265563938712e+00 1.5325982739685142e+00 -2.4109665413541106e+00 6.6005287051734873e-01 1.0053257251646446e+00 -3.8925570826598438e-01 5.2072054058712345e+00 -2.9634214625309170e+00 
        </Neuron>
        <Neuron NSynapses="11">
          6.2858152135157770e+00 -2.9252968949824250e+00 9.0976431970170211e+00 6.7253728340243224e-01 2.5177876303163371e+00 6.8247790402449393e+00 4.0608319595044557e+00 1.0931199698814593e+00 -4.3552853552147530e+00 2.1221770117706201e-01 -4.8795680702753541e-01 
        </Neuron>
        <Neuron NSynapses="11">
          -1.6092288947961366e+00 -1.7824228935643852e+01 1.1776944909030837e-01 3.4460787658248084e+00 7.5045869564660111e-02 -2.8235148864299355e+00 -1.4713363249091697e-02 -7.6776564615004161e-01 2.7637460027348886e+00 2.3201090016741657e+00 3.4324098371611882e+00 
        </Neuron>
        <Neuron NSynapses="11">
          -1.3707313511322363e+00 3.6261371741099553e+00 -4.3751293267833518e+00 -7.0758056269055725e-01 -6.0927057404882179e-01 -1.9477001047705940e+00 -1.4785030737597527e-01 6.0572654545014160e-01 3.6956465351643772e+00 1.8106782094774996e+00 -6.8336182752667085e-01 
        </Neuron>
        <Neuron NSynapses="11">
          -6.6570736247627718e+00 -3.7833108905554597e-01 -3.7689162561126826e+00 3.4118659936374479e-01 1.7072926670858477e+00 1.4400860569693852e+00 -2.9611353431284408e+00 -1.3468145346932709e+00 6.6920243093705334e-01 2.2027737229488670e-01 -8.8931474181463488e-01 
        </Neuron>
        <Neuron NSynapses="11">
          -5.8437051344011506e+00 2.7416543391712578e-01 -7.6909838917904216e-01 1.2732818352915729e+00 1.6008484822965230e+00 -1.0932936340025448e+00 -2.2139141282141321e+00 1.6803928777556913e+00 -3.8017903097378114e+00 -5.7654268538495339e+00 -6.5154878489362877e+00 
        </Neuron>
        <Neuron NSynapses="11">
          -1.5270269972139441e+00 3.2430997477951915e+00 -5.3596000593853761e+00 1.0870522125130875e+00 1.2925336109630274e+00 1.9685647860892821e-01 3.7512584475431336e+00 -1.1314896649607487e+00 3.9877519948211521e-01 -1.2815894697126684e+00 -3.9241861323629718e-01 
        </Neuron>
        <Neuron NSynapses="11">
          -1.7772033538401681e+00 -2.3028883343347117e+00 1.2407319887734469e+00 1.0128869448751039e+00 -1.7458143057690947e+00 2.7435167402955596e+00 4.7327482149443151e-01 -5.1791647253390571e-01 -4.6180893422834685e-01 -2.5151865047347246e+00 -4.3404368121780559e+00 
        </Neuron>
        <Neuron NSynapses="11">
          1.8123854732982750e-01 -2.9819889359934728e+00 2.4570355454658168e+00 1.3045224351366362e+00 -3.6454368407466337e-01 5.0357779113861634e-01 1.6862445488915795e-01 -1.3607670392562503e+00 2.6050198278026271e-01 -9.3386304849945168e-01 -4.4190745350574767e+00 
        </Neuron>
      </Layer>
      <Layer Index="1" NNeurons="12">
        <Neuron NSynapses="11">
          7.1927769996878788e-01 -7.9885326793002909e-01 1.8231962317395303e+00 -1.4693063704189568e+00 3.3052094157753897e+00 -2.3333608440591584e+00 -1.5658224906828850e+00 3.5319073821231712e+00 1.8459750381731124e+00 -3.8714906389874781e+00 -1.6957636249787109e+00 
        </Neuron>
        <Neuron NSynapses="11">
          1.2686329903004603e+00 -3.5429535790189202e+00 8.2404386526245288e-01 3.4634663927749840e+00 -2.4044605220700048e+00 2.5913904376893937e-01 -2.3900401638804394e+00 -5.0592599045216282e+00 -2.2881106636722963e+00 -1.3127774200733908e+00 -1.2487512859928929e+00 
        </Neuron>
        <Neuron NSynapses="11">
          -9.1730121632821759e-01 2.1543905115460049e-01 1.7628662104320809e+00 -2.6131371137014723e+00 -8.8353795563823478e-01 -1.0797076732649553e+00 3.6896455404312865e+00 3.0031463755813914e+00 2.9608782175502735e+00 -1.8953500187456758e+00 2.1996258474677646e+00 
        </Neuron>
        <Neuron NSynapses="11">
          -7.9145278615736181e-01 -8.3323438079450407e-01 1.1354347832844049e+00 -1.5927069431037040e+00 -1.6690782782403163e-01 8.2326263590804405e-01 2.4154144775200943e+00 7.6792481517943323e-01 2.6842558580693412e+00 4.1882339857664146e+00 -2.2057361670533364e+00 
        </Neuron>
        <Neuron NSynapses="11">
          5.0088003395327352e-01 -5.8392731391233306e-02 6.3485269053507942e-01 -1.8631824433319644e+00 -1.0106217303124263e+00 1.3003504475160437e+00 2.6937301716856408e+00 -1.0103329249327651e+00 1.6325270842794087e-01 -3.8130232793258079e-01 4.0427853076902387e-01 
        </Neuron>
        <Neuron NSynapses="11">
          7.7719174599833452e-01 -1.4309283542818629e-01 1.1011435454173519e+00 -2.7312367812115568e+00 2.9654733843976806e+00 2.5160797918550513e+00 2.9818873290083334e+00 -2.0118799295760250e+00 -1.4093267086466106e+00 -4.6764587640640771e+00 4.2526071683857733e-02 
        </Neuron>
        <Neuron NSynapses="11">
          8.3973538895908573e-01 -1.1698983480350718e+00 3.7690528389045581e+00 -7.5433517212306944e-01 -4.8448751734617469e-02 -2.9508715468567104e+00 1.8774943796027750e+00 3.3934789802788550e+00 3.2096327682575543e-01 -1.2769055401861495e+00 1.8611093572896049e+00 
        </Neuron>
        <Neuron NSynapses="11">
          1.0994748492692472e+00 4.2122298723690510e-01 -1.8145813773065286e-01 -1.7877333871109293e+00 -9.3780155915056163e-01 1.9496663786453226e+00 1.4335868927244055e+00 9.5576166487080561e-01 5.0435996399705674e-01 1.9830295701746485e+00 -1.6174701767856410e+00 
        </Neuron>
        <Neuron NSynapses="11">
          -1.9645212265716603e+00 -6.0491008052831297e-01 -3.2356514295874446e+00 3.2165182727851653e+00 1.0773780140116993e+00 -2.4127480214261925e+00 -2.4884018102947167e+00 -3.1476936884325344e+00 -2.9038144014327858e+00 1.3902656612126321e+00 2.7833836624339409e-01 
        </Neuron>
        <Neuron NSynapses="11">
          1.1344190294822345e+00 9.0624451601692990e-01 -4.6277035741863406e+00 1.3296647359260307e+00 -3.0489842329432895e+00 9.3631220587256891e-01 -3.0285951983356196e-01 -2.3843434805831563e+00 -2.2515589721203386e+00 -1.5751654505187218e-01 -3.5075769372917293e-01 
        </Neuron>
        <Neuron NSynapses="11">
          -3.3644057916736445e+00 -1.3050990466182992e+00 -4.7955486074150073e+00 1.7546769338112247e+00 -2.2813261240190337e+00 -2.1330993091085380e+00 6.3684918724707962e-01 -5.8229277365145071e+00 -2.3604742462334465e+00 -2.0039364449927644e+00 -6.1214499139548662e-01 
        </Neuron>
        <Neuron NSynapses="11">
          1.9755602166107893e+00 9.6162138372079764e-01 2.5804047034214631e-03 -8.9346617406166917e-01 -1.8678102964776873e+00 -1.3308399940581925e-01 -2.2189835450283191e+00 2.2547078154748061e+00 -8.2341014159743242e-01 1.5631457252489140e+00 -9.6605274957083598e-01 
        </Neuron>
      </Layer>
      <Layer Index="2" NNeurons="12">
        <Neuron NSynapses="14">
          -1.8846980102748134e+00 -5.5649347718187525e-01 -2.9794701491661657e+00 1.6603293699198221e-01 -1.2199753670737816e+00 -1.3082575679010320e+00 -1.9730186001126961e+00 3.5550506201800020e-01 6.6333178945649318e-01 -6.1105934896169689e-01 -1.7027561388877961e+00 -5.4031839743964272e-01 -3.2890347376963575e-01 2.7058736870030137e-01 
        </Neuron>
        <Neuron NSynapses="14">
          7.8668477530679448e-01 -1.8181891572114048e-01 -5.0993273022190710e-01 -4.4117475758036356e-01 -1.7855070610294643e+00 -5.7232794477280480e-01 -1.6793390105762112e+00 -1.5286601036682896e+00 -1.0196286442220410e+00 1.4828300583115233e+00 -1.6984172632296661e+00 1.5405706612660186e+00 -1.6016628213091486e+00 1.0335106515008650e+00 
        </Neuron>
        <Neuron NSynapses="14">
          -3.6824554291138498e+00 1.0700658871668800e+00 -1.2525026206785794e+00 -2.9723938060600945e+00 -9.0225871415484393e-01 3.2896684523936753e-01 -2.5663315755856004e+00 -2.5312327509303065e+00 -2.4570823764624383e+00 -1.9221207137108813e+00 4.2103065528554984e-01 -1.1460546944965189e+00 -1.5388778994786474e-02 -1.1665303621219483e+00 
        </Neuron>
        <Neuron NSynapses="14">
          1.4469122775895968e+00 -1.6794608249859533e+00 -2.8576435050983915e+00 -2.2144273544385915e+00 -2.8701591311799939e-02 -1.3256802827060803e+00 -1.2329104037628602e+00 1.9463459684843387e+00 4.3173471197174040e-01 -2.8061919157246155e-02 2.1398274060154230e+00 -2.8233157376375599e+00 5.3677431075056958e-01 3.0875193414020136e-01 
        </Neuron>
        <Neuron NSynapses="14">
          -3.3235193784925463e+00 -8.9925215107140710e-01 5.7528734457059894e-01 -8.2631837876852021e-01 -7.4069374740989402e-01 1.6710646730764287e+00 2.0441860946897910e+00 2.8207835325424346e+00 -2.7975971941048634e+00 3.0785741122768728e-01 -2.4600392236024482e+00 2.3395186811451265e+00 -3.0384076707191898e+00 -2.0621301458210284e+00 
        </Neuron>
        <Neuron NSynapses="14">
          6.2036489658270477e-01 1.4755882797167938e+00 2.4960489044697662e+00 7.5857860589551618e-01 1.9558014494489664e-01 -1.9741827060717862e-01 -9.6983681605986283e-01 9.5499584816265448e-01 3.0518418660820044e+00 -1.7886055274169741e+00 5.9769017309490224e-01 -1.6609249269995408e+00 -1.6210010387164772e-01 -5.3224316579675669e-02 
        </Neuron>
        <Neuron NSynapses="14">
          -1.4844399664496959e+00 -1.2475433962138944e+00 2.6998716656558095e+00 1.8947246305864782e+00 -3.3345356689605754e-01 -5.6005111963046017e-01 -1.1450367986756722e+00 -2.5308344821865307e+00 -2.6957260260831215e+00 5.1351985825350588e-01 -1.1315962994346587e+00 -9.9431838239425030e-01 -5.3992880280989375e-01 -2.1616278867535521e+00 
        </Neuron>
        <Neuron NSynapses="14">
          -3.6738702066529632e+00 -1.7708364937605261e+00 1.2269862202012198e+00 -1.0904763223573402e+00 -2.4812878566516701e+00 -1.1377346002464286e+00 -1.7179504505771535e+00 -4.0110985329616682e+00 8.3610026998486719e-01 -2.7231984405095351e+00 -1.8680926497522068e+00 3.3133651362082746e+00 1.1608118654488669e-02 1.9357420408673423e-01 
        </Neuron>
        <Neuron NSynapses="14">
          -1.5529611069757876e+00 1.3740606983657713e+00 4.1141093401362623e+00 1.1699474784328008e+00 -1.3412496637671087e+00 -1.0590590321852789e+00 -2.5052907839344387e+00 -2.7029384157849640e-01 1.2411422770185494e+00 -1.0398135671940563e+00 4.9925551628918091e-01 1.7403340099841191e+00 1.2423556638192561e+00 -1.3943259794237568e+00 
        </Neuron>
        <Neuron NSynapses="14">
          3.2184072271047039e+00 8.2597575574103632e-01 -3.8489870186103392e+00 -7.7657914810244022e-01 -1.2936181073470976e+00 9.6640848690088543e-01 6.2108790608511122e-01 1.1491239386861101e+00 2.4792038826881053e+00 -5.2314718688993334e-01 1.6428543356911611e+00 -4.8669835965070085e-01 9.5355657806979388e-01 -1.3483951324178836e+00 
        </Neuron>
        <Neuron NSynapses="14">
          6.9619365136190026e-01 -1.6508520011992889e+00 1.5229778026500862e-01 1.2241642104978612e+00 -7.6264936995155275e-01 -8.6042912623644141e-01 5.0935456670486719e-02 -1.9076939816482168e+00 6.7137181231424192e-01 -2.1705219281097321e+00 1.8396819431639239e-01 -1.0050215074851938e+00 2.3878283360779262e+00 9.4485053390835072e-01 
        </Neuron>
        <Neuron NSynapses="14">
          1.3092800218533465e+00 4.8168764102379254e-02 -2.3548123640958725e+00 -7.5011805565864342e-01 -2.2331990185188827e-01 -1.9470565659843857e+00 -6.7032938743208903e-01 -1.6014703366109592e-02 -1.5408458531171374e+00 -2.0059979285877572e+00 -2.0130911465583168e+00 -3.2294321986407087e-01 -1.4362063872832147e+00 -2.8659006075943512e+00 
        </Neuron>
      </Layer>
      <Layer Index="3" NNeurons="15">
        <Neuron NSynapses="1">
          -4.1800683644164556e+00 
        </Neuron>
        <Neuron NSynapses="1">
          -1.5116802000753027e+00 
        </Neuron>
        <Neuron NSynapses="1">
          2.9295686754586097e+00 
        </Neuron>
        <Neuron NSynapses="1">
          1.0802558894759196e+00 
        </Neuron>
        <Neuron NSynapses="1">
          -9.4974686808660169e-01 
        </Neuron>
        <Neuron NSynapses="1">
          -9.2523445339101873e-01 
        </Neuron>
        <Neuron NSynapses="1">
          -2.8383196957534516e+00 
        </Neuron>
        <Neuron NSynapses="1">
          -1.8614014404193870e+00 
        </Neuron>
        <Neuron NSynapses="1">
          -3.0415938236394573e+00 
        </Neuron>
        <Neuron NSynapses="1">
          -1.6505383307509749e+00 
        </Neuron>
        <Neuron NSynapses="1">
          -1.9322129270332176e+00 
        </Neuron>
        <Neuron NSynapses="1">
          8.0505134444244009e-01 
        </Neuron>
        <Neuron NSynapses="1">
          -1.6624670745642645e+00 
        </Neuron>
        <Neuron NSynapses="1">
          7.3906412192981152e-01 
        </Neuron>
        <Neuron NSynapses="1">
          4.8710845380389822e-01 
        </Neuron>
      </Layer>
      <Layer Index="4" NNeurons="1">
        <Neuron NSynapses="0"/>
      </Layer>
    </Layout>
  </Weights>
</MethodSetup>
