<?xml version="1.0"?>
<MethodSetup Method="MLP::MLP_ANN_N-7_NC300">
  <GeneralInfo>
    <Info name="TMVA Release" value="4.2.1 [262657]"/>
    <Info name="ROOT Release" value="6.06/01 [394753]"/>
    <Info name="Creator" value="brucms16"/>
    <Info name="Date" value="Tue Sep  6 18:29:53 2016"/>
    <Info name="Host" value="Linux vocms0315.cern.ch 2.6.32-573.26.1.el6.x86_64 #1 SMP Wed May 4 09:23:05 CEST 2016 x86_64 x86_64 x86_64 GNU/Linux"/>
    <Info name="Dir" value="/home/t3cms/brucms16/CMSSW_8_0_14/src/UserCode/SkeletonAnalysis/macros"/>
    <Info name="Training events" value="15056"/>
    <Info name="TrainingTime" value="2.60536064e+02"/>
    <Info name="AnalysisType" value="Classification"/>
  </GeneralInfo>
  <Options>
    <Option name="NCycles" modified="Yes">300</Option>
    <Option name="HiddenLayers" modified="Yes">N,N,N+-7</Option>
    <Option name="NeuronType" modified="No">sigmoid</Option>
    <Option name="RandomSeed" modified="No">1</Option>
    <Option name="EstimatorType" modified="No">CE</Option>
    <Option name="NeuronInputType" modified="No">sum</Option>
    <Option name="V" modified="Yes">False</Option>
    <Option name="VerbosityLevel" modified="No">Default</Option>
    <Option name="VarTransform" modified="Yes">Norm</Option>
    <Option name="H" modified="Yes">False</Option>
    <Option name="CreateMVAPdfs" modified="No">False</Option>
    <Option name="IgnoreNegWeightsInTraining" modified="No">False</Option>
    <Option name="TrainingMethod" modified="No">BP</Option>
    <Option name="LearningRate" modified="Yes">9.000000e-02</Option>
    <Option name="DecayRate" modified="Yes">1.000000e-02</Option>
    <Option name="TestRate" modified="No">10</Option>
    <Option name="EpochMonitoring" modified="No">False</Option>
    <Option name="Sampling" modified="No">1.000000e+00</Option>
    <Option name="SamplingEpoch" modified="No">1.000000e+00</Option>
    <Option name="SamplingImportance" modified="No">1.000000e+00</Option>
    <Option name="SamplingTraining" modified="No">True</Option>
    <Option name="SamplingTesting" modified="No">False</Option>
    <Option name="ResetStep" modified="No">50</Option>
    <Option name="Tau" modified="No">3.000000e+00</Option>
    <Option name="BPMode" modified="No">sequential</Option>
    <Option name="BatchSize" modified="No">-1</Option>
    <Option name="ConvergenceImprove" modified="No">1.000000e-30</Option>
    <Option name="ConvergenceTests" modified="No">-1</Option>
    <Option name="UseRegulator" modified="No">False</Option>
    <Option name="UpdateLimit" modified="No">10000</Option>
    <Option name="CalculateErrors" modified="No">False</Option>
    <Option name="WeightRange" modified="No">1.000000e+00</Option>
  </Options>
  <Variables NVar="11">
    <Variable VarIndex="0" Expression="Jet1Pt" Label="Jet1Pt" Title="Jet1Pt" Unit="" Internal="Jet1Pt" Type="F" Min="1.10048698e+02" Max="1.57276038e+03"/>
    <Variable VarIndex="1" Expression="LepPt" Label="LepPt" Title="LepPt" Unit="" Internal="LepPt" Type="F" Min="5.00075817e+00" Max="2.99984379e+01"/>
    <Variable VarIndex="2" Expression="LepChg" Label="LepChg" Title="LepChg" Unit="" Internal="LepChg" Type="F" Min="-1.00000000e+00" Max="1.00000000e+00"/>
    <Variable VarIndex="3" Expression="LepEta" Label="LepEta" Title="LepEta" Unit="" Internal="LepEta" Type="F" Min="-2.48411560e+00" Max="2.49880052e+00"/>
    <Variable VarIndex="4" Expression="Met" Label="Met" Title="Met" Unit="" Internal="Met" Type="F" Min="2.80020294e+02" Max="1.28947937e+03"/>
    <Variable VarIndex="5" Expression="mt" Label="mt" Title="mt" Unit="" Internal="mt" Type="F" Min="5.37815737e-04" Max="3.00527191e+02"/>
    <Variable VarIndex="6" Expression="HT20" Label="HT20" Title="HT20" Unit="" Internal="HT20" Type="F" Min="1.12003395e+02" Max="4.50487305e+03"/>
    <Variable VarIndex="7" Expression="NbLoose30" Label="NbLoose30" Title="NbLoose30" Unit="" Internal="NbLoose30" Type="F" Min="0.00000000e+00" Max="6.00000000e+00"/>
    <Variable VarIndex="8" Expression="Njet" Label="Njet" Title="Njet" Unit="" Internal="Njet" Type="F" Min="1.00000000e+00" Max="1.40000000e+01"/>
    <Variable VarIndex="9" Expression="JetHBpt" Label="JetHBpt" Title="JetHBpt" Unit="" Internal="JetHBpt" Type="F" Min="-9.99000000e+02" Max="1.37842883e+03"/>
    <Variable VarIndex="10" Expression="DrJetHBLep" Label="DrJetHBLep" Title="DrJetHBLep" Unit="" Internal="DrJetHBLep" Type="F" Min="-9.99000000e+02" Max="5.38026333e+00"/>
  </Variables>
  <Spectators NSpec="0"/>
  <Classes NClass="2">
    <Class Name="Signal" Index="0"/>
    <Class Name="Background" Index="1"/>
  </Classes>
  <Transformations NTransformations="1">
    <Transform Name="Normalize">
      <Selection>
        <Input NInputs="11">
          <Input Type="Variable" Label="Jet1Pt" Expression="Jet1Pt"/>
          <Input Type="Variable" Label="LepPt" Expression="LepPt"/>
          <Input Type="Variable" Label="LepChg" Expression="LepChg"/>
          <Input Type="Variable" Label="LepEta" Expression="LepEta"/>
          <Input Type="Variable" Label="Met" Expression="Met"/>
          <Input Type="Variable" Label="mt" Expression="mt"/>
          <Input Type="Variable" Label="HT20" Expression="HT20"/>
          <Input Type="Variable" Label="NbLoose30" Expression="NbLoose30"/>
          <Input Type="Variable" Label="Njet" Expression="Njet"/>
          <Input Type="Variable" Label="JetHBpt" Expression="JetHBpt"/>
          <Input Type="Variable" Label="DrJetHBLep" Expression="DrJetHBLep"/>
        </Input>
        <Output NOutputs="11">
          <Output Type="Variable" Label="Jet1Pt" Expression="Jet1Pt"/>
          <Output Type="Variable" Label="LepPt" Expression="LepPt"/>
          <Output Type="Variable" Label="LepChg" Expression="LepChg"/>
          <Output Type="Variable" Label="LepEta" Expression="LepEta"/>
          <Output Type="Variable" Label="Met" Expression="Met"/>
          <Output Type="Variable" Label="mt" Expression="mt"/>
          <Output Type="Variable" Label="HT20" Expression="HT20"/>
          <Output Type="Variable" Label="NbLoose30" Expression="NbLoose30"/>
          <Output Type="Variable" Label="Njet" Expression="Njet"/>
          <Output Type="Variable" Label="JetHBpt" Expression="JetHBpt"/>
          <Output Type="Variable" Label="DrJetHBLep" Expression="DrJetHBLep"/>
        </Output>
      </Selection>
      <Class ClassIndex="0">
        <Ranges>
          <Range Index="0" Min="1.1004869842529297e+02" Max="1.2779298095703125e+03"/>
          <Range Index="1" Min="5.0007581710815430e+00" Max="2.9949773788452148e+01"/>
          <Range Index="2" Min="-1.0000000000000000e+00" Max="1.0000000000000000e+00"/>
          <Range Index="3" Min="-2.4711689949035645e+00" Max="2.3791146278381348e+00"/>
          <Range Index="4" Min="2.8022933959960938e+02" Max="1.2514943847656250e+03"/>
          <Range Index="5" Min="5.5733408778905869e-02" Max="3.0052719116210938e+02"/>
          <Range Index="6" Min="1.1735253143310547e+02" Max="2.3474851074218750e+03"/>
          <Range Index="7" Min="0.0000000000000000e+00" Max="5.0000000000000000e+00"/>
          <Range Index="8" Min="1.0000000000000000e+00" Max="1.1000000000000000e+01"/>
          <Range Index="9" Min="2.0057344436645508e+01" Max="1.0570437011718750e+03"/>
          <Range Index="10" Min="6.2708742916584015e-05" Max="4.9576835632324219e+00"/>
        </Ranges>
      </Class>
      <Class ClassIndex="1">
        <Ranges>
          <Range Index="0" Min="1.1005755615234375e+02" Max="1.5727603759765625e+03"/>
          <Range Index="1" Min="5.0013527870178223e+00" Max="2.9998437881469727e+01"/>
          <Range Index="2" Min="-1.0000000000000000e+00" Max="1.0000000000000000e+00"/>
          <Range Index="3" Min="-2.4841156005859375e+00" Max="2.4988005161285400e+00"/>
          <Range Index="4" Min="2.8002029418945312e+02" Max="1.2894793701171875e+03"/>
          <Range Index="5" Min="5.3781573660671711e-04" Max="2.1579251098632812e+02"/>
          <Range Index="6" Min="1.1200339508056641e+02" Max="4.5048730468750000e+03"/>
          <Range Index="7" Min="0.0000000000000000e+00" Max="6.0000000000000000e+00"/>
          <Range Index="8" Min="1.0000000000000000e+00" Max="1.4000000000000000e+01"/>
          <Range Index="9" Min="-9.9900000000000000e+02" Max="1.3784288330078125e+03"/>
          <Range Index="10" Min="-9.9900000000000000e+02" Max="5.3802633285522461e+00"/>
        </Ranges>
      </Class>
      <Class ClassIndex="2">
        <Ranges>
          <Range Index="0" Min="1.1004869842529297e+02" Max="1.5727603759765625e+03"/>
          <Range Index="1" Min="5.0007581710815430e+00" Max="2.9998437881469727e+01"/>
          <Range Index="2" Min="-1.0000000000000000e+00" Max="1.0000000000000000e+00"/>
          <Range Index="3" Min="-2.4841156005859375e+00" Max="2.4988005161285400e+00"/>
          <Range Index="4" Min="2.8002029418945312e+02" Max="1.2894793701171875e+03"/>
          <Range Index="5" Min="5.3781573660671711e-04" Max="3.0052719116210938e+02"/>
          <Range Index="6" Min="1.1200339508056641e+02" Max="4.5048730468750000e+03"/>
          <Range Index="7" Min="0.0000000000000000e+00" Max="6.0000000000000000e+00"/>
          <Range Index="8" Min="1.0000000000000000e+00" Max="1.4000000000000000e+01"/>
          <Range Index="9" Min="-9.9900000000000000e+02" Max="1.3784288330078125e+03"/>
          <Range Index="10" Min="-9.9900000000000000e+02" Max="5.3802633285522461e+00"/>
        </Ranges>
      </Class>
    </Transform>
  </Transformations>
  <MVAPdfs/>
  <Weights>
    <Layout NLayers="5">
      <Layer Index="0" NNeurons="12">
        <Neuron NSynapses="11">
          8.9794347117994289e-01 1.9729859530300835e+00 4.1897486282131888e+00 -6.7575172968864200e-02 -2.7285881808676710e-01 -1.6585251864926165e+00 -3.2935709228501242e+00 1.9666039165607831e+00 4.9735608265979309e-01 1.7097529303288286e-01 -1.7568150812097201e+00 
        </Neuron>
        <Neuron NSynapses="11">
          1.6247141663623255e+00 -2.0027988004128194e+00 3.4868622340159638e-02 2.5124300584042419e-01 1.7459734053301601e+00 -6.2399169340182237e-01 5.4928829888377022e+00 1.6001687048458332e-01 2.7001051368581503e+00 2.9038215770959117e+00 -2.1237587227777341e+00 
        </Neuron>
        <Neuron NSynapses="11">
          9.4901713814558197e-01 -9.3768071084481219e-01 -5.1858027432996101e-01 2.4722429871254956e-01 -1.1306586999303496e+00 -3.0319550498418995e+00 -5.7190053181110545e-01 -1.5078800567239536e-01 -3.3196010943709359e-01 1.8671201929363754e+00 7.9340235998164388e-01 
        </Neuron>
        <Neuron NSynapses="11">
          -1.3656043744289232e+00 2.6206989553094795e+00 3.8100450136840858e-01 1.3745592984595228e-01 8.4622617171082606e+00 -2.6428286857322736e-01 -1.0380252928664857e+00 7.1413685023316209e-01 -2.0432160393209888e+00 -3.5258577696427779e-01 2.5929581157356901e-01 
        </Neuron>
        <Neuron NSynapses="11">
          5.1415601895594198e+00 -2.3522651091732291e-01 4.5545511321847405e+00 2.1211317229488977e+00 1.0678638450734129e-01 -2.5665710621164317e-01 -1.1215992419551817e+00 1.7319515408972384e+00 -8.9825541032736780e+00 4.0773692257447919e-01 -8.0152465684920191e+00 
        </Neuron>
        <Neuron NSynapses="11">
          -1.3492453167716696e+00 -2.2395779404752512e+00 -1.1454105583953188e+01 1.7282389794889845e+01 6.4575216311227868e-01 -2.6291319336260384e+00 9.2965831347683192e-01 -4.3605404120445085e-01 -1.4556041598035732e+00 2.9385722777130607e+00 -2.7767460196515894e+00 
        </Neuron>
        <Neuron NSynapses="11">
          -1.2251660639345681e+00 -1.5362248147238369e+00 8.7447162433766346e-01 -4.3828934875256262e+00 6.5944359771737915e-01 -1.4642795694311399e+00 1.5549071462642572e+00 1.0280840359378762e+00 6.3879541773841959e+00 7.8544969087232230e-01 2.2788535317513174e+00 
        </Neuron>
        <Neuron NSynapses="11">
          -6.3150189792541589e+00 -8.1243662395262628e-01 1.1759603265548024e+00 7.7728249763077706e-01 8.9177804493083143e-02 2.6054493580517888e+00 -6.1591053953230845e-01 -1.0004332318214950e+00 2.1256965006971718e+00 8.9479375824798457e-01 3.1729748175415176e+00 
        </Neuron>
        <Neuron NSynapses="11">
          -7.7169451988563029e+00 -2.3140234443676504e+00 7.2614344244222695e-01 -7.1011569454282486e-01 4.1285563861568630e-01 -2.3374079688502141e+00 -1.9435221360801196e+00 1.4824396485767284e+00 1.6012910158564320e+00 -8.7317256237488632e+00 -5.1464150927913739e+00 
        </Neuron>
        <Neuron NSynapses="11">
          -1.0208305941938589e+00 -2.6248872293274386e+00 -2.3970866176900230e+00 -2.4522674826209436e+00 -1.2765053237456109e-01 -2.4480751250285051e+00 -2.2238004350283851e+00 -1.0322451381381430e+00 2.5176776553554321e+00 -1.1637775998966418e+00 1.7318126934672211e+00 
        </Neuron>
        <Neuron NSynapses="11">
          -2.2513780916044510e+00 3.9873583405618623e-01 1.0969053766208088e+00 2.0194703440345694e+00 -1.8141009084875324e+00 8.7747858946679425e-01 -2.8682045024022168e-01 -9.9510575390082745e-01 -1.5640596423020166e+00 -2.2177591963084331e+00 -3.9304330926338844e+00 
        </Neuron>
        <Neuron NSynapses="11">
          -2.9342529000023199e-01 -2.1338978596101432e-01 2.0266864783926155e+00 2.3537792209065458e+00 -4.1988234549152192e-01 -1.1180792865806906e+00 -2.7342130650491592e-01 -1.8536479851655219e+00 -9.1317443163983258e-01 -9.4145921803449351e-01 -4.2545588456692620e+00 
        </Neuron>
      </Layer>
      <Layer Index="1" NNeurons="12">
        <Neuron NSynapses="11">
          3.5211542286172537e-01 -1.1894748433050248e+00 1.7110415396525809e+00 1.0547064488333766e+00 4.1382569429406777e+00 -1.9624977981692295e+00 -7.9350607428185393e-01 4.8873351413649431e+00 3.3198228951528148e+00 3.8625760717963420e-02 -2.6006088227704329e+00 
        </Neuron>
        <Neuron NSynapses="11">
          -4.1903600741067687e-01 -1.4456834569351518e+00 2.7723054642304512e+00 2.2034525636136864e+00 -6.0335927147913837e-01 -6.3199692666553908e-01 -1.1599200833539287e+00 -2.4770404148612060e+00 7.6758690367122828e-01 3.2555412392823095e+00 -1.0858081963597856e+00 
        </Neuron>
        <Neuron NSynapses="11">
          1.0122798767538185e-01 1.5700235921511335e-01 1.4852313526138476e+00 -1.8476950305523905e+00 3.1099970192920612e+00 -1.4734464973245933e+00 8.7696601117347772e-01 -2.4396671337890621e-01 4.4928701218485685e+00 3.2996034456362593e+00 -2.0953847373959338e+00 
        </Neuron>
        <Neuron NSynapses="11">
          -1.2894655167692912e+00 -2.0216430480190142e-01 5.7616016279216327e+00 -3.2118542604470042e+00 -9.7167312752369350e-01 1.4814192128890726e+00 2.1387498252818498e+00 1.3303575678509834e+00 2.8981247527579765e+00 4.7082928242279491e+00 -1.7626974539610172e+00 
        </Neuron>
        <Neuron NSynapses="11">
          -2.4969853169153136e-01 1.3991903515368267e-01 2.2679719209026364e-01 -1.8823217178372593e+00 -3.5871546412642257e+00 1.0326889084114574e+00 2.4860777024038172e+00 -4.3209497481259209e+00 -1.0351580275730474e+00 -8.7879401147084613e-01 2.8285981811013841e+00 
        </Neuron>
        <Neuron NSynapses="11">
          2.3719384005483883e+00 -4.8998557052161473e-01 -2.2362008565060287e-03 -2.5425066365391991e+00 6.5962093034591118e-01 1.3755571030530644e+00 -3.2808162240642891e-01 6.4897349360079304e-01 -1.9524828243886871e-01 -2.5730234470133118e+00 1.1516342482162170e+00 
        </Neuron>
        <Neuron NSynapses="11">
          1.7463349214318755e+00 -1.8791088816726400e+00 -1.8494895844421535e+00 1.8776191335092265e+00 6.6013338639315178e-01 -1.8788588091553695e+00 1.1802264648238683e+00 1.2296217466161949e+00 -2.5957314688499120e+00 -1.5654787962651262e+00 3.6685261588779539e+00 
        </Neuron>
        <Neuron NSynapses="11">
          1.0226411854028918e+00 4.4074217019526157e-01 -1.7875803830827264e-01 -2.0811621235301532e+00 -9.6046110811817231e-01 1.7231330266254217e+00 1.2208975152317907e+00 8.1384980559886733e-01 1.5139066974857612e-01 1.8987557553213281e+00 -1.7041837043525663e+00 
        </Neuron>
        <Neuron NSynapses="11">
          -2.8596885123127824e-01 -7.5482935329475243e-01 -2.5666037910693529e+00 4.8211430057428570e+00 2.8263262544821459e+00 -1.1147201123606081e+00 3.9657690448461662e+00 -5.7175531662481693e-01 -2.6909840227520356e+00 -4.4771404161544943e+00 3.2764127689103382e+00 
        </Neuron>
        <Neuron NSynapses="11">
          8.3846952124784202e-01 9.6520240865455398e-01 -2.3803093491597198e+00 2.5558700774451077e+00 -2.6066760618864713e+00 1.0407088521752434e+00 -1.1484516425021363e+00 -2.4348227142629542e-01 -2.7437610548890485e+00 -3.0733991126286884e+00 2.8843793291662780e-02 
        </Neuron>
        <Neuron NSynapses="11">
          -2.5983824142056511e+00 -1.9755570405435101e+00 -4.6208629113932629e+00 1.9866684046557035e+00 -1.8263711974366108e+00 -1.8780498287700860e+00 9.3216865233362500e-01 -5.4080803507830288e-01 -1.2221865686496329e+00 -3.6232933723942486e+00 8.3825839923632883e-01 
        </Neuron>
        <Neuron NSynapses="11">
          1.9261685562321487e+00 1.2957133528873972e+00 -9.6904048469612569e-01 7.0878147533502689e-02 -1.2075570856256355e+00 -1.2368405282181560e+00 -2.4293349423609065e+00 -7.7029396687069818e-01 2.1196242431049903e-01 2.2182321688517885e+00 -1.0946136721749404e+00 
        </Neuron>
      </Layer>
      <Layer Index="2" NNeurons="12">
        <Neuron NSynapses="11">
          8.0978491264502872e-01 -2.3028485858790186e+00 -2.1229039677742652e+00 1.2003253829025109e+00 4.4436507462853225e-01 -2.6098451248108923e+00 -1.2221309483961289e+00 8.4396066182931029e-01 -1.5969229740280716e-01 8.0786186200856092e-01 -1.6988381995439457e+00 
        </Neuron>
        <Neuron NSynapses="11">
          -1.0709941742612478e-01 1.0586398364157374e+00 9.6269575273221830e-01 1.2326559213530890e+00 -3.5261060077512668e-01 2.1405991803610844e-01 -1.5763295145876871e-01 -1.0949470326139277e+00 -7.4781958639677126e-01 -1.5319775600926866e+00 -2.1045790757588096e+00 
        </Neuron>
        <Neuron NSynapses="11">
          -3.1038565250024339e+00 2.2248157674881832e+00 -1.8499419220485238e+00 5.5336354081049233e-01 -1.6019835345027826e+00 1.0696298963779663e-01 -1.7710278476000758e+00 -1.1228203087433326e+00 2.0590593671816215e+00 -3.7205515000955915e+00 1.2060562999951534e+00 
        </Neuron>
        <Neuron NSynapses="11">
          1.7700122562989093e+00 -3.5217408849897187e+00 -1.6522164632991438e+00 -5.7042050044535009e-01 -1.6080612940071772e+00 4.2130087688881546e-01 -1.2913072874228790e-01 1.5604260956188052e+00 -3.9207510486081008e+00 1.5812010992543535e+00 -2.3668780593736263e+00 
        </Neuron>
        <Neuron NSynapses="11">
          -2.2220406762139997e+00 -3.3327344729380721e+00 9.4635549304247757e-01 -2.5472881301637220e+00 -1.4453652687825065e+00 8.8506916918916823e-01 -3.0092806799064387e-01 -1.6396570486462050e+00 3.0636881216384801e+00 -1.6551918172950804e+00 1.4322477369790589e+00 
        </Neuron>
        <Neuron NSynapses="11">
          9.0782229386286395e-01 -7.9160860050224979e-01 -8.1657228802031323e-01 1.0466414606730565e-01 -1.2047360251581578e+00 4.6445743703851411e-01 1.9217062718583757e+00 1.4372526857764660e+00 1.5710403943821458e+00 -1.3350119986971569e+00 6.5546804751354182e-01 
        </Neuron>
        <Neuron NSynapses="11">
          -3.1355004525463106e+00 -1.7504258825281740e-01 -1.9234177170368607e+00 -2.6489768928781356e+00 -9.1219203592223552e-01 3.0914890211786161e-01 8.7644706702538089e-01 1.3889604785484899e+00 -6.6135365068319374e-01 2.6237564452837141e+00 -2.4735871302513308e+00 
        </Neuron>
        <Neuron NSynapses="11">
          1.0090953436129955e-01 3.3957902994099673e+00 -1.5949754504367406e+00 -1.5807465280973316e+00 -1.5875770504093005e+00 -1.3909760405182396e+00 -8.9479329679724384e-01 -2.5236683000825471e+00 -1.0698856491881270e+00 -9.5960187286009446e-01 2.9147236981988494e+00 
        </Neuron>
        <Neuron NSynapses="11">
          8.2820396795266593e-01 6.4953939228161242e-02 -9.7341029832593939e-01 -3.0799522634148166e+00 -1.8712631994151061e+00 -2.2722371741591135e-01 -6.5624968263884431e-01 -2.0642332781217791e+00 6.0542459756810063e-01 -3.1348894299453600e+00 -2.0085543483053216e+00 
        </Neuron>
        <Neuron NSynapses="11">
          -3.4288278879841232e+00 7.3822147858900644e-01 -1.4347751960321347e+00 -2.3555853252886041e+00 -7.8760782050247979e-01 -2.1095115260238262e+00 -2.3233584856702008e+00 4.4051878317765453e-01 -6.9878795829624918e-02 -2.9018967569391365e+00 2.4276006002805604e+00 
        </Neuron>
        <Neuron NSynapses="11">
          3.8372149506826103e-01 -1.1242492262325459e+00 -3.8432458894248948e-02 2.2621373380580807e+00 1.0558813330345700e+00 1.0121316421288234e-01 -8.0345189250790228e-01 5.5779368165602037e-04 -3.6500193479372127e+00 3.3977863639129748e+00 -3.3242336635888958e-01 
        </Neuron>
        <Neuron NSynapses="11">
          1.8404422225807019e-02 -2.3817393303623013e-01 7.5794926659540163e-01 1.7254571447927767e+00 -2.2075811790834816e+00 -2.4536092006114549e-01 3.8270370314527691e-01 -1.7706494893673781e+00 -1.9084609531090586e+00 -6.9759755250514577e-01 -7.5182669623610199e-01 
        </Neuron>
      </Layer>
      <Layer Index="3" NNeurons="12">
        <Neuron NSynapses="1">
          -1.4713113450237740e+00 
        </Neuron>
        <Neuron NSynapses="1">
          3.5991852957130703e+00 
        </Neuron>
        <Neuron NSynapses="1">
          1.6881676240020125e+00 
        </Neuron>
        <Neuron NSynapses="1">
          -1.9965211179578153e+00 
        </Neuron>
        <Neuron NSynapses="1">
          1.1687085906533559e+00 
        </Neuron>
        <Neuron NSynapses="1">
          -4.1245067942295627e-01 
        </Neuron>
        <Neuron NSynapses="1">
          -3.1404700354272524e-01 
        </Neuron>
        <Neuron NSynapses="1">
          -2.4358107274820351e+00 
        </Neuron>
        <Neuron NSynapses="1">
          1.7376066312665475e+00 
        </Neuron>
        <Neuron NSynapses="1">
          -1.8178759125759985e+00 
        </Neuron>
        <Neuron NSynapses="1">
          1.8800966279789963e+00 
        </Neuron>
        <Neuron NSynapses="1">
          -3.5737821187616668e-02 
        </Neuron>
      </Layer>
      <Layer Index="4" NNeurons="1">
        <Neuron NSynapses="0"/>
      </Layer>
    </Layout>
  </Weights>
</MethodSetup>
