<?xml version="1.0"?>
<MethodSetup Method="MLP::MLP_ANN_N1_NC700">
  <GeneralInfo>
    <Info name="TMVA Release" value="4.2.1 [262657]"/>
    <Info name="ROOT Release" value="6.06/01 [394753]"/>
    <Info name="Creator" value="brucms16"/>
    <Info name="Date" value="Wed Sep  7 02:17:19 2016"/>
    <Info name="Host" value="Linux vocms0315.cern.ch 2.6.32-573.26.1.el6.x86_64 #1 SMP Wed May 4 09:23:05 CEST 2016 x86_64 x86_64 x86_64 GNU/Linux"/>
    <Info name="Dir" value="/home/t3cms/brucms16/CMSSW_8_0_14/src/UserCode/SkeletonAnalysis/macros"/>
    <Info name="Training events" value="15056"/>
    <Info name="TrainingTime" value="3.39656647e+02"/>
    <Info name="AnalysisType" value="Classification"/>
  </GeneralInfo>
  <Options>
    <Option name="NCycles" modified="Yes">700</Option>
    <Option name="HiddenLayers" modified="Yes">N,N,N+1</Option>
    <Option name="NeuronType" modified="No">sigmoid</Option>
    <Option name="RandomSeed" modified="No">1</Option>
    <Option name="EstimatorType" modified="No">CE</Option>
    <Option name="NeuronInputType" modified="No">sum</Option>
    <Option name="V" modified="Yes">False</Option>
    <Option name="VerbosityLevel" modified="No">Default</Option>
    <Option name="VarTransform" modified="Yes">Norm</Option>
    <Option name="H" modified="Yes">False</Option>
    <Option name="CreateMVAPdfs" modified="No">False</Option>
    <Option name="IgnoreNegWeightsInTraining" modified="No">False</Option>
    <Option name="TrainingMethod" modified="No">BP</Option>
    <Option name="LearningRate" modified="Yes">9.000000e-02</Option>
    <Option name="DecayRate" modified="Yes">1.000000e-02</Option>
    <Option name="TestRate" modified="No">10</Option>
    <Option name="EpochMonitoring" modified="No">False</Option>
    <Option name="Sampling" modified="No">1.000000e+00</Option>
    <Option name="SamplingEpoch" modified="No">1.000000e+00</Option>
    <Option name="SamplingImportance" modified="No">1.000000e+00</Option>
    <Option name="SamplingTraining" modified="No">True</Option>
    <Option name="SamplingTesting" modified="No">False</Option>
    <Option name="ResetStep" modified="No">50</Option>
    <Option name="Tau" modified="No">3.000000e+00</Option>
    <Option name="BPMode" modified="No">sequential</Option>
    <Option name="BatchSize" modified="No">-1</Option>
    <Option name="ConvergenceImprove" modified="No">1.000000e-30</Option>
    <Option name="ConvergenceTests" modified="No">-1</Option>
    <Option name="UseRegulator" modified="No">False</Option>
    <Option name="UpdateLimit" modified="No">10000</Option>
    <Option name="CalculateErrors" modified="No">False</Option>
    <Option name="WeightRange" modified="No">1.000000e+00</Option>
  </Options>
  <Variables NVar="11">
    <Variable VarIndex="0" Expression="Jet1Pt" Label="Jet1Pt" Title="Jet1Pt" Unit="" Internal="Jet1Pt" Type="F" Min="1.10048698e+02" Max="1.57276038e+03"/>
    <Variable VarIndex="1" Expression="LepPt" Label="LepPt" Title="LepPt" Unit="" Internal="LepPt" Type="F" Min="5.00075817e+00" Max="2.99984379e+01"/>
    <Variable VarIndex="2" Expression="LepChg" Label="LepChg" Title="LepChg" Unit="" Internal="LepChg" Type="F" Min="-1.00000000e+00" Max="1.00000000e+00"/>
    <Variable VarIndex="3" Expression="LepEta" Label="LepEta" Title="LepEta" Unit="" Internal="LepEta" Type="F" Min="-2.48411560e+00" Max="2.49880052e+00"/>
    <Variable VarIndex="4" Expression="Met" Label="Met" Title="Met" Unit="" Internal="Met" Type="F" Min="2.80020294e+02" Max="1.28947937e+03"/>
    <Variable VarIndex="5" Expression="mt" Label="mt" Title="mt" Unit="" Internal="mt" Type="F" Min="5.37815737e-04" Max="3.00527191e+02"/>
    <Variable VarIndex="6" Expression="HT20" Label="HT20" Title="HT20" Unit="" Internal="HT20" Type="F" Min="1.12003395e+02" Max="4.50487305e+03"/>
    <Variable VarIndex="7" Expression="NbLoose30" Label="NbLoose30" Title="NbLoose30" Unit="" Internal="NbLoose30" Type="F" Min="0.00000000e+00" Max="6.00000000e+00"/>
    <Variable VarIndex="8" Expression="Njet" Label="Njet" Title="Njet" Unit="" Internal="Njet" Type="F" Min="1.00000000e+00" Max="1.40000000e+01"/>
    <Variable VarIndex="9" Expression="JetHBpt" Label="JetHBpt" Title="JetHBpt" Unit="" Internal="JetHBpt" Type="F" Min="-9.99000000e+02" Max="1.37842883e+03"/>
    <Variable VarIndex="10" Expression="DrJetHBLep" Label="DrJetHBLep" Title="DrJetHBLep" Unit="" Internal="DrJetHBLep" Type="F" Min="-9.99000000e+02" Max="5.38026333e+00"/>
  </Variables>
  <Spectators NSpec="0"/>
  <Classes NClass="2">
    <Class Name="Signal" Index="0"/>
    <Class Name="Background" Index="1"/>
  </Classes>
  <Transformations NTransformations="1">
    <Transform Name="Normalize">
      <Selection>
        <Input NInputs="11">
          <Input Type="Variable" Label="Jet1Pt" Expression="Jet1Pt"/>
          <Input Type="Variable" Label="LepPt" Expression="LepPt"/>
          <Input Type="Variable" Label="LepChg" Expression="LepChg"/>
          <Input Type="Variable" Label="LepEta" Expression="LepEta"/>
          <Input Type="Variable" Label="Met" Expression="Met"/>
          <Input Type="Variable" Label="mt" Expression="mt"/>
          <Input Type="Variable" Label="HT20" Expression="HT20"/>
          <Input Type="Variable" Label="NbLoose30" Expression="NbLoose30"/>
          <Input Type="Variable" Label="Njet" Expression="Njet"/>
          <Input Type="Variable" Label="JetHBpt" Expression="JetHBpt"/>
          <Input Type="Variable" Label="DrJetHBLep" Expression="DrJetHBLep"/>
        </Input>
        <Output NOutputs="11">
          <Output Type="Variable" Label="Jet1Pt" Expression="Jet1Pt"/>
          <Output Type="Variable" Label="LepPt" Expression="LepPt"/>
          <Output Type="Variable" Label="LepChg" Expression="LepChg"/>
          <Output Type="Variable" Label="LepEta" Expression="LepEta"/>
          <Output Type="Variable" Label="Met" Expression="Met"/>
          <Output Type="Variable" Label="mt" Expression="mt"/>
          <Output Type="Variable" Label="HT20" Expression="HT20"/>
          <Output Type="Variable" Label="NbLoose30" Expression="NbLoose30"/>
          <Output Type="Variable" Label="Njet" Expression="Njet"/>
          <Output Type="Variable" Label="JetHBpt" Expression="JetHBpt"/>
          <Output Type="Variable" Label="DrJetHBLep" Expression="DrJetHBLep"/>
        </Output>
      </Selection>
      <Class ClassIndex="0">
        <Ranges>
          <Range Index="0" Min="1.1004869842529297e+02" Max="1.2779298095703125e+03"/>
          <Range Index="1" Min="5.0007581710815430e+00" Max="2.9949773788452148e+01"/>
          <Range Index="2" Min="-1.0000000000000000e+00" Max="1.0000000000000000e+00"/>
          <Range Index="3" Min="-2.4711689949035645e+00" Max="2.3791146278381348e+00"/>
          <Range Index="4" Min="2.8022933959960938e+02" Max="1.2514943847656250e+03"/>
          <Range Index="5" Min="5.5733408778905869e-02" Max="3.0052719116210938e+02"/>
          <Range Index="6" Min="1.1735253143310547e+02" Max="2.3474851074218750e+03"/>
          <Range Index="7" Min="0.0000000000000000e+00" Max="5.0000000000000000e+00"/>
          <Range Index="8" Min="1.0000000000000000e+00" Max="1.1000000000000000e+01"/>
          <Range Index="9" Min="2.0057344436645508e+01" Max="1.0570437011718750e+03"/>
          <Range Index="10" Min="6.2708742916584015e-05" Max="4.9576835632324219e+00"/>
        </Ranges>
      </Class>
      <Class ClassIndex="1">
        <Ranges>
          <Range Index="0" Min="1.1005755615234375e+02" Max="1.5727603759765625e+03"/>
          <Range Index="1" Min="5.0013527870178223e+00" Max="2.9998437881469727e+01"/>
          <Range Index="2" Min="-1.0000000000000000e+00" Max="1.0000000000000000e+00"/>
          <Range Index="3" Min="-2.4841156005859375e+00" Max="2.4988005161285400e+00"/>
          <Range Index="4" Min="2.8002029418945312e+02" Max="1.2894793701171875e+03"/>
          <Range Index="5" Min="5.3781573660671711e-04" Max="2.1579251098632812e+02"/>
          <Range Index="6" Min="1.1200339508056641e+02" Max="4.5048730468750000e+03"/>
          <Range Index="7" Min="0.0000000000000000e+00" Max="6.0000000000000000e+00"/>
          <Range Index="8" Min="1.0000000000000000e+00" Max="1.4000000000000000e+01"/>
          <Range Index="9" Min="-9.9900000000000000e+02" Max="1.3784288330078125e+03"/>
          <Range Index="10" Min="-9.9900000000000000e+02" Max="5.3802633285522461e+00"/>
        </Ranges>
      </Class>
      <Class ClassIndex="2">
        <Ranges>
          <Range Index="0" Min="1.1004869842529297e+02" Max="1.5727603759765625e+03"/>
          <Range Index="1" Min="5.0007581710815430e+00" Max="2.9998437881469727e+01"/>
          <Range Index="2" Min="-1.0000000000000000e+00" Max="1.0000000000000000e+00"/>
          <Range Index="3" Min="-2.4841156005859375e+00" Max="2.4988005161285400e+00"/>
          <Range Index="4" Min="2.8002029418945312e+02" Max="1.2894793701171875e+03"/>
          <Range Index="5" Min="5.3781573660671711e-04" Max="3.0052719116210938e+02"/>
          <Range Index="6" Min="1.1200339508056641e+02" Max="4.5048730468750000e+03"/>
          <Range Index="7" Min="0.0000000000000000e+00" Max="6.0000000000000000e+00"/>
          <Range Index="8" Min="1.0000000000000000e+00" Max="1.4000000000000000e+01"/>
          <Range Index="9" Min="-9.9900000000000000e+02" Max="1.3784288330078125e+03"/>
          <Range Index="10" Min="-9.9900000000000000e+02" Max="5.3802633285522461e+00"/>
        </Ranges>
      </Class>
    </Transform>
  </Transformations>
  <MVAPdfs/>
  <Weights>
    <Layout NLayers="5">
      <Layer Index="0" NNeurons="12">
        <Neuron NSynapses="11">
          -1.9726909871317533e-01 -1.0855296703147339e-01 -1.0734742353281121e-01 -2.1406512431639038e+00 -4.1505519735378664e+00 2.0473900663261646e-01 1.0901689360654838e+00 2.2441889332763809e+00 -4.0391915982861066e+00 -1.9116253510475056e-01 -3.4541834376074352e+00 
        </Neuron>
        <Neuron NSynapses="11">
          -2.5523035697853111e+00 3.5752449490926924e-01 4.6007695372176131e-02 -2.5591754881186302e+00 1.8002487338880697e+00 1.3488243465167116e+00 1.8930745431171845e+00 2.3243143035028571e-01 4.1457264793744129e+00 5.6731501824810870e-01 -1.0089561477104521e-01 
        </Neuron>
        <Neuron NSynapses="11">
          8.3567216001253675e-01 1.0857115820742054e-01 -1.1717439558037830e-01 -1.9764662100466346e+00 2.7662219353179118e+00 -1.2038241674783627e+00 -3.5906521248706254e+00 -1.8768135529410626e-01 -6.9281331109882016e-01 -5.5642732312783072e-01 -5.4493270238720071e-01 
        </Neuron>
        <Neuron NSynapses="11">
          1.1615658963778477e+00 6.1068251340686608e-01 3.2296115269211126e-02 7.0227045861857607e-01 2.6004001843034277e+00 -1.7607532868224833e+00 3.3215273871256717e-01 1.1446802073117768e+00 -8.4444188645238139e-01 7.2018610668191974e+00 -2.8031433652886788e+00 
        </Neuron>
        <Neuron NSynapses="11">
          8.3711921518168744e+00 -1.1202494702879466e+00 8.8898216116848232e+00 -1.6421723991018042e+00 -2.1042471724061027e+00 3.4092234840679398e+00 5.2361711442156791e+00 4.9808680237727870e-01 -7.9199413096517135e-01 -8.6041673913358957e-02 -9.3183472498391851e-01 
        </Neuron>
        <Neuron NSynapses="11">
          7.0217740721736310e-01 -1.7336010737870286e+01 8.2374513931571889e-03 2.3573736828429608e+00 1.6984579652213143e+00 -4.5190510405441779e+00 1.4698243953423982e+00 -5.5032720231135568e-01 3.9732202442772424e+00 4.5196764074906198e-01 3.0359287760425930e+00 
        </Neuron>
        <Neuron NSynapses="11">
          -4.8539635317562793e+00 2.6092465150419470e+00 -5.3447891524663946e+00 -1.6880805948157569e+00 -4.2500489502929395e-02 1.7070586529893791e-01 -1.0839938415068227e+00 1.1786958838788737e+00 2.0368200169819235e+00 2.0656529692473855e+00 -7.3020743055774406e-01 
        </Neuron>
        <Neuron NSynapses="11">
          -3.9884539847725078e+00 -9.1345083220803913e-01 -4.5702451690473317e-01 5.1047461115267190e+00 2.7587379473222344e+00 1.6516075961906806e+00 -1.9250152094989736e+00 -1.1012260624806416e+00 6.3738705432306614e-02 1.5136747379936182e+00 6.9628299940769367e-01 
        </Neuron>
        <Neuron NSynapses="11">
          -2.5095921059113335e+00 3.4048581528693594e-01 3.1714306968942716e+00 2.5157143891911806e+00 -1.5031547493980127e-01 -2.9367309279348692e+00 -4.4529956166356381e+00 1.7444792752395850e+00 -1.5542663378447321e+00 -5.4910615193326313e+00 -6.7097319365225001e+00 
        </Neuron>
        <Neuron NSynapses="11">
          -3.6622607046128368e+00 4.4814870447685079e-01 -5.9033526308578157e+00 7.7367690570063730e-01 9.3916891497662325e-01 -2.0864361383648267e+00 3.4171681487389631e+00 -1.0969991730294972e+00 -3.5120484468281399e+00 -7.8027546915655288e-01 2.7314402686368355e-01 
        </Neuron>
        <Neuron NSynapses="11">
          -5.7662783999468803e-01 -2.2841175646870884e+00 8.9053608336774648e-01 5.0033406924479251e-01 -2.4544939501553637e-02 1.3895107273343597e+00 2.8094949128906649e-01 -4.6785871541156754e-01 -9.9949046027877742e-02 -2.5883817029221317e+00 -3.8161227949632419e+00 
        </Neuron>
        <Neuron NSynapses="11">
          1.2977681931234102e+00 -2.9546874300988377e+00 1.8236902146689415e+00 7.5766909648004344e-01 1.5838528579352800e+00 -8.4147735064427476e-01 -7.0598417916944234e-03 -1.3114158365380755e+00 8.9298206163116900e-01 -1.1756463661851311e+00 -3.8760259498558201e+00 
        </Neuron>
      </Layer>
      <Layer Index="1" NNeurons="12">
        <Neuron NSynapses="11">
          -2.7382111931529947e+00 -1.4946358608198655e+00 -1.3693590722213125e+00 1.9075524501288410e+00 2.0804979422239067e+00 -2.8825620732066253e+00 -1.4098316849831933e+00 6.2079340537388887e+00 6.2914960429451048e+00 -1.8745522044292697e+00 -2.8577285763843490e+00 
        </Neuron>
        <Neuron NSynapses="11">
          1.0406907869865230e+00 -7.0300576048289565e-01 1.6502234451066913e+00 -9.3571280329903206e-01 -4.2956375998886509e+00 -8.4612757253781923e-01 -6.1810349618441507e-01 -4.8003961233997900e+00 -1.6377808281818762e+00 2.2765537410708441e+00 -6.5119949042400815e-01 
        </Neuron>
        <Neuron NSynapses="11">
          -2.6687558975995318e-01 -1.1431770068477061e-01 5.4847833851978234e-01 2.9659742492815147e+00 3.9022538052377995e+00 -3.2409993282005818e+00 4.5551515783956109e-01 1.4447047634330192e+00 3.1843970994571476e+00 -2.6243456061841037e+00 3.9228169106836819e-01 
        </Neuron>
        <Neuron NSynapses="11">
          -2.0371166352655066e+00 -9.5998027996235091e-01 1.8276799222551510e+00 2.1677207028652483e+00 -1.5279164050459109e+00 2.4771019801699086e+00 1.1739824179901350e+00 -1.8192334294253432e+00 4.2893663220836995e+00 4.2433754132221431e+00 -3.6808556315335967e+00 
        </Neuron>
        <Neuron NSynapses="11">
          7.0564442617694945e-01 -4.1079469709573613e-01 1.7177951388251205e+00 -2.1881292826696304e+00 -1.9638951847556477e-01 -3.6690261158734776e-03 2.6651012801306799e+00 -1.0480214272302424e+00 -1.3587988211263600e+00 -1.2544340123627447e+00 1.0648451425163494e+00 
        </Neuron>
        <Neuron NSynapses="11">
          5.7652745550606816e+00 -7.0406302621497574e-01 -8.4037313179157735e-01 -8.6203814736871542e-01 -2.5330655547762554e-01 1.5645835339307399e+00 1.6206193380852825e+00 -1.8430357563377466e+00 9.2018833298750824e-02 -3.6161583832167286e+00 -3.5987898707990118e-01 
        </Neuron>
        <Neuron NSynapses="11">
          2.0705981782241287e+00 -1.3065186371810675e+00 -4.1262644005885080e-01 3.3025673873532824e-01 3.6799406211468804e+00 -1.2332186324742167e+00 -5.3584650709150916e-01 2.8607509785689222e-02 1.9848830414281198e+00 2.9486870370314822e-01 9.7402033919239794e-01 
        </Neuron>
        <Neuron NSynapses="11">
          9.4353378550291267e-01 6.1608214495980784e-01 -9.4801740638327012e-02 -2.0498460749481198e+00 -9.8067718218239786e-01 1.9086514892425628e+00 1.0940862185047948e+00 7.5870563771648369e-01 -1.7421407870002120e-01 2.1047725734682809e+00 -1.7230463432992504e+00 
        </Neuron>
        <Neuron NSynapses="11">
          -4.1287723372252767e+00 9.2102563796194681e-01 -1.3881617553250498e+00 -2.4341031246163611e+00 3.3388194148924191e+00 -4.9634781989480814e-01 3.8073985585004286e+00 3.7936050657719500e-01 -4.1244735864364088e+00 -2.3962656275620267e-01 1.9751172696775646e-01 
        </Neuron>
        <Neuron NSynapses="11">
          -2.3815613178292234e+00 2.5584313734236299e+00 1.9165312578038740e+00 5.0949539749528938e-01 -3.0931818295885796e+00 1.1871121038794707e+00 6.3111455681040585e-01 -1.5351138938796194e+00 -4.0323549431907404e+00 -4.0716208831731011e+00 -2.1170818394031901e-01 
        </Neuron>
        <Neuron NSynapses="11">
          -2.6690946169689740e+00 -2.3033476979631256e+00 -2.1152528443328489e+00 -8.5639337711603380e-01 -4.4357624779203872e+00 -1.5404157811421793e+00 4.1988344062619785e+00 -2.2501964749582282e+00 -2.4816974857971918e+00 -1.9015523391079523e+00 -5.2073473625733602e-01 
        </Neuron>
        <Neuron NSynapses="11">
          2.4652938136163614e+00 1.2628130486418305e+00 -6.7972974814476972e-01 -1.4562467962774950e+00 -1.0060585358917200e+00 -1.9558736155336043e+00 -1.6495915636802243e+00 6.1961422287418189e-01 -8.3270939692527268e-01 5.5728615805584580e-01 -4.1256734740929446e-01 
        </Neuron>
      </Layer>
      <Layer Index="2" NNeurons="12">
        <Neuron NSynapses="12">
          -5.6964483172330815e-01 -2.8056954202505362e+00 -5.0977307161232206e+00 1.3635316674254436e-01 2.6762587336388459e+00 -3.1919519362047004e+00 -3.0929506485286105e+00 6.0639432141463168e-01 -7.7548348667223821e-02 9.6672772203635793e-01 2.1703467271802049e-01 -1.6571476330580828e+00 
        </Neuron>
        <Neuron NSynapses="12">
          1.1591272927939764e+00 1.2955798408202233e+00 6.0272708529982499e-01 -5.5000578659094179e-01 -3.3371197416395931e-01 -1.0673387627990791e+00 -2.2117035976888033e+00 -5.4072023087812682e-01 -1.7430728320386824e+00 -1.3025812528950020e+00 -2.4450966266278815e+00 1.1576042110763209e+00 
        </Neuron>
        <Neuron NSynapses="12">
          -2.2575314781302525e+00 1.2512402309405146e+00 -2.1680335217824767e+00 7.9182418208103567e-01 5.4211144597201100e-01 -1.8613712683269035e-01 6.9385159742429625e-01 -2.1026071400473296e+00 -4.5027343513358284e-02 1.0680558266282087e+00 -2.5343476203860162e+00 -2.6583085686620742e+00 
        </Neuron>
        <Neuron NSynapses="12">
          -2.2132126014389022e+00 -1.1749865409132185e+00 2.9105932113203403e+00 -1.0835808884053943e+00 8.4527672019078470e-01 -7.8736046084905920e-01 -1.3405611098351669e+00 -1.7571323081216410e+00 -1.6630352552985825e+00 -1.2841436641395760e+00 1.4646808685203903e+00 -1.4599019944313094e+00 
        </Neuron>
        <Neuron NSynapses="12">
          -2.6361931042623241e+00 3.6702365495157269e-01 1.5288329058847419e+00 -1.9346233672009763e+00 1.4787446894485430e+00 -2.5417806689075468e+00 6.8938834988120501e-01 8.0918887783172433e-01 -1.6892770978792551e+00 -5.7181263384737591e-01 6.5940268220341813e-01 -2.5994345683422155e+00 
        </Neuron>
        <Neuron NSynapses="12">
          4.4368443432122079e-01 2.2319442248588448e+00 8.5648789672903891e-01 2.0734345199312134e+00 -1.8542327637258924e+00 1.3720266983881160e+00 -1.9544130216682094e+00 6.5572440781217745e-01 -1.7030388656947881e+00 -1.8961229854224413e+00 -2.2553741158812388e-01 1.2488566248688899e+00 
        </Neuron>
        <Neuron NSynapses="12">
          4.0203235227384065e-01 -6.3606748395618723e-02 -1.9973806975037764e-01 -3.5519134503377908e-01 -4.2284379166126671e+00 2.9826035094714398e-01 6.6936265159275032e-01 -1.6194752349910881e+00 -9.6696913403952600e-01 -1.7435877436410809e+00 -2.4581326791150606e+00 -1.6000004721481981e-01 
        </Neuron>
        <Neuron NSynapses="12">
          -8.9166026755865768e-01 -2.7873438376105550e+00 3.3098859742772864e+00 9.6146370680549709e-01 -8.0284485505864436e-02 -1.3901742421499568e+00 -3.9767602356614556e-01 -1.4524093769131892e+00 -1.8916624166995859e+00 8.8653207594139616e-01 1.2941872477551166e+00 -2.1880789462291834e+00 
        </Neuron>
        <Neuron NSynapses="12">
          -1.4718985313093366e-01 -4.0179059055523716e+00 -4.4307602486944031e-01 -2.2219201080915942e+00 6.8222081111530844e-02 -3.4806150940644058e+00 -2.2224747730669607e+00 -6.6427383661360817e-01 -1.5339425582867559e+00 -1.6623641702120986e+00 2.7830343162059044e+00 -1.6250129092958669e+00 
        </Neuron>
        <Neuron NSynapses="12">
          -1.9051579378871404e+00 2.5522557497184399e+00 2.1757165300170387e-02 7.6588513245756662e-01 -2.9611165299438719e-01 2.3196813796326472e+00 3.0822464382071679e+00 6.8598092600031479e-01 -8.1028659102238199e-01 -8.9247561055354196e-01 -1.2005478786599431e+00 9.9947773069285706e-01 
        </Neuron>
        <Neuron NSynapses="12">
          1.7354440644846381e-01 -2.0543609585191307e+00 -5.7372723245387258e-01 -3.8529790978384854e-01 4.4033706473298639e-01 -2.1255689992052433e+00 5.6443585733553070e-01 7.1515027989314905e-01 -2.7951704547864380e+00 -2.0096304242713348e-01 -2.2513000619325321e+00 3.5509422152051828e-01 
        </Neuron>
        <Neuron NSynapses="12">
          3.7692341179915606e-01 -5.5933851565758896e-01 1.2977363243174792e-02 -9.1859594503434350e-01 -4.2663859343255089e-01 1.7921276212716650e+00 -6.9140322786124953e-01 -1.2464022082974122e+00 9.6850287349803624e-02 -1.9884841025016573e+00 -1.1323850062301419e+00 1.4171370726566483e+00 
        </Neuron>
      </Layer>
      <Layer Index="3" NNeurons="13">
        <Neuron NSynapses="1">
          -2.1576616597579537e+00 
        </Neuron>
        <Neuron NSynapses="1">
          -3.3422911228837910e+00 
        </Neuron>
        <Neuron NSynapses="1">
          1.8202359625913909e+00 
        </Neuron>
        <Neuron NSynapses="1">
          -1.1558009174988924e+00 
        </Neuron>
        <Neuron NSynapses="1">
          1.5277640714928826e+00 
        </Neuron>
        <Neuron NSynapses="1">
          -3.2972786124783267e+00 
        </Neuron>
        <Neuron NSynapses="1">
          -2.5446444349059854e+00 
        </Neuron>
        <Neuron NSynapses="1">
          -6.5439526372013246e-01 
        </Neuron>
        <Neuron NSynapses="1">
          -5.0815797215815228e-01 
        </Neuron>
        <Neuron NSynapses="1">
          1.2912373665792829e+00 
        </Neuron>
        <Neuron NSynapses="1">
          1.9003079433367009e+00 
        </Neuron>
        <Neuron NSynapses="1">
          -1.7223721868864426e+00 
        </Neuron>
        <Neuron NSynapses="1">
          8.4656239289955387e-02 
        </Neuron>
      </Layer>
      <Layer Index="4" NNeurons="1">
        <Neuron NSynapses="0"/>
      </Layer>
    </Layout>
  </Weights>
</MethodSetup>
