<?xml version="1.0"?>
<MethodSetup Method="MLP::MLP_ANN_N-5_NC600">
  <GeneralInfo>
    <Info name="TMVA Release" value="4.2.1 [262657]"/>
    <Info name="ROOT Release" value="6.06/01 [394753]"/>
    <Info name="Creator" value="brucms16"/>
    <Info name="Date" value="Tue Sep  6 21:24:57 2016"/>
    <Info name="Host" value="Linux vocms0315.cern.ch 2.6.32-573.26.1.el6.x86_64 #1 SMP Wed May 4 09:23:05 CEST 2016 x86_64 x86_64 x86_64 GNU/Linux"/>
    <Info name="Dir" value="/home/t3cms/brucms16/CMSSW_8_0_14/src/UserCode/SkeletonAnalysis/macros"/>
    <Info name="Training events" value="15056"/>
    <Info name="TrainingTime" value="5.07915836e+02"/>
    <Info name="AnalysisType" value="Classification"/>
  </GeneralInfo>
  <Options>
    <Option name="NCycles" modified="Yes">600</Option>
    <Option name="HiddenLayers" modified="Yes">N,N,N+-5</Option>
    <Option name="NeuronType" modified="No">sigmoid</Option>
    <Option name="RandomSeed" modified="No">1</Option>
    <Option name="EstimatorType" modified="No">CE</Option>
    <Option name="NeuronInputType" modified="No">sum</Option>
    <Option name="V" modified="Yes">False</Option>
    <Option name="VerbosityLevel" modified="No">Default</Option>
    <Option name="VarTransform" modified="Yes">Norm</Option>
    <Option name="H" modified="Yes">False</Option>
    <Option name="CreateMVAPdfs" modified="No">False</Option>
    <Option name="IgnoreNegWeightsInTraining" modified="No">False</Option>
    <Option name="TrainingMethod" modified="No">BP</Option>
    <Option name="LearningRate" modified="Yes">9.000000e-02</Option>
    <Option name="DecayRate" modified="Yes">1.000000e-02</Option>
    <Option name="TestRate" modified="No">10</Option>
    <Option name="EpochMonitoring" modified="No">False</Option>
    <Option name="Sampling" modified="No">1.000000e+00</Option>
    <Option name="SamplingEpoch" modified="No">1.000000e+00</Option>
    <Option name="SamplingImportance" modified="No">1.000000e+00</Option>
    <Option name="SamplingTraining" modified="No">True</Option>
    <Option name="SamplingTesting" modified="No">False</Option>
    <Option name="ResetStep" modified="No">50</Option>
    <Option name="Tau" modified="No">3.000000e+00</Option>
    <Option name="BPMode" modified="No">sequential</Option>
    <Option name="BatchSize" modified="No">-1</Option>
    <Option name="ConvergenceImprove" modified="No">1.000000e-30</Option>
    <Option name="ConvergenceTests" modified="No">-1</Option>
    <Option name="UseRegulator" modified="No">False</Option>
    <Option name="UpdateLimit" modified="No">10000</Option>
    <Option name="CalculateErrors" modified="No">False</Option>
    <Option name="WeightRange" modified="No">1.000000e+00</Option>
  </Options>
  <Variables NVar="11">
    <Variable VarIndex="0" Expression="Jet1Pt" Label="Jet1Pt" Title="Jet1Pt" Unit="" Internal="Jet1Pt" Type="F" Min="1.10048698e+02" Max="1.57276038e+03"/>
    <Variable VarIndex="1" Expression="LepPt" Label="LepPt" Title="LepPt" Unit="" Internal="LepPt" Type="F" Min="5.00075817e+00" Max="2.99984379e+01"/>
    <Variable VarIndex="2" Expression="LepChg" Label="LepChg" Title="LepChg" Unit="" Internal="LepChg" Type="F" Min="-1.00000000e+00" Max="1.00000000e+00"/>
    <Variable VarIndex="3" Expression="LepEta" Label="LepEta" Title="LepEta" Unit="" Internal="LepEta" Type="F" Min="-2.48411560e+00" Max="2.49880052e+00"/>
    <Variable VarIndex="4" Expression="Met" Label="Met" Title="Met" Unit="" Internal="Met" Type="F" Min="2.80020294e+02" Max="1.28947937e+03"/>
    <Variable VarIndex="5" Expression="mt" Label="mt" Title="mt" Unit="" Internal="mt" Type="F" Min="5.37815737e-04" Max="3.00527191e+02"/>
    <Variable VarIndex="6" Expression="HT20" Label="HT20" Title="HT20" Unit="" Internal="HT20" Type="F" Min="1.12003395e+02" Max="4.50487305e+03"/>
    <Variable VarIndex="7" Expression="NbLoose30" Label="NbLoose30" Title="NbLoose30" Unit="" Internal="NbLoose30" Type="F" Min="0.00000000e+00" Max="6.00000000e+00"/>
    <Variable VarIndex="8" Expression="Njet" Label="Njet" Title="Njet" Unit="" Internal="Njet" Type="F" Min="1.00000000e+00" Max="1.40000000e+01"/>
    <Variable VarIndex="9" Expression="JetHBpt" Label="JetHBpt" Title="JetHBpt" Unit="" Internal="JetHBpt" Type="F" Min="-9.99000000e+02" Max="1.37842883e+03"/>
    <Variable VarIndex="10" Expression="DrJetHBLep" Label="DrJetHBLep" Title="DrJetHBLep" Unit="" Internal="DrJetHBLep" Type="F" Min="-9.99000000e+02" Max="5.38026333e+00"/>
  </Variables>
  <Spectators NSpec="0"/>
  <Classes NClass="2">
    <Class Name="Signal" Index="0"/>
    <Class Name="Background" Index="1"/>
  </Classes>
  <Transformations NTransformations="1">
    <Transform Name="Normalize">
      <Selection>
        <Input NInputs="11">
          <Input Type="Variable" Label="Jet1Pt" Expression="Jet1Pt"/>
          <Input Type="Variable" Label="LepPt" Expression="LepPt"/>
          <Input Type="Variable" Label="LepChg" Expression="LepChg"/>
          <Input Type="Variable" Label="LepEta" Expression="LepEta"/>
          <Input Type="Variable" Label="Met" Expression="Met"/>
          <Input Type="Variable" Label="mt" Expression="mt"/>
          <Input Type="Variable" Label="HT20" Expression="HT20"/>
          <Input Type="Variable" Label="NbLoose30" Expression="NbLoose30"/>
          <Input Type="Variable" Label="Njet" Expression="Njet"/>
          <Input Type="Variable" Label="JetHBpt" Expression="JetHBpt"/>
          <Input Type="Variable" Label="DrJetHBLep" Expression="DrJetHBLep"/>
        </Input>
        <Output NOutputs="11">
          <Output Type="Variable" Label="Jet1Pt" Expression="Jet1Pt"/>
          <Output Type="Variable" Label="LepPt" Expression="LepPt"/>
          <Output Type="Variable" Label="LepChg" Expression="LepChg"/>
          <Output Type="Variable" Label="LepEta" Expression="LepEta"/>
          <Output Type="Variable" Label="Met" Expression="Met"/>
          <Output Type="Variable" Label="mt" Expression="mt"/>
          <Output Type="Variable" Label="HT20" Expression="HT20"/>
          <Output Type="Variable" Label="NbLoose30" Expression="NbLoose30"/>
          <Output Type="Variable" Label="Njet" Expression="Njet"/>
          <Output Type="Variable" Label="JetHBpt" Expression="JetHBpt"/>
          <Output Type="Variable" Label="DrJetHBLep" Expression="DrJetHBLep"/>
        </Output>
      </Selection>
      <Class ClassIndex="0">
        <Ranges>
          <Range Index="0" Min="1.1004869842529297e+02" Max="1.2779298095703125e+03"/>
          <Range Index="1" Min="5.0007581710815430e+00" Max="2.9949773788452148e+01"/>
          <Range Index="2" Min="-1.0000000000000000e+00" Max="1.0000000000000000e+00"/>
          <Range Index="3" Min="-2.4711689949035645e+00" Max="2.3791146278381348e+00"/>
          <Range Index="4" Min="2.8022933959960938e+02" Max="1.2514943847656250e+03"/>
          <Range Index="5" Min="5.5733408778905869e-02" Max="3.0052719116210938e+02"/>
          <Range Index="6" Min="1.1735253143310547e+02" Max="2.3474851074218750e+03"/>
          <Range Index="7" Min="0.0000000000000000e+00" Max="5.0000000000000000e+00"/>
          <Range Index="8" Min="1.0000000000000000e+00" Max="1.1000000000000000e+01"/>
          <Range Index="9" Min="2.0057344436645508e+01" Max="1.0570437011718750e+03"/>
          <Range Index="10" Min="6.2708742916584015e-05" Max="4.9576835632324219e+00"/>
        </Ranges>
      </Class>
      <Class ClassIndex="1">
        <Ranges>
          <Range Index="0" Min="1.1005755615234375e+02" Max="1.5727603759765625e+03"/>
          <Range Index="1" Min="5.0013527870178223e+00" Max="2.9998437881469727e+01"/>
          <Range Index="2" Min="-1.0000000000000000e+00" Max="1.0000000000000000e+00"/>
          <Range Index="3" Min="-2.4841156005859375e+00" Max="2.4988005161285400e+00"/>
          <Range Index="4" Min="2.8002029418945312e+02" Max="1.2894793701171875e+03"/>
          <Range Index="5" Min="5.3781573660671711e-04" Max="2.1579251098632812e+02"/>
          <Range Index="6" Min="1.1200339508056641e+02" Max="4.5048730468750000e+03"/>
          <Range Index="7" Min="0.0000000000000000e+00" Max="6.0000000000000000e+00"/>
          <Range Index="8" Min="1.0000000000000000e+00" Max="1.4000000000000000e+01"/>
          <Range Index="9" Min="-9.9900000000000000e+02" Max="1.3784288330078125e+03"/>
          <Range Index="10" Min="-9.9900000000000000e+02" Max="5.3802633285522461e+00"/>
        </Ranges>
      </Class>
      <Class ClassIndex="2">
        <Ranges>
          <Range Index="0" Min="1.1004869842529297e+02" Max="1.5727603759765625e+03"/>
          <Range Index="1" Min="5.0007581710815430e+00" Max="2.9998437881469727e+01"/>
          <Range Index="2" Min="-1.0000000000000000e+00" Max="1.0000000000000000e+00"/>
          <Range Index="3" Min="-2.4841156005859375e+00" Max="2.4988005161285400e+00"/>
          <Range Index="4" Min="2.8002029418945312e+02" Max="1.2894793701171875e+03"/>
          <Range Index="5" Min="5.3781573660671711e-04" Max="3.0052719116210938e+02"/>
          <Range Index="6" Min="1.1200339508056641e+02" Max="4.5048730468750000e+03"/>
          <Range Index="7" Min="0.0000000000000000e+00" Max="6.0000000000000000e+00"/>
          <Range Index="8" Min="1.0000000000000000e+00" Max="1.4000000000000000e+01"/>
          <Range Index="9" Min="-9.9900000000000000e+02" Max="1.3784288330078125e+03"/>
          <Range Index="10" Min="-9.9900000000000000e+02" Max="5.3802633285522461e+00"/>
        </Ranges>
      </Class>
    </Transform>
  </Transformations>
  <MVAPdfs/>
  <Weights>
    <Layout NLayers="5">
      <Layer Index="0" NNeurons="12">
        <Neuron NSynapses="11">
          9.0058362446258078e-01 2.0521016098983749e+00 4.1385518021013645e+00 -9.1405383354575084e-02 -2.2001429805444497e-01 -1.6573665048346453e+00 -3.2856427474889980e+00 1.9591164077884069e+00 5.1284989854443874e-01 1.6529661867629500e-01 -1.7491737458756715e+00 
        </Neuron>
        <Neuron NSynapses="11">
          1.6470018789214986e+00 -2.1509315108671077e+00 4.0458433938022592e-02 2.5139508564024676e-01 1.7707529579125956e+00 -7.8505680061701111e-01 5.5567570626216352e+00 1.7159092556210395e-01 2.6684406849061015e+00 2.8853577446000016e+00 -2.1185885238738367e+00 
        </Neuron>
        <Neuron NSynapses="11">
          9.3758841222038958e-01 -1.0551056608006719e+00 -5.0011803254324427e-01 2.6812375299623969e-01 -1.1449259561361846e+00 -3.0810620071140327e+00 -5.7659581729951281e-01 -1.8757340251396701e-01 -3.4062994471047103e-01 1.8498219718003626e+00 8.0124599098502269e-01 
        </Neuron>
        <Neuron NSynapses="11">
          -1.3219926955496415e+00 2.6597826966941036e+00 4.0374984173058226e-01 1.4406853320080240e-01 8.5342564659303211e+00 -1.3618998245994252e-01 -1.0192739132876769e+00 6.9484433612221053e-01 -2.0530690532401574e+00 -3.2083802499022313e-01 2.7939035024162434e-01 
        </Neuron>
        <Neuron NSynapses="11">
          5.1164247793507638e+00 -2.0817621488324323e-01 4.4136809261345995e+00 1.9457329044419667e+00 5.3555195352434831e-02 -2.6238211193482441e-01 -1.0779667369100807e+00 1.7454337636941970e+00 -8.9545187955766128e+00 4.1842899346182932e-01 -7.9479652949678599e+00 
        </Neuron>
        <Neuron NSynapses="11">
          -1.3719646270132617e+00 -2.3118817370501628e+00 -1.1594581393614035e+01 1.7584081330806033e+01 6.6718709911812735e-01 -2.6650190942743928e+00 8.7424427216071710e-01 -4.6499060589895624e-01 -1.5813014622309591e+00 2.9954843742605757e+00 -2.7453866982567741e+00 
        </Neuron>
        <Neuron NSynapses="11">
          -1.1524873653898391e+00 -1.4485295017312048e+00 9.4294686245299753e-01 -4.4011330501599373e+00 6.9597643420399868e-01 -1.5474911916738707e+00 1.6101295011258383e+00 1.0040684106521363e+00 6.4216931561671604e+00 7.9662886634931507e-01 2.3808664862505937e+00 
        </Neuron>
        <Neuron NSynapses="11">
          -6.3773538048705998e+00 -9.2400503069957163e-01 1.0997640860775966e+00 7.5061074399614314e-01 4.2607480267839788e-02 2.6604202944096658e+00 -5.7984912420340373e-01 -1.0341379229138519e+00 2.0193857897771199e+00 8.6338495035616780e-01 3.0638984660283652e+00 
        </Neuron>
        <Neuron NSynapses="11">
          -7.7936420049948820e+00 -2.2080449979538446e+00 6.8128750383882708e-01 -7.4473487971507135e-01 4.3193762669971875e-01 -2.4013012987956786e+00 -2.0466604770852506e+00 1.4706109911215115e+00 1.6570288457032560e+00 -8.7274751285391563e+00 -5.1290164869704764e+00 
        </Neuron>
        <Neuron NSynapses="11">
          -1.0844903990654193e+00 -2.6542750901823151e+00 -2.4252062760082906e+00 -2.4470778761344048e+00 -3.0075452672478109e-01 -2.5743851825662309e+00 -2.4413779996458400e+00 -1.0418102795766495e+00 2.5898360904195536e+00 -1.3307606437566268e+00 1.7226097654075549e+00 
        </Neuron>
        <Neuron NSynapses="11">
          -2.2841341257206187e+00 4.1959629892964712e-01 9.9599677426150990e-01 1.9850677317952043e+00 -1.7955453403845858e+00 8.5627082524992271e-01 -2.7076637394671565e-01 -9.6149076393389576e-01 -1.6105982343177829e+00 -2.2009601904533587e+00 -3.8755450563866018e+00 
        </Neuron>
        <Neuron NSynapses="11">
          -3.2343681604757907e-01 -1.9347116243069065e-01 1.9035624138109817e+00 2.3214985440810398e+00 -4.0117567750742683e-01 -1.1340561575426160e+00 -2.4673583637258806e-01 -1.8202181339240047e+00 -9.5764509905617468e-01 -9.2640491337358366e-01 -4.2058032482802128e+00 
        </Neuron>
      </Layer>
      <Layer Index="1" NNeurons="12">
        <Neuron NSynapses="11">
          3.9067243526949441e-01 -1.1962794820318128e+00 1.6707099396349987e+00 1.1741865407067660e+00 4.1560983611630578e+00 -1.9628963905238361e+00 -6.7858846309746357e-01 5.0285566188470101e+00 3.3242763232548316e+00 -1.1502160034259404e-01 -2.7050840809786836e+00 
        </Neuron>
        <Neuron NSynapses="11">
          -4.4515226986882955e-01 -1.3982868077052517e+00 2.8239655339594782e+00 2.2851101506711506e+00 -6.5234863483491945e-01 -6.4231076482505955e-01 -1.2238841494640473e+00 -2.5825303447623824e+00 8.1716578981085719e-01 3.3442755720686157e+00 -1.0918284005551084e+00 
        </Neuron>
        <Neuron NSynapses="11">
          2.0294125848035965e-01 1.2704282810940812e-01 1.4620579888108853e+00 -1.9289081138560771e+00 3.0941195778207184e+00 -1.4502248230725201e+00 7.7292310108273832e-01 -2.5184936633101557e-01 4.5892792673566740e+00 3.4416255822236845e+00 -2.1212136596401123e+00 
        </Neuron>
        <Neuron NSynapses="11">
          -1.3192556405774190e+00 -1.6871625820316133e-01 5.8288089227564059e+00 -3.2476508637998616e+00 -1.0801730095579374e+00 1.4657348317901833e+00 2.2430605667285599e+00 1.2922908155913242e+00 2.9412062284784328e+00 4.7210352255187429e+00 -1.8126384165461253e+00 
        </Neuron>
        <Neuron NSynapses="11">
          -3.6653101332024640e-01 1.5643078106735453e-01 2.8698581059561390e-01 -1.9657820477393206e+00 -3.7270172927646041e+00 1.0495199087781548e+00 2.6022681585221421e+00 -4.3405890494628778e+00 -9.5124536631929624e-01 -7.4964269085819679e-01 2.9246130173518772e+00 
        </Neuron>
        <Neuron NSynapses="11">
          2.4057607075992675e+00 -4.8452242565783593e-01 1.9030799744503200e-02 -2.6050897335824130e+00 6.7362825981095542e-01 1.3533361747025092e+00 -3.8025626603256085e-01 7.1654730463518768e-01 -2.8004034227581148e-01 -2.6504121300627186e+00 1.3013734041321068e+00 
        </Neuron>
        <Neuron NSynapses="11">
          1.8727345055092979e+00 -1.9277405115483006e+00 -1.9163319985129550e+00 1.8735780466663903e+00 8.2037105356229156e-01 -1.8864093435384108e+00 1.0790814099040906e+00 1.1704724479671524e+00 -2.6000407093717497e+00 -1.5826916840239573e+00 3.7844713547003592e+00 
        </Neuron>
        <Neuron NSynapses="11">
          1.0181871048299536e+00 4.3246492174402690e-01 -1.7186806271080285e-01 -2.1051656894996564e+00 -9.6742008925765821e-01 1.7237047527752516e+00 1.2068780137292388e+00 8.2952731942689528e-01 1.4966361181245824e-01 1.8961652945224559e+00 -1.7064221113917888e+00 
        </Neuron>
        <Neuron NSynapses="11">
          -2.6537458081550380e-01 -7.9323762877592641e-01 -2.5083160462134191e+00 4.8739829524254148e+00 2.9815924366735445e+00 -1.1297720257674904e+00 4.1224980765855967e+00 -6.6532333191817605e-01 -2.6253490634072838e+00 -4.5461887953579039e+00 3.2833737551931579e+00 
        </Neuron>
        <Neuron NSynapses="11">
          9.6476106977338572e-01 9.1347205801971221e-01 -2.3756168340467054e+00 2.5956196997361549e+00 -2.6812306070810270e+00 1.0623694104926242e+00 -1.2459497449774721e+00 -1.6890452128602856e-01 -2.9037192136633019e+00 -3.0741394221981331e+00 -4.3702159035816805e-02 
        </Neuron>
        <Neuron NSynapses="11">
          -2.6626761019645797e+00 -1.9787134322834474e+00 -4.6972596208177944e+00 1.9784533345117867e+00 -1.7478256548513253e+00 -1.8855011279082734e+00 9.6678397244449044e-01 -4.2959600166021172e-01 -1.3318684559860516e+00 -3.6740080684979977e+00 9.0204768085835429e-01 
        </Neuron>
        <Neuron NSynapses="11">
          1.9123609336809151e+00 1.3462155883514417e+00 -1.0057865599888156e+00 1.3208458228771686e-01 -1.2108710441584039e+00 -1.2673512360091344e+00 -2.4355571902985180e+00 -7.9377530137598440e-01 2.0145990730392765e-01 2.2998830744131209e+00 -1.2178461807248571e+00 
        </Neuron>
      </Layer>
      <Layer Index="2" NNeurons="12">
        <Neuron NSynapses="11">
          8.4267829189108168e-01 -2.3882226828910258e+00 -2.1134851161120709e+00 1.2612707350820003e+00 4.5308092403945949e-01 -2.6278764877449676e+00 -1.2464687637693066e+00 8.9687674073819790e-01 -1.3984159606725799e-01 7.5928552319257636e-01 -1.7217997213097569e+00 
        </Neuron>
        <Neuron NSynapses="11">
          -1.1689527372148013e-01 1.1296154250437331e+00 9.6198172776126378e-01 1.2410796063825917e+00 -3.5263345301611287e-01 2.1735442790901729e-01 -1.5724095104066316e-01 -1.0428740550123723e+00 -7.5090396609188059e-01 -1.5226067964950423e+00 -2.1521569646071010e+00 
        </Neuron>
        <Neuron NSynapses="11">
          -3.1547703139222669e+00 2.2901448859837270e+00 -1.8526316347807275e+00 5.1550590851580980e-01 -1.6020049007592942e+00 1.0614527905862671e-01 -1.7702801908835097e+00 -1.1336506642704101e+00 2.0932353765122556e+00 -3.8265084048979969e+00 1.1727212991580993e+00 
        </Neuron>
        <Neuron NSynapses="11">
          1.7922880697366308e+00 -3.5714711443321923e+00 -1.6416513426851040e+00 -4.0780914079561148e-01 -1.6015663113920637e+00 4.0386938977965625e-01 -1.5290893467525252e-01 1.6300036832521698e+00 -4.0841444144915870e+00 1.6652248019263742e+00 -2.3592303499028384e+00 
        </Neuron>
        <Neuron NSynapses="11">
          -2.2169855992006777e+00 -3.4827835106123062e+00 9.4717907246203314e-01 -2.6246252786219362e+00 -1.4459710475875076e+00 8.7796329277925544e-01 -3.1618831168108885e-01 -1.6633801232613761e+00 3.1512133603795931e+00 -1.6402961872329354e+00 1.4394200656817921e+00 
        </Neuron>
        <Neuron NSynapses="11">
          9.0662798732780381e-01 -7.2328220433183121e-01 -8.1676772311116197e-01 1.1157709558313590e-01 -1.2048375462964207e+00 4.6471893306936846e-01 1.9220922127174298e+00 1.4436334416469185e+00 1.5801526003412047e+00 -1.3314051577524273e+00 6.5192035122245184e-01 
        </Neuron>
        <Neuron NSynapses="11">
          -3.3319399471034474e+00 -1.5653911157300385e-01 -1.9179578743746368e+00 -2.7952381922778251e+00 -9.1014100099939621e-01 3.0136759589606993e-01 8.6611016412151343e-01 1.4214220381652636e+00 -6.2251260682753173e-01 2.7910743021742319e+00 -2.4405705559803050e+00 
        </Neuron>
        <Neuron NSynapses="11">
          2.1513442866792926e-01 3.4878472256305453e+00 -1.5932933312363398e+00 -1.6637961139650681e+00 -1.5838473965318847e+00 -1.4078619471344358e+00 -9.1784099141676068e-01 -2.7026362079344817e+00 -1.0868864841816248e+00 -1.0678824282055899e+00 2.9664198212838535e+00 
        </Neuron>
        <Neuron NSynapses="11">
          8.5376001954211633e-01 -8.5785155073012462e-03 -9.6504671883595006e-01 -3.2084953935913485e+00 -1.8684482438480372e+00 -2.3054552927310346e-01 -6.6364858633427604e-01 -1.9479954047480288e+00 6.1728427338953340e-01 -3.1873141807849596e+00 -2.1536142824556785e+00 
        </Neuron>
        <Neuron NSynapses="11">
          -3.5691203004624796e+00 7.2212401263576664e-01 -1.4314490188648308e+00 -2.4064482973884003e+00 -7.8713241793193112e-01 -2.1055100022338191e+00 -2.3207450951424442e+00 5.9773339582348728e-01 -1.8032127303920689e-02 -3.0047060088998490e+00 2.4545249041067345e+00 
        </Neuron>
        <Neuron NSynapses="11">
          4.0813775845412914e-01 -1.1262183443065137e+00 -3.3342376898589814e-02 2.3562838873669500e+00 1.0646564384062982e+00 8.6987881716120860e-02 -8.1933994322912340e-01 -7.3495935539224025e-02 -3.6702386361106192e+00 3.6075088002945068e+00 -2.4912915454730494e-01 
        </Neuron>
        <Neuron NSynapses="11">
          7.9222162470665176e-03 -2.0692498105246893e-01 7.7088592684018753e-01 1.7756463038746197e+00 -2.1982164646252160e+00 -2.6373327832278082e-01 3.5870531098969499e-01 -1.7651868422168235e+00 -1.8964084997084603e+00 -7.2880000295104619e-01 -8.1899379368756309e-01 
        </Neuron>
      </Layer>
      <Layer Index="3" NNeurons="12">
        <Neuron NSynapses="1">
          -1.4770580423801429e+00 
        </Neuron>
        <Neuron NSynapses="1">
          3.7880724647438546e+00 
        </Neuron>
        <Neuron NSynapses="1">
          1.6959576487868284e+00 
        </Neuron>
        <Neuron NSynapses="1">
          -2.1525177315859656e+00 
        </Neuron>
        <Neuron NSynapses="1">
          1.1770056505484288e+00 
        </Neuron>
        <Neuron NSynapses="1">
          -3.6994023109437629e-01 
        </Neuron>
        <Neuron NSynapses="1">
          -2.1771685596451767e-01 
        </Neuron>
        <Neuron NSynapses="1">
          -2.5447737404714710e+00 
        </Neuron>
        <Neuron NSynapses="1">
          1.7704341980272575e+00 
        </Neuron>
        <Neuron NSynapses="1">
          -1.8081511455424515e+00 
        </Neuron>
        <Neuron NSynapses="1">
          2.0073192174458958e+00 
        </Neuron>
        <Neuron NSynapses="1">
          -1.2364716444191032e-02 
        </Neuron>
      </Layer>
      <Layer Index="4" NNeurons="1">
        <Neuron NSynapses="0"/>
      </Layer>
    </Layout>
  </Weights>
</MethodSetup>
