<?xml version="1.0"?>
<MethodSetup Method="MLP::MLP_ANN_N1_NC900">
  <GeneralInfo>
    <Info name="TMVA Release" value="4.2.1 [262657]"/>
    <Info name="ROOT Release" value="6.06/01 [394753]"/>
    <Info name="Creator" value="brucms16"/>
    <Info name="Date" value="Wed Sep  7 02:31:01 2016"/>
    <Info name="Host" value="Linux vocms0315.cern.ch 2.6.32-573.26.1.el6.x86_64 #1 SMP Wed May 4 09:23:05 CEST 2016 x86_64 x86_64 x86_64 GNU/Linux"/>
    <Info name="Dir" value="/home/t3cms/brucms16/CMSSW_8_0_14/src/UserCode/SkeletonAnalysis/macros"/>
    <Info name="Training events" value="15056"/>
    <Info name="TrainingTime" value="4.34364504e+02"/>
    <Info name="AnalysisType" value="Classification"/>
  </GeneralInfo>
  <Options>
    <Option name="NCycles" modified="Yes">900</Option>
    <Option name="HiddenLayers" modified="Yes">N,N,N+1</Option>
    <Option name="NeuronType" modified="No">sigmoid</Option>
    <Option name="RandomSeed" modified="No">1</Option>
    <Option name="EstimatorType" modified="No">CE</Option>
    <Option name="NeuronInputType" modified="No">sum</Option>
    <Option name="V" modified="Yes">False</Option>
    <Option name="VerbosityLevel" modified="No">Default</Option>
    <Option name="VarTransform" modified="Yes">Norm</Option>
    <Option name="H" modified="Yes">False</Option>
    <Option name="CreateMVAPdfs" modified="No">False</Option>
    <Option name="IgnoreNegWeightsInTraining" modified="No">False</Option>
    <Option name="TrainingMethod" modified="No">BP</Option>
    <Option name="LearningRate" modified="Yes">9.000000e-02</Option>
    <Option name="DecayRate" modified="Yes">1.000000e-02</Option>
    <Option name="TestRate" modified="No">10</Option>
    <Option name="EpochMonitoring" modified="No">False</Option>
    <Option name="Sampling" modified="No">1.000000e+00</Option>
    <Option name="SamplingEpoch" modified="No">1.000000e+00</Option>
    <Option name="SamplingImportance" modified="No">1.000000e+00</Option>
    <Option name="SamplingTraining" modified="No">True</Option>
    <Option name="SamplingTesting" modified="No">False</Option>
    <Option name="ResetStep" modified="No">50</Option>
    <Option name="Tau" modified="No">3.000000e+00</Option>
    <Option name="BPMode" modified="No">sequential</Option>
    <Option name="BatchSize" modified="No">-1</Option>
    <Option name="ConvergenceImprove" modified="No">1.000000e-30</Option>
    <Option name="ConvergenceTests" modified="No">-1</Option>
    <Option name="UseRegulator" modified="No">False</Option>
    <Option name="UpdateLimit" modified="No">10000</Option>
    <Option name="CalculateErrors" modified="No">False</Option>
    <Option name="WeightRange" modified="No">1.000000e+00</Option>
  </Options>
  <Variables NVar="11">
    <Variable VarIndex="0" Expression="Jet1Pt" Label="Jet1Pt" Title="Jet1Pt" Unit="" Internal="Jet1Pt" Type="F" Min="1.10048698e+02" Max="1.57276038e+03"/>
    <Variable VarIndex="1" Expression="LepPt" Label="LepPt" Title="LepPt" Unit="" Internal="LepPt" Type="F" Min="5.00075817e+00" Max="2.99984379e+01"/>
    <Variable VarIndex="2" Expression="LepChg" Label="LepChg" Title="LepChg" Unit="" Internal="LepChg" Type="F" Min="-1.00000000e+00" Max="1.00000000e+00"/>
    <Variable VarIndex="3" Expression="LepEta" Label="LepEta" Title="LepEta" Unit="" Internal="LepEta" Type="F" Min="-2.48411560e+00" Max="2.49880052e+00"/>
    <Variable VarIndex="4" Expression="Met" Label="Met" Title="Met" Unit="" Internal="Met" Type="F" Min="2.80020294e+02" Max="1.28947937e+03"/>
    <Variable VarIndex="5" Expression="mt" Label="mt" Title="mt" Unit="" Internal="mt" Type="F" Min="5.37815737e-04" Max="3.00527191e+02"/>
    <Variable VarIndex="6" Expression="HT20" Label="HT20" Title="HT20" Unit="" Internal="HT20" Type="F" Min="1.12003395e+02" Max="4.50487305e+03"/>
    <Variable VarIndex="7" Expression="NbLoose30" Label="NbLoose30" Title="NbLoose30" Unit="" Internal="NbLoose30" Type="F" Min="0.00000000e+00" Max="6.00000000e+00"/>
    <Variable VarIndex="8" Expression="Njet" Label="Njet" Title="Njet" Unit="" Internal="Njet" Type="F" Min="1.00000000e+00" Max="1.40000000e+01"/>
    <Variable VarIndex="9" Expression="JetHBpt" Label="JetHBpt" Title="JetHBpt" Unit="" Internal="JetHBpt" Type="F" Min="-9.99000000e+02" Max="1.37842883e+03"/>
    <Variable VarIndex="10" Expression="DrJetHBLep" Label="DrJetHBLep" Title="DrJetHBLep" Unit="" Internal="DrJetHBLep" Type="F" Min="-9.99000000e+02" Max="5.38026333e+00"/>
  </Variables>
  <Spectators NSpec="0"/>
  <Classes NClass="2">
    <Class Name="Signal" Index="0"/>
    <Class Name="Background" Index="1"/>
  </Classes>
  <Transformations NTransformations="1">
    <Transform Name="Normalize">
      <Selection>
        <Input NInputs="11">
          <Input Type="Variable" Label="Jet1Pt" Expression="Jet1Pt"/>
          <Input Type="Variable" Label="LepPt" Expression="LepPt"/>
          <Input Type="Variable" Label="LepChg" Expression="LepChg"/>
          <Input Type="Variable" Label="LepEta" Expression="LepEta"/>
          <Input Type="Variable" Label="Met" Expression="Met"/>
          <Input Type="Variable" Label="mt" Expression="mt"/>
          <Input Type="Variable" Label="HT20" Expression="HT20"/>
          <Input Type="Variable" Label="NbLoose30" Expression="NbLoose30"/>
          <Input Type="Variable" Label="Njet" Expression="Njet"/>
          <Input Type="Variable" Label="JetHBpt" Expression="JetHBpt"/>
          <Input Type="Variable" Label="DrJetHBLep" Expression="DrJetHBLep"/>
        </Input>
        <Output NOutputs="11">
          <Output Type="Variable" Label="Jet1Pt" Expression="Jet1Pt"/>
          <Output Type="Variable" Label="LepPt" Expression="LepPt"/>
          <Output Type="Variable" Label="LepChg" Expression="LepChg"/>
          <Output Type="Variable" Label="LepEta" Expression="LepEta"/>
          <Output Type="Variable" Label="Met" Expression="Met"/>
          <Output Type="Variable" Label="mt" Expression="mt"/>
          <Output Type="Variable" Label="HT20" Expression="HT20"/>
          <Output Type="Variable" Label="NbLoose30" Expression="NbLoose30"/>
          <Output Type="Variable" Label="Njet" Expression="Njet"/>
          <Output Type="Variable" Label="JetHBpt" Expression="JetHBpt"/>
          <Output Type="Variable" Label="DrJetHBLep" Expression="DrJetHBLep"/>
        </Output>
      </Selection>
      <Class ClassIndex="0">
        <Ranges>
          <Range Index="0" Min="1.1004869842529297e+02" Max="1.2779298095703125e+03"/>
          <Range Index="1" Min="5.0007581710815430e+00" Max="2.9949773788452148e+01"/>
          <Range Index="2" Min="-1.0000000000000000e+00" Max="1.0000000000000000e+00"/>
          <Range Index="3" Min="-2.4711689949035645e+00" Max="2.3791146278381348e+00"/>
          <Range Index="4" Min="2.8022933959960938e+02" Max="1.2514943847656250e+03"/>
          <Range Index="5" Min="5.5733408778905869e-02" Max="3.0052719116210938e+02"/>
          <Range Index="6" Min="1.1735253143310547e+02" Max="2.3474851074218750e+03"/>
          <Range Index="7" Min="0.0000000000000000e+00" Max="5.0000000000000000e+00"/>
          <Range Index="8" Min="1.0000000000000000e+00" Max="1.1000000000000000e+01"/>
          <Range Index="9" Min="2.0057344436645508e+01" Max="1.0570437011718750e+03"/>
          <Range Index="10" Min="6.2708742916584015e-05" Max="4.9576835632324219e+00"/>
        </Ranges>
      </Class>
      <Class ClassIndex="1">
        <Ranges>
          <Range Index="0" Min="1.1005755615234375e+02" Max="1.5727603759765625e+03"/>
          <Range Index="1" Min="5.0013527870178223e+00" Max="2.9998437881469727e+01"/>
          <Range Index="2" Min="-1.0000000000000000e+00" Max="1.0000000000000000e+00"/>
          <Range Index="3" Min="-2.4841156005859375e+00" Max="2.4988005161285400e+00"/>
          <Range Index="4" Min="2.8002029418945312e+02" Max="1.2894793701171875e+03"/>
          <Range Index="5" Min="5.3781573660671711e-04" Max="2.1579251098632812e+02"/>
          <Range Index="6" Min="1.1200339508056641e+02" Max="4.5048730468750000e+03"/>
          <Range Index="7" Min="0.0000000000000000e+00" Max="6.0000000000000000e+00"/>
          <Range Index="8" Min="1.0000000000000000e+00" Max="1.4000000000000000e+01"/>
          <Range Index="9" Min="-9.9900000000000000e+02" Max="1.3784288330078125e+03"/>
          <Range Index="10" Min="-9.9900000000000000e+02" Max="5.3802633285522461e+00"/>
        </Ranges>
      </Class>
      <Class ClassIndex="2">
        <Ranges>
          <Range Index="0" Min="1.1004869842529297e+02" Max="1.5727603759765625e+03"/>
          <Range Index="1" Min="5.0007581710815430e+00" Max="2.9998437881469727e+01"/>
          <Range Index="2" Min="-1.0000000000000000e+00" Max="1.0000000000000000e+00"/>
          <Range Index="3" Min="-2.4841156005859375e+00" Max="2.4988005161285400e+00"/>
          <Range Index="4" Min="2.8002029418945312e+02" Max="1.2894793701171875e+03"/>
          <Range Index="5" Min="5.3781573660671711e-04" Max="3.0052719116210938e+02"/>
          <Range Index="6" Min="1.1200339508056641e+02" Max="4.5048730468750000e+03"/>
          <Range Index="7" Min="0.0000000000000000e+00" Max="6.0000000000000000e+00"/>
          <Range Index="8" Min="1.0000000000000000e+00" Max="1.4000000000000000e+01"/>
          <Range Index="9" Min="-9.9900000000000000e+02" Max="1.3784288330078125e+03"/>
          <Range Index="10" Min="-9.9900000000000000e+02" Max="5.3802633285522461e+00"/>
        </Ranges>
      </Class>
    </Transform>
  </Transformations>
  <MVAPdfs/>
  <Weights>
    <Layout NLayers="5">
      <Layer Index="0" NNeurons="12">
        <Neuron NSynapses="11">
          -1.9840194697435995e-01 -1.1155929952041550e-01 -1.0787442482372168e-01 -2.1421458768416333e+00 -4.1520123653148389e+00 2.0183048662626527e-01 1.0899927444046287e+00 2.2444852628822876e+00 -4.0377990782060174e+00 -1.9047547365695330e-01 -3.4530116668937478e+00 
        </Neuron>
        <Neuron NSynapses="11">
          -2.5528036790040716e+00 3.5803158147458719e-01 4.5948757564552370e-02 -2.5599063471193735e+00 1.7984295797614693e+00 1.3489013349570016e+00 1.8930021828220984e+00 2.3247586046588761e-01 4.1453777587078138e+00 5.6679188511058243e-01 -1.0105835968999392e-01 
        </Neuron>
        <Neuron NSynapses="11">
          8.3599138060449485e-01 1.0851325275954317e-01 -1.1731052867388012e-01 -1.9769403461375141e+00 2.7673246309705042e+00 -1.2037616751958560e+00 -3.5922266423418763e+00 -1.8870070409578882e-01 -6.9336226896699271e-01 -5.5628041363058744e-01 -5.4484325666957534e-01 
        </Neuron>
        <Neuron NSynapses="11">
          1.1612719395296396e+00 6.1217400084151508e-01 3.2209882509115779e-02 7.0469748636543716e-01 2.6010019447035502e+00 -1.7584255496978254e+00 3.3371963337117427e-01 1.1431711426087066e+00 -8.4427120590996241e-01 7.2029271737228928e+00 -2.8022336115508972e+00 
        </Neuron>
        <Neuron NSynapses="11">
          8.3718974107331690e+00 -1.1184274325707011e+00 8.8887143065897707e+00 -1.6396917953439947e+00 -2.1039082373505162e+00 3.4089216427027496e+00 5.2353693408777611e+00 4.9692662066858745e-01 -7.8858452968675175e-01 -8.6224704869679702e-02 -9.3023278679032195e-01 
        </Neuron>
        <Neuron NSynapses="11">
          7.0323820604134823e-01 -1.7341267084865187e+01 8.4594009784490672e-03 2.3564234682980763e+00 1.6978722932819896e+00 -4.5170111533119099e+00 1.4711606829715758e+00 -5.5096339987716636e-01 3.9720313781112973e+00 4.4893188389309124e-01 3.0356938430419618e+00 
        </Neuron>
        <Neuron NSynapses="11">
          -4.8545669469816799e+00 2.6105048859972348e+00 -5.3461277942936629e+00 -1.6885295012271506e+00 -4.2148656267864085e-02 1.7261510882692627e-01 -1.0844239012216468e+00 1.1786051364743315e+00 2.0365108847622917e+00 2.0672209239409316e+00 -7.3009623135698365e-01 
        </Neuron>
        <Neuron NSynapses="11">
          -3.9878001468994206e+00 -9.1379002329752101e-01 -4.5586274599268195e-01 5.1033478236369580e+00 2.7603148707830791e+00 1.6495014631368607e+00 -1.9255215571269568e+00 -1.1014908748013048e+00 6.3067642036612276e-02 1.5133073850605376e+00 6.9678014958980838e-01 
        </Neuron>
        <Neuron NSynapses="11">
          -2.5095543632354618e+00 3.4163770557532713e-01 3.1719190789413982e+00 2.5176527431223237e+00 -1.4922015375588138e-01 -2.9377363554664795e+00 -4.4537719811167191e+00 1.7447098966484986e+00 -1.5548820012252584e+00 -5.4918660369869192e+00 -6.7056649575330702e+00 
        </Neuron>
        <Neuron NSynapses="11">
          -3.6621847968084631e+00 4.4818004424851932e-01 -5.9072602089081876e+00 7.7346598513529574e-01 9.3689308100113244e-01 -2.0894457401222901e+00 3.4190515653309377e+00 -1.0974870516223090e+00 -3.5143872833175638e+00 -7.8003369474104511e-01 2.7254751908153846e-01 
        </Neuron>
        <Neuron NSynapses="11">
          -5.7653125277051098e-01 -2.2845129640459954e+00 8.8952726634911194e-01 5.0058046556520241e-01 -2.4292086127798412e-02 1.3885871478394267e+00 2.8086468585186786e-01 -4.6729635437371547e-01 -9.9532347003631089e-02 -2.5886182559918263e+00 -3.8135442839922766e+00 
        </Neuron>
        <Neuron NSynapses="11">
          1.2978113014842940e+00 -2.9551063059208169e+00 1.8221808436786062e+00 7.5782619864081724e-01 1.5842507051693142e+00 -8.4264863071205787e-01 -7.2416245354093084e-03 -1.3108604668895356e+00 8.9409775930439439e-01 -1.1757163124659855e+00 -3.8731815442677928e+00 
        </Neuron>
      </Layer>
      <Layer Index="1" NNeurons="12">
        <Neuron NSynapses="11">
          -2.7404995395076837e+00 -1.4945074437694033e+00 -1.3721631835310364e+00 1.9060947938338939e+00 2.0811533039913259e+00 -2.8806779314210855e+00 -1.4076657890269175e+00 6.2122912268575963e+00 6.2935709694418032e+00 -1.8715182405850579e+00 -2.8582914675148334e+00 
        </Neuron>
        <Neuron NSynapses="11">
          1.0399520694862869e+00 -7.0167209173580813e-01 1.6471932317149829e+00 -9.3403232202031305e-01 -4.2950532018226486e+00 -8.4599329203922080e-01 -6.2083024331824688e-01 -4.7998422566900372e+00 -1.6387469803838055e+00 2.2781719418944437e+00 -6.4983072328108327e-01 
        </Neuron>
        <Neuron NSynapses="11">
          -2.6898512346498854e-01 -1.1454595630184124e-01 5.4849437844199744e-01 2.9673432937324433e+00 3.9033016742507125e+00 -3.2406829806057420e+00 4.5496745395622390e-01 1.4442200606299482e+00 3.1839679843615798e+00 -2.6263133756670465e+00 3.9136634594020275e-01 
        </Neuron>
        <Neuron NSynapses="11">
          -2.0384470424658212e+00 -9.5944558259344825e-01 1.8300560923318625e+00 2.1698908747426380e+00 -1.5295738044222560e+00 2.4767318995845180e+00 1.1752143914590560e+00 -1.8196104679826650e+00 4.2912583697859938e+00 4.2436688971457759e+00 -3.6813684986695452e+00 
        </Neuron>
        <Neuron NSynapses="11">
          7.0889386183083869e-01 -4.1073615485367654e-01 1.7204617517823646e+00 -2.1880839817721851e+00 -1.9646457314663243e-01 -5.3313023437418219e-03 2.6643901144750974e+00 -1.0474730550111488e+00 -1.3586701183380181e+00 -1.2566699037587155e+00 1.0667687665974450e+00 
        </Neuron>
        <Neuron NSynapses="11">
          5.7676935708946155e+00 -7.0342545891042596e-01 -8.4152547437264902e-01 -8.6226548815033699e-01 -2.5508226279458351e-01 1.5652154339532218e+00 1.6219804559135165e+00 -1.8436370847472490e+00 9.5804611041966359e-02 -3.6159050253948197e+00 -3.6218174533737746e-01 
        </Neuron>
        <Neuron NSynapses="11">
          2.0719154689065129e+00 -1.3074273552950195e+00 -4.1504078835209762e-01 3.2900109804860639e-01 3.6799368495942799e+00 -1.2352866824345676e+00 -5.3738000977659972e-01 2.7027579404886572e-02 1.9850841324468942e+00 2.9674508931198829e-01 9.7451051595341531e-01 
        </Neuron>
        <Neuron NSynapses="11">
          9.4369387310573105e-01 6.1618347960962316e-01 -9.4884018218009958e-02 -2.0497593687327456e+00 -9.8087430311027168e-01 1.9090728032708089e+00 1.0931669589340549e+00 7.5906157698324772e-01 -1.7497963088405649e-01 2.1048173106597874e+00 -1.7230383694042526e+00 
        </Neuron>
        <Neuron NSynapses="11">
          -4.1319383716575002e+00 9.2176761943035923e-01 -1.3881317440512264e+00 -2.4348183637785690e+00 3.3420778465211352e+00 -4.9773416095371131e-01 3.8099433002208398e+00 3.7937080373676046e-01 -4.1250370646965564e+00 -2.4077539893095501e-01 1.9581725424892979e-01 
        </Neuron>
        <Neuron NSynapses="11">
          -2.3844739332231089e+00 2.5603913345447933e+00 1.9181787974576292e+00 5.0943180103841568e-01 -3.0939945798331752e+00 1.1887295991562026e+00 6.2858545845349501e-01 -1.5328029379069295e+00 -4.0343887731570796e+00 -4.0739810839036990e+00 -2.1063047190296544e-01 
        </Neuron>
        <Neuron NSynapses="11">
          -2.6677930879009750e+00 -2.3048976327552553e+00 -2.1147160102942739e+00 -8.5442930686990559e-01 -4.4375563007437693e+00 -1.5402668280975407e+00 4.2016639740272215e+00 -2.2529199851281563e+00 -2.4828908769374101e+00 -1.9007736782941909e+00 -5.2169313283908203e-01 
        </Neuron>
        <Neuron NSynapses="11">
          2.4672414380511252e+00 1.2641329860807269e+00 -6.7971367313656672e-01 -1.4569269971878760e+00 -1.0064563959186292e+00 -1.9556786726504225e+00 -1.6486513949897077e+00 6.1812399143881358e-01 -8.3592842295041625e-01 5.5734508435291974e-01 -4.1163871124905821e-01 
        </Neuron>
      </Layer>
      <Layer Index="2" NNeurons="12">
        <Neuron NSynapses="12">
          -5.6857070379013108e-01 -2.8059159766002089e+00 -5.1035395575014544e+00 1.3668195727526458e-01 2.6783687611194540e+00 -3.1965512418780202e+00 -3.0953911797169109e+00 6.0598865168506610e-01 -7.8074337169768762e-02 9.6744242608052666e-01 2.1818370270461857e-01 -1.6591756133797315e+00 
        </Neuron>
        <Neuron NSynapses="12">
          1.1590285755886012e+00 1.2952604458530768e+00 6.0154829961548584e-01 -5.5126956872707344e-01 -3.3153067529970126e-01 -1.0697838032119049e+00 -2.2140295400697001e+00 -5.4068515512390647e-01 -1.7431707598354720e+00 -1.3019213297728967e+00 -2.4468544333162718e+00 1.1571989793983057e+00 
        </Neuron>
        <Neuron NSynapses="12">
          -2.2592319837517372e+00 1.2509442766689598e+00 -2.1681293706474167e+00 7.9207539284504491e-01 5.4258083215996489e-01 -1.8601945896025940e-01 6.9503230357918788e-01 -2.1029622594973127e+00 -4.5205739296632338e-02 1.0686966824824873e+00 -2.5366206055901785e+00 -2.6604041364317315e+00 
        </Neuron>
        <Neuron NSynapses="12">
          -2.2139296954789236e+00 -1.1745443774383646e+00 2.9126037356971790e+00 -1.0833628277788607e+00 8.4518596802819446e-01 -7.8531287236402425e-01 -1.3401760440447725e+00 -1.7571781621901825e+00 -1.6630760519188492e+00 -1.2842054168989414e+00 1.4640832386300437e+00 -1.4600501886386217e+00 
        </Neuron>
        <Neuron NSynapses="12">
          -2.6371586946621868e+00 3.6749300087927400e-01 1.5274372500410625e+00 -1.9347049728824623e+00 1.4781015837813902e+00 -2.5407703385510860e+00 6.8921877948618659e-01 8.0922291697068083e-01 -1.6894273495213696e+00 -5.7179671158612710e-01 6.5876517625481346e-01 -2.5996939491927522e+00 
        </Neuron>
        <Neuron NSynapses="12">
          4.4402838732832889e-01 2.2324135589353831e+00 8.5629354707095828e-01 2.0738054096515390e+00 -1.8547070889401220e+00 1.3720776151220373e+00 -1.9543789274863190e+00 6.5577182916267673e-01 -1.7030336224074656e+00 -1.8961183738360667e+00 -2.2581624730166130e-01 1.2491459417775954e+00 
        </Neuron>
        <Neuron NSynapses="12">
          4.0252287517090335e-01 -6.1537447132810126e-02 -1.9860642725963212e-01 -3.5480006447693829e-01 -4.2288821873420694e+00 2.9949314767271690e-01 6.6970733591349429e-01 -1.6198572624290744e+00 -9.6743815546467027e-01 -1.7432688296862899e+00 -2.4590204864029781e+00 -1.5961030548802854e-01 
        </Neuron>
        <Neuron NSynapses="12">
          -8.9207225819148472e-01 -2.7883988340178445e+00 3.3106589978789169e+00 9.6279037437808224e-01 -8.2716074821202926e-02 -1.3901322690616742e+00 -3.9593553801145820e-01 -1.4521508731894681e+00 -1.8915429054210728e+00 8.8609507374297947e-01 1.2955371907123088e+00 -2.1880124260516416e+00 
        </Neuron>
        <Neuron NSynapses="12">
          -1.4644497706457768e-01 -4.0199562254345347e+00 -4.4199754263367863e-01 -2.2203169476380116e+00 6.5132075774274628e-02 -3.4816006858799988e+00 -2.2255342173103858e+00 -6.6457062338898087e-01 -1.5340148628618238e+00 -1.6628772342964171e+00 2.7841323936094531e+00 -1.6250929179310498e+00 
        </Neuron>
        <Neuron NSynapses="12">
          -1.9062523142531520e+00 2.5541410435848433e+00 2.1952951002865297e-02 7.6686037538007701e-01 -2.9428761922764451e-01 2.3235803155152190e+00 3.0828766915295627e+00 6.8576867400122221e-01 -8.1030961468581841e-01 -8.9279419053387288e-01 -1.1978977893102272e+00 9.9935276691732067e-01 
        </Neuron>
        <Neuron NSynapses="12">
          1.7357797488777688e-01 -2.0554418729592316e+00 -5.7527769420293862e-01 -3.8584090567194745e-01 4.4134986855138886e-01 -2.1252811987026594e+00 5.6451859039069019e-01 7.1515289941035198e-01 -2.7951357141758129e+00 -2.0072310682901179e-01 -2.2516816803370405e+00 3.5491556793470092e-01 
        </Neuron>
        <Neuron NSynapses="12">
          3.7746932637788044e-01 -5.5800493369859583e-01 1.1673500518062156e-02 -9.1803813845237936e-01 -4.2480862455118029e-01 1.7944535284445775e+00 -6.8970402411633569e-01 -1.2467513832715003e+00 9.6363082205336362e-02 -1.9879331547159420e+00 -1.1323638936653102e+00 1.4172884472184504e+00 
        </Neuron>
      </Layer>
      <Layer Index="3" NNeurons="13">
        <Neuron NSynapses="1">
          -2.1588295051345456e+00 
        </Neuron>
        <Neuron NSynapses="1">
          -3.3440029035142840e+00 
        </Neuron>
        <Neuron NSynapses="1">
          1.8228111835530987e+00 
        </Neuron>
        <Neuron NSynapses="1">
          -1.1551468778748204e+00 
        </Neuron>
        <Neuron NSynapses="1">
          1.5280486452098796e+00 
        </Neuron>
        <Neuron NSynapses="1">
          -3.3011022698972710e+00 
        </Neuron>
        <Neuron NSynapses="1">
          -2.5481212779027902e+00 
        </Neuron>
        <Neuron NSynapses="1">
          -6.5389943927742766e-01 
        </Neuron>
        <Neuron NSynapses="1">
          -5.0694636459872178e-01 
        </Neuron>
        <Neuron NSynapses="1">
          1.2917464818388951e+00 
        </Neuron>
        <Neuron NSynapses="1">
          1.8999486225575013e+00 
        </Neuron>
        <Neuron NSynapses="1">
          -1.7234788513869133e+00 
        </Neuron>
        <Neuron NSynapses="1">
          8.4828386635494440e-02 
        </Neuron>
      </Layer>
      <Layer Index="4" NNeurons="1">
        <Neuron NSynapses="0"/>
      </Layer>
    </Layout>
  </Weights>
</MethodSetup>
