<?xml version="1.0"?>
<MethodSetup Method="MLP::MLP_ANN_N3_NC800">
  <GeneralInfo>
    <Info name="TMVA Release" value="4.2.1 [262657]"/>
    <Info name="ROOT Release" value="6.06/01 [394753]"/>
    <Info name="Creator" value="brucms16"/>
    <Info name="Date" value="Wed Sep  7 03:53:46 2016"/>
    <Info name="Host" value="Linux vocms0315.cern.ch 2.6.32-573.26.1.el6.x86_64 #1 SMP Wed May 4 09:23:05 CEST 2016 x86_64 x86_64 x86_64 GNU/Linux"/>
    <Info name="Dir" value="/home/t3cms/brucms16/CMSSW_8_0_14/src/UserCode/SkeletonAnalysis/macros"/>
    <Info name="Training events" value="15056"/>
    <Info name="TrainingTime" value="4.09507478e+02"/>
    <Info name="AnalysisType" value="Classification"/>
  </GeneralInfo>
  <Options>
    <Option name="NCycles" modified="Yes">800</Option>
    <Option name="HiddenLayers" modified="Yes">N,N,N+3</Option>
    <Option name="NeuronType" modified="No">sigmoid</Option>
    <Option name="RandomSeed" modified="No">1</Option>
    <Option name="EstimatorType" modified="No">CE</Option>
    <Option name="NeuronInputType" modified="No">sum</Option>
    <Option name="V" modified="Yes">False</Option>
    <Option name="VerbosityLevel" modified="No">Default</Option>
    <Option name="VarTransform" modified="Yes">Norm</Option>
    <Option name="H" modified="Yes">False</Option>
    <Option name="CreateMVAPdfs" modified="No">False</Option>
    <Option name="IgnoreNegWeightsInTraining" modified="No">False</Option>
    <Option name="TrainingMethod" modified="No">BP</Option>
    <Option name="LearningRate" modified="Yes">9.000000e-02</Option>
    <Option name="DecayRate" modified="Yes">1.000000e-02</Option>
    <Option name="TestRate" modified="No">10</Option>
    <Option name="EpochMonitoring" modified="No">False</Option>
    <Option name="Sampling" modified="No">1.000000e+00</Option>
    <Option name="SamplingEpoch" modified="No">1.000000e+00</Option>
    <Option name="SamplingImportance" modified="No">1.000000e+00</Option>
    <Option name="SamplingTraining" modified="No">True</Option>
    <Option name="SamplingTesting" modified="No">False</Option>
    <Option name="ResetStep" modified="No">50</Option>
    <Option name="Tau" modified="No">3.000000e+00</Option>
    <Option name="BPMode" modified="No">sequential</Option>
    <Option name="BatchSize" modified="No">-1</Option>
    <Option name="ConvergenceImprove" modified="No">1.000000e-30</Option>
    <Option name="ConvergenceTests" modified="No">-1</Option>
    <Option name="UseRegulator" modified="No">False</Option>
    <Option name="UpdateLimit" modified="No">10000</Option>
    <Option name="CalculateErrors" modified="No">False</Option>
    <Option name="WeightRange" modified="No">1.000000e+00</Option>
  </Options>
  <Variables NVar="11">
    <Variable VarIndex="0" Expression="Jet1Pt" Label="Jet1Pt" Title="Jet1Pt" Unit="" Internal="Jet1Pt" Type="F" Min="1.10048698e+02" Max="1.57276038e+03"/>
    <Variable VarIndex="1" Expression="LepPt" Label="LepPt" Title="LepPt" Unit="" Internal="LepPt" Type="F" Min="5.00075817e+00" Max="2.99984379e+01"/>
    <Variable VarIndex="2" Expression="LepChg" Label="LepChg" Title="LepChg" Unit="" Internal="LepChg" Type="F" Min="-1.00000000e+00" Max="1.00000000e+00"/>
    <Variable VarIndex="3" Expression="LepEta" Label="LepEta" Title="LepEta" Unit="" Internal="LepEta" Type="F" Min="-2.48411560e+00" Max="2.49880052e+00"/>
    <Variable VarIndex="4" Expression="Met" Label="Met" Title="Met" Unit="" Internal="Met" Type="F" Min="2.80020294e+02" Max="1.28947937e+03"/>
    <Variable VarIndex="5" Expression="mt" Label="mt" Title="mt" Unit="" Internal="mt" Type="F" Min="5.37815737e-04" Max="3.00527191e+02"/>
    <Variable VarIndex="6" Expression="HT20" Label="HT20" Title="HT20" Unit="" Internal="HT20" Type="F" Min="1.12003395e+02" Max="4.50487305e+03"/>
    <Variable VarIndex="7" Expression="NbLoose30" Label="NbLoose30" Title="NbLoose30" Unit="" Internal="NbLoose30" Type="F" Min="0.00000000e+00" Max="6.00000000e+00"/>
    <Variable VarIndex="8" Expression="Njet" Label="Njet" Title="Njet" Unit="" Internal="Njet" Type="F" Min="1.00000000e+00" Max="1.40000000e+01"/>
    <Variable VarIndex="9" Expression="JetHBpt" Label="JetHBpt" Title="JetHBpt" Unit="" Internal="JetHBpt" Type="F" Min="-9.99000000e+02" Max="1.37842883e+03"/>
    <Variable VarIndex="10" Expression="DrJetHBLep" Label="DrJetHBLep" Title="DrJetHBLep" Unit="" Internal="DrJetHBLep" Type="F" Min="-9.99000000e+02" Max="5.38026333e+00"/>
  </Variables>
  <Spectators NSpec="0"/>
  <Classes NClass="2">
    <Class Name="Signal" Index="0"/>
    <Class Name="Background" Index="1"/>
  </Classes>
  <Transformations NTransformations="1">
    <Transform Name="Normalize">
      <Selection>
        <Input NInputs="11">
          <Input Type="Variable" Label="Jet1Pt" Expression="Jet1Pt"/>
          <Input Type="Variable" Label="LepPt" Expression="LepPt"/>
          <Input Type="Variable" Label="LepChg" Expression="LepChg"/>
          <Input Type="Variable" Label="LepEta" Expression="LepEta"/>
          <Input Type="Variable" Label="Met" Expression="Met"/>
          <Input Type="Variable" Label="mt" Expression="mt"/>
          <Input Type="Variable" Label="HT20" Expression="HT20"/>
          <Input Type="Variable" Label="NbLoose30" Expression="NbLoose30"/>
          <Input Type="Variable" Label="Njet" Expression="Njet"/>
          <Input Type="Variable" Label="JetHBpt" Expression="JetHBpt"/>
          <Input Type="Variable" Label="DrJetHBLep" Expression="DrJetHBLep"/>
        </Input>
        <Output NOutputs="11">
          <Output Type="Variable" Label="Jet1Pt" Expression="Jet1Pt"/>
          <Output Type="Variable" Label="LepPt" Expression="LepPt"/>
          <Output Type="Variable" Label="LepChg" Expression="LepChg"/>
          <Output Type="Variable" Label="LepEta" Expression="LepEta"/>
          <Output Type="Variable" Label="Met" Expression="Met"/>
          <Output Type="Variable" Label="mt" Expression="mt"/>
          <Output Type="Variable" Label="HT20" Expression="HT20"/>
          <Output Type="Variable" Label="NbLoose30" Expression="NbLoose30"/>
          <Output Type="Variable" Label="Njet" Expression="Njet"/>
          <Output Type="Variable" Label="JetHBpt" Expression="JetHBpt"/>
          <Output Type="Variable" Label="DrJetHBLep" Expression="DrJetHBLep"/>
        </Output>
      </Selection>
      <Class ClassIndex="0">
        <Ranges>
          <Range Index="0" Min="1.1004869842529297e+02" Max="1.2779298095703125e+03"/>
          <Range Index="1" Min="5.0007581710815430e+00" Max="2.9949773788452148e+01"/>
          <Range Index="2" Min="-1.0000000000000000e+00" Max="1.0000000000000000e+00"/>
          <Range Index="3" Min="-2.4711689949035645e+00" Max="2.3791146278381348e+00"/>
          <Range Index="4" Min="2.8022933959960938e+02" Max="1.2514943847656250e+03"/>
          <Range Index="5" Min="5.5733408778905869e-02" Max="3.0052719116210938e+02"/>
          <Range Index="6" Min="1.1735253143310547e+02" Max="2.3474851074218750e+03"/>
          <Range Index="7" Min="0.0000000000000000e+00" Max="5.0000000000000000e+00"/>
          <Range Index="8" Min="1.0000000000000000e+00" Max="1.1000000000000000e+01"/>
          <Range Index="9" Min="2.0057344436645508e+01" Max="1.0570437011718750e+03"/>
          <Range Index="10" Min="6.2708742916584015e-05" Max="4.9576835632324219e+00"/>
        </Ranges>
      </Class>
      <Class ClassIndex="1">
        <Ranges>
          <Range Index="0" Min="1.1005755615234375e+02" Max="1.5727603759765625e+03"/>
          <Range Index="1" Min="5.0013527870178223e+00" Max="2.9998437881469727e+01"/>
          <Range Index="2" Min="-1.0000000000000000e+00" Max="1.0000000000000000e+00"/>
          <Range Index="3" Min="-2.4841156005859375e+00" Max="2.4988005161285400e+00"/>
          <Range Index="4" Min="2.8002029418945312e+02" Max="1.2894793701171875e+03"/>
          <Range Index="5" Min="5.3781573660671711e-04" Max="2.1579251098632812e+02"/>
          <Range Index="6" Min="1.1200339508056641e+02" Max="4.5048730468750000e+03"/>
          <Range Index="7" Min="0.0000000000000000e+00" Max="6.0000000000000000e+00"/>
          <Range Index="8" Min="1.0000000000000000e+00" Max="1.4000000000000000e+01"/>
          <Range Index="9" Min="-9.9900000000000000e+02" Max="1.3784288330078125e+03"/>
          <Range Index="10" Min="-9.9900000000000000e+02" Max="5.3802633285522461e+00"/>
        </Ranges>
      </Class>
      <Class ClassIndex="2">
        <Ranges>
          <Range Index="0" Min="1.1004869842529297e+02" Max="1.5727603759765625e+03"/>
          <Range Index="1" Min="5.0007581710815430e+00" Max="2.9998437881469727e+01"/>
          <Range Index="2" Min="-1.0000000000000000e+00" Max="1.0000000000000000e+00"/>
          <Range Index="3" Min="-2.4841156005859375e+00" Max="2.4988005161285400e+00"/>
          <Range Index="4" Min="2.8002029418945312e+02" Max="1.2894793701171875e+03"/>
          <Range Index="5" Min="5.3781573660671711e-04" Max="3.0052719116210938e+02"/>
          <Range Index="6" Min="1.1200339508056641e+02" Max="4.5048730468750000e+03"/>
          <Range Index="7" Min="0.0000000000000000e+00" Max="6.0000000000000000e+00"/>
          <Range Index="8" Min="1.0000000000000000e+00" Max="1.4000000000000000e+01"/>
          <Range Index="9" Min="-9.9900000000000000e+02" Max="1.3784288330078125e+03"/>
          <Range Index="10" Min="-9.9900000000000000e+02" Max="5.3802633285522461e+00"/>
        </Ranges>
      </Class>
    </Transform>
  </Transformations>
  <MVAPdfs/>
  <Weights>
    <Layout NLayers="5">
      <Layer Index="0" NNeurons="12">
        <Neuron NSynapses="11">
          8.2572777198261882e-01 5.4115394104368619e-01 1.4491419565041828e+00 4.2461939296799187e+00 -2.0298641954981744e+00 -5.2093750286958318e-01 1.3858866379293326e+00 1.4454186819385162e+00 -2.2183732240153509e+00 -3.8082615428578087e-01 -3.4211185615239015e+00 
        </Neuron>
        <Neuron NSynapses="11">
          2.4996273211217503e+00 -3.9690283198318266e-01 -3.1663588228680419e+00 -4.0092473158112679e-01 9.7243006055477943e-01 -1.8974223303035302e+00 2.3887503630194473e+00 -1.9267365627133312e-01 3.1244295406027267e+00 1.0835581257264386e+00 -2.3021230468749299e-01 
        </Neuron>
        <Neuron NSynapses="11">
          1.4300348082685166e+00 8.1514364554831367e-02 5.0846359321655066e-01 -4.2567971555484156e+00 1.2291532609967164e+00 5.8197334358448372e-01 -3.6487827834410291e+00 5.5312420420676545e-01 -3.8651578396584796e-01 -1.4010040926112052e-01 -7.7025787262242762e-01 
        </Neuron>
        <Neuron NSynapses="11">
          1.2386680312806765e-02 5.4506210214536312e-02 1.5798830437806377e+00 -1.0769656922717106e+00 1.5326502907367534e+00 -2.4112146412468918e+00 6.5968074419759426e-01 1.0055807027938486e+00 -3.8917535405774306e-01 5.2073433709971821e+00 -2.9638231407836160e+00 
        </Neuron>
        <Neuron NSynapses="11">
          6.2859271490492628e+00 -2.9260066880355371e+00 9.0974866546689839e+00 6.7288865734130177e-01 2.5171742610128209e+00 6.8241955798438640e+00 4.0607608479933823e+00 1.0932819795318973e+00 -4.3554346314414243e+00 2.1161532248344320e-01 -4.8865258892805785e-01 
        </Neuron>
        <Neuron NSynapses="11">
          -1.6091299144557423e+00 -1.7822338419887739e+01 1.1741731420365789e-01 3.4460604185910961e+00 7.5312774149863954e-02 -2.8235480520379928e+00 -1.4698100133436125e-02 -7.6717665352699538e-01 2.7637685321308196e+00 2.3207729899421032e+00 3.4321253980665625e+00 
        </Neuron>
        <Neuron NSynapses="11">
          -1.3708934436389624e+00 3.6254921112984877e+00 -4.3749612876028410e+00 -7.0767904875136411e-01 -6.0925626791701104e-01 -1.9477784603468487e+00 -1.4765004585114866e-01 6.0626550584739858e-01 3.6957570647479359e+00 1.8102677835495999e+00 -6.8354223842193151e-01 
        </Neuron>
        <Neuron NSynapses="11">
          -6.6568709685935374e+00 -3.7814833523858521e-01 -3.7689436032619348e+00 3.4123054250722451e-01 1.7070298629306970e+00 1.4397738027109630e+00 -2.9609043028614521e+00 -1.3463235127343007e+00 6.6928320633747218e-01 2.2012472693983265e-01 -8.8908310118104361e-01 
        </Neuron>
        <Neuron NSynapses="11">
          -5.8441297415375635e+00 2.7399113333759911e-01 -7.6898400388939903e-01 1.2735057564643752e+00 1.6009815999951269e+00 -1.0926626287180417e+00 -2.2141638345501109e+00 1.6804102990474747e+00 -3.8017773457126309e+00 -5.7655263502328244e+00 -6.5160232478614954e+00 
        </Neuron>
        <Neuron NSynapses="11">
          -1.5266480863637639e+00 3.2427085525364951e+00 -5.3590636690082762e+00 1.0868404878477398e+00 1.2926742487814529e+00 1.9628021112564079e-01 3.7511039944913538e+00 -1.1311856309077641e+00 3.9893499502522362e-01 -1.2815907287611847e+00 -3.9214064168269513e-01 
        </Neuron>
        <Neuron NSynapses="11">
          -1.7771415282453717e+00 -2.3030251269536142e+00 1.2405713934867106e+00 1.0129592282536184e+00 -1.7458886555929405e+00 2.7433180651560463e+00 4.7344619338679284e-01 -5.1844080700687112e-01 -4.6200639985198128e-01 -2.5156504331318663e+00 -4.3408369031487668e+00 
        </Neuron>
        <Neuron NSynapses="11">
          1.8127387196888320e-01 -2.9821125954306664e+00 2.4569069600915934e+00 1.3046043092269226e+00 -3.6462165699675392e-01 5.0337711529801743e-01 1.6882856273017821e-01 -1.3613012024961353e+00 2.6028751489378588e-01 -9.3434620492857845e-01 -4.4195147684806040e+00 
        </Neuron>
      </Layer>
      <Layer Index="1" NNeurons="12">
        <Neuron NSynapses="11">
          7.1876030879284547e-01 -7.9868428707986172e-01 1.8227331539429967e+00 -1.4687358820978873e+00 3.3052720362087609e+00 -2.3329609579433530e+00 -1.5650812076411391e+00 3.5321053235684707e+00 1.8457819673709621e+00 -3.8711651288860405e+00 -1.6958672775746155e+00 
        </Neuron>
        <Neuron NSynapses="11">
          1.2687102004376858e+00 -3.5429805651209225e+00 8.2404308800334825e-01 3.4627470228977897e+00 -2.4048334620296363e+00 2.5921294356925356e-01 -2.3896126290264430e+00 -5.0593276997799173e+00 -2.2878456963033771e+00 -1.3121307470210495e+00 -1.2494096395531293e+00 
        </Neuron>
        <Neuron NSynapses="11">
          -9.1737967963802036e-01 2.1564422818767817e-01 1.7635211915942555e+00 -2.6130001173402544e+00 -8.8289958469448349e-01 -1.0798116471439321e+00 3.6893649683517427e+00 3.0032388252909130e+00 2.9602035758988983e+00 -1.8952838301792843e+00 2.1985317652364946e+00 
        </Neuron>
        <Neuron NSynapses="11">
          -7.9103071316613993e-01 -8.3338138053168576e-01 1.1356330917240594e+00 -1.5928057153474402e+00 -1.6712463556130214e-01 8.2357067425398844e-01 2.4146793811816769e+00 7.6739984715769038e-01 2.6839812710387392e+00 4.1880985432780236e+00 -2.2049506522002593e+00 
        </Neuron>
        <Neuron NSynapses="11">
          5.0086695744640630e-01 -5.8315938425652539e-02 6.3486139768978755e-01 -1.8632534041880575e+00 -1.0107115954678989e+00 1.3002880268030073e+00 2.6933922095980618e+00 -1.0099970172046551e+00 1.6330223636138519e-01 -3.8132814164805129e-01 4.0405268537682976e-01 
        </Neuron>
        <Neuron NSynapses="11">
          7.7720021863490762e-01 -1.4297627970113427e-01 1.1008656031085127e+00 -2.7311776798230398e+00 2.9649965473626758e+00 2.5157213614687897e+00 2.9812554620297926e+00 -2.0114747811954379e+00 -1.4087753135710013e+00 -4.6759925684243884e+00 4.2299905672600294e-02 
        </Neuron>
        <Neuron NSynapses="11">
          8.3973746520672132e-01 -1.1701044369058735e+00 3.7679172382800425e+00 -7.5464676686906429e-01 -4.8485528058249232e-02 -2.9506258956845510e+00 1.8770680271358442e+00 3.3940548574741904e+00 3.2114313973967101e-01 -1.2763859299637721e+00 1.8613344472834767e+00 
        </Neuron>
        <Neuron NSynapses="11">
          1.0994579794303183e+00 4.2128207740581747e-01 -1.8135154927997887e-01 -1.7877671179503802e+00 -9.3782288370242550e-01 1.9493348732552702e+00 1.4336835480193559e+00 9.5538618763826744e-01 5.0397474248556151e-01 1.9830993057800737e+00 -1.6176373526990047e+00 
        </Neuron>
        <Neuron NSynapses="11">
          -1.9644687582228770e+00 -6.0479335633727693e-01 -3.2356607327856755e+00 3.2166688000061177e+00 1.0774320238319706e+00 -2.4118953744104132e+00 -2.4877199909982308e+00 -3.1472375158949526e+00 -2.9043200790132229e+00 1.3898028020922415e+00 2.7858520461416658e-01 
        </Neuron>
        <Neuron NSynapses="11">
          1.1336564301100456e+00 9.0585558281142786e-01 -4.6270210446283677e+00 1.3306645373764472e+00 -3.0491412594621807e+00 9.3658530478045343e-01 -3.0301015192398617e-01 -2.3839290072064552e+00 -2.2517951903211051e+00 -1.5820438723208441e-01 -3.5093863876561116e-01 
        </Neuron>
        <Neuron NSynapses="11">
          -3.3638568371000108e+00 -1.3052059469491137e+00 -4.7950709128051887e+00 1.7542602604736284e+00 -2.2802956146803139e+00 -2.1329441574601402e+00 6.3637837384676066e-01 -5.8223977412498185e+00 -2.3606080265445462e+00 -2.0038152931372282e+00 -6.1216862675035877e-01 
        </Neuron>
        <Neuron NSynapses="11">
          1.9755906829284884e+00 9.6165742819133360e-01 2.9985962753415283e-03 -8.9344409609106978e-01 -1.8674929841811889e+00 -1.3303568678059433e-01 -2.2187542997365188e+00 2.2544440846299292e+00 -8.2360075920781461e-01 1.5632287085551779e+00 -9.6609075403081179e-01 
        </Neuron>
      </Layer>
      <Layer Index="2" NNeurons="12">
        <Neuron NSynapses="14">
          -1.8838640733296981e+00 -5.5625623281407288e-01 -2.9791968415297765e+00 1.6599505050441277e-01 -1.2196437014715811e+00 -1.3081616098756839e+00 -1.9726214510422631e+00 3.5543955690127083e-01 6.6341656673190674e-01 -6.1079833715697762e-01 -1.7023903652099395e+00 -5.4045662747415635e-01 -3.2825537604944388e-01 2.7049053504237036e-01 
        </Neuron>
        <Neuron NSynapses="14">
          7.8687434881813278e-01 -1.8185826804174812e-01 -5.0946084472003728e-01 -4.4101080076543281e-01 -1.7854845136560806e+00 -5.7236470024052077e-01 -1.6795157402991350e+00 -1.5287082380769925e+00 -1.0202447757833555e+00 1.4828290581353221e+00 -1.6983814266869446e+00 1.5403611086416691e+00 -1.6016956076094784e+00 1.0335311917570660e+00 
        </Neuron>
        <Neuron NSynapses="14">
          -3.6818853382112002e+00 1.0690414319192274e+00 -1.2523081732082397e+00 -2.9720272849879765e+00 -9.0227438551040118e-01 3.2888804535135019e-01 -2.5660683545980301e+00 -2.5311936807752500e+00 -2.4569303895627685e+00 -1.9220734478834756e+00 4.2102861845750944e-01 -1.1459276582958453e+00 -1.5705540824120970e-02 -1.1665505671545542e+00 
        </Neuron>
        <Neuron NSynapses="14">
          1.4456130467988819e+00 -1.6793105447510543e+00 -2.8573365894464549e+00 -2.2146169356039471e+00 -2.8690888471148621e-02 -1.3256743087929408e+00 -1.2327643010852161e+00 1.9462492350134584e+00 4.3250632574616787e-01 -2.8014093573582258e-02 2.1398468374634376e+00 -2.8233807364667842e+00 5.3746417588021878e-01 3.0862901548922350e-01 
        </Neuron>
        <Neuron NSynapses="14">
          -3.3228484071728497e+00 -8.9934602385232332e-01 5.7588846959875084e-01 -8.2641537177235880e-01 -7.4055530077043219e-01 1.6710208444536765e+00 2.0439891149227876e+00 2.8196993482621409e+00 -2.7978818615808714e+00 3.0793165663833050e-01 -2.4600992279964480e+00 2.3388837128248556e+00 -3.0384623963616750e+00 -2.0621315458161726e+00 
        </Neuron>
        <Neuron NSynapses="14">
          6.2019266111032301e-01 1.4753819728680504e+00 2.4952350080429131e+00 7.5856389692006332e-01 1.9560351705152243e-01 -1.9737744410742075e-01 -9.6978640049453557e-01 9.5503730932667785e-01 3.0517169885352731e+00 -1.7885686352308618e+00 5.9766168676396692e-01 -1.6608458394582983e+00 -1.6250563705867596e-01 -5.3223058938401686e-02 
        </Neuron>
        <Neuron NSynapses="14">
          -1.4844373109858553e+00 -1.2478065018471218e+00 2.6993411280559205e+00 1.8946620226078028e+00 -3.3339700379394560e-01 -5.5995488190717102e-01 -1.1448088943727042e+00 -2.5303208174910279e+00 -2.6950887775445285e+00 5.1354547417020280e-01 -1.1316097667515637e+00 -9.9455755690030700e-01 -5.3963728311407133e-01 -2.1616156933446407e+00 
        </Neuron>
        <Neuron NSynapses="14">
          -3.6731885604712504e+00 -1.7708354008376734e+00 1.2275002297545028e+00 -1.0901044698058582e+00 -2.4813184262104677e+00 -1.1378745728076847e+00 -1.7181415377834861e+00 -4.0108499107822428e+00 8.3486078068265024e-01 -2.7231995544718202e+00 -1.8678224722664620e+00 3.3131003960864449e+00 1.1730595350500129e-02 1.9358661144834921e-01 
        </Neuron>
        <Neuron NSynapses="14">
          -1.5528159222813969e+00 1.3737492050127040e+00 4.1132863600737801e+00 1.1701709875625812e+00 -1.3412899264016191e+00 -1.0591377474608745e+00 -2.5052549115128007e+00 -2.7028302428444412e-01 1.2398379332761769e+00 -1.0398115258710217e+00 4.9918356999939784e-01 1.7401190800283159e+00 1.2422826890491563e+00 -1.3942800883441524e+00 
        </Neuron>
        <Neuron NSynapses="14">
          3.2181254952683966e+00 8.2614507763582457e-01 -3.8490060760811518e+00 -7.7657382652795248e-01 -1.2935836859667331e+00 9.6650526063757292e-01 6.2112182197141597e-01 1.1492249708005848e+00 2.4789549505718416e+00 -5.2314396065290847e-01 1.6431208823704475e+00 -4.8690830957076731e-01 9.5382720983564495e-01 -1.3483948565347394e+00 
        </Neuron>
        <Neuron NSynapses="14">
          6.9640591198713386e-01 -1.6512642192540021e+00 1.5264620959958913e-01 1.2243889191872930e+00 -7.6255820135926733e-01 -8.6043780498067790e-01 5.0969403560116235e-02 -1.9075743272764751e+00 6.7068049500603288e-01 -2.1704648106580344e+00 1.8395383311441985e-01 -1.0047513055192570e+00 2.3870531545350464e+00 9.4487854630245072e-01 
        </Neuron>
        <Neuron NSynapses="14">
          1.3089986383915992e+00 4.7561900216739637e-02 -2.3544320915257586e+00 -7.5011113408812091e-01 -2.2316038031066249e-01 -1.9470689914605719e+00 -6.7028438285407932e-01 -1.5988722660942357e-02 -1.5411506397039745e+00 -2.0058915717584558e+00 -2.0130498602392577e+00 -3.2349847812101834e-01 -1.4358816243507189e+00 -2.8659654527331662e+00 
        </Neuron>
      </Layer>
      <Layer Index="3" NNeurons="15">
        <Neuron NSynapses="1">
          -4.1792831546333042e+00 
        </Neuron>
        <Neuron NSynapses="1">
          -1.5109685708150136e+00 
        </Neuron>
        <Neuron NSynapses="1">
          2.9296458628508142e+00 
        </Neuron>
        <Neuron NSynapses="1">
          1.0798168874094300e+00 
        </Neuron>
        <Neuron NSynapses="1">
          -9.4985351820541752e-01 
        </Neuron>
        <Neuron NSynapses="1">
          -9.2521523641866821e-01 
        </Neuron>
        <Neuron NSynapses="1">
          -2.8381737084762793e+00 
        </Neuron>
        <Neuron NSynapses="1">
          -1.8607087061847416e+00 
        </Neuron>
        <Neuron NSynapses="1">
          -3.0410683088895443e+00 
        </Neuron>
        <Neuron NSynapses="1">
          -1.6505926850890671e+00 
        </Neuron>
        <Neuron NSynapses="1">
          -1.9321247574997207e+00 
        </Neuron>
        <Neuron NSynapses="1">
          8.0491055925264254e-01 
        </Neuron>
        <Neuron NSynapses="1">
          -1.6620011228495994e+00 
        </Neuron>
        <Neuron NSynapses="1">
          7.3896075262884331e-01 
        </Neuron>
        <Neuron NSynapses="1">
          4.8640254411633638e-01 
        </Neuron>
      </Layer>
      <Layer Index="4" NNeurons="1">
        <Neuron NSynapses="0"/>
      </Layer>
    </Layout>
  </Weights>
</MethodSetup>
