<?xml version="1.0"?>
<MethodSetup Method="MLP::MLP_ANN_N-5_NC500">
  <GeneralInfo>
    <Info name="TMVA Release" value="4.2.1 [262657]"/>
    <Info name="ROOT Release" value="6.06/01 [394753]"/>
    <Info name="Creator" value="brucms16"/>
    <Info name="Date" value="Tue Sep  6 21:16:25 2016"/>
    <Info name="Host" value="Linux vocms0315.cern.ch 2.6.32-573.26.1.el6.x86_64 #1 SMP Wed May 4 09:23:05 CEST 2016 x86_64 x86_64 x86_64 GNU/Linux"/>
    <Info name="Dir" value="/home/t3cms/brucms16/CMSSW_8_0_14/src/UserCode/SkeletonAnalysis/macros"/>
    <Info name="Training events" value="15056"/>
    <Info name="TrainingTime" value="4.37180427e+02"/>
    <Info name="AnalysisType" value="Classification"/>
  </GeneralInfo>
  <Options>
    <Option name="NCycles" modified="Yes">500</Option>
    <Option name="HiddenLayers" modified="Yes">N,N,N+-5</Option>
    <Option name="NeuronType" modified="No">sigmoid</Option>
    <Option name="RandomSeed" modified="No">1</Option>
    <Option name="EstimatorType" modified="No">CE</Option>
    <Option name="NeuronInputType" modified="No">sum</Option>
    <Option name="V" modified="Yes">False</Option>
    <Option name="VerbosityLevel" modified="No">Default</Option>
    <Option name="VarTransform" modified="Yes">Norm</Option>
    <Option name="H" modified="Yes">False</Option>
    <Option name="CreateMVAPdfs" modified="No">False</Option>
    <Option name="IgnoreNegWeightsInTraining" modified="No">False</Option>
    <Option name="TrainingMethod" modified="No">BP</Option>
    <Option name="LearningRate" modified="Yes">9.000000e-02</Option>
    <Option name="DecayRate" modified="Yes">1.000000e-02</Option>
    <Option name="TestRate" modified="No">10</Option>
    <Option name="EpochMonitoring" modified="No">False</Option>
    <Option name="Sampling" modified="No">1.000000e+00</Option>
    <Option name="SamplingEpoch" modified="No">1.000000e+00</Option>
    <Option name="SamplingImportance" modified="No">1.000000e+00</Option>
    <Option name="SamplingTraining" modified="No">True</Option>
    <Option name="SamplingTesting" modified="No">False</Option>
    <Option name="ResetStep" modified="No">50</Option>
    <Option name="Tau" modified="No">3.000000e+00</Option>
    <Option name="BPMode" modified="No">sequential</Option>
    <Option name="BatchSize" modified="No">-1</Option>
    <Option name="ConvergenceImprove" modified="No">1.000000e-30</Option>
    <Option name="ConvergenceTests" modified="No">-1</Option>
    <Option name="UseRegulator" modified="No">False</Option>
    <Option name="UpdateLimit" modified="No">10000</Option>
    <Option name="CalculateErrors" modified="No">False</Option>
    <Option name="WeightRange" modified="No">1.000000e+00</Option>
  </Options>
  <Variables NVar="11">
    <Variable VarIndex="0" Expression="Jet1Pt" Label="Jet1Pt" Title="Jet1Pt" Unit="" Internal="Jet1Pt" Type="F" Min="1.10048698e+02" Max="1.57276038e+03"/>
    <Variable VarIndex="1" Expression="LepPt" Label="LepPt" Title="LepPt" Unit="" Internal="LepPt" Type="F" Min="5.00075817e+00" Max="2.99984379e+01"/>
    <Variable VarIndex="2" Expression="LepChg" Label="LepChg" Title="LepChg" Unit="" Internal="LepChg" Type="F" Min="-1.00000000e+00" Max="1.00000000e+00"/>
    <Variable VarIndex="3" Expression="LepEta" Label="LepEta" Title="LepEta" Unit="" Internal="LepEta" Type="F" Min="-2.48411560e+00" Max="2.49880052e+00"/>
    <Variable VarIndex="4" Expression="Met" Label="Met" Title="Met" Unit="" Internal="Met" Type="F" Min="2.80020294e+02" Max="1.28947937e+03"/>
    <Variable VarIndex="5" Expression="mt" Label="mt" Title="mt" Unit="" Internal="mt" Type="F" Min="5.37815737e-04" Max="3.00527191e+02"/>
    <Variable VarIndex="6" Expression="HT20" Label="HT20" Title="HT20" Unit="" Internal="HT20" Type="F" Min="1.12003395e+02" Max="4.50487305e+03"/>
    <Variable VarIndex="7" Expression="NbLoose30" Label="NbLoose30" Title="NbLoose30" Unit="" Internal="NbLoose30" Type="F" Min="0.00000000e+00" Max="6.00000000e+00"/>
    <Variable VarIndex="8" Expression="Njet" Label="Njet" Title="Njet" Unit="" Internal="Njet" Type="F" Min="1.00000000e+00" Max="1.40000000e+01"/>
    <Variable VarIndex="9" Expression="JetHBpt" Label="JetHBpt" Title="JetHBpt" Unit="" Internal="JetHBpt" Type="F" Min="-9.99000000e+02" Max="1.37842883e+03"/>
    <Variable VarIndex="10" Expression="DrJetHBLep" Label="DrJetHBLep" Title="DrJetHBLep" Unit="" Internal="DrJetHBLep" Type="F" Min="-9.99000000e+02" Max="5.38026333e+00"/>
  </Variables>
  <Spectators NSpec="0"/>
  <Classes NClass="2">
    <Class Name="Signal" Index="0"/>
    <Class Name="Background" Index="1"/>
  </Classes>
  <Transformations NTransformations="1">
    <Transform Name="Normalize">
      <Selection>
        <Input NInputs="11">
          <Input Type="Variable" Label="Jet1Pt" Expression="Jet1Pt"/>
          <Input Type="Variable" Label="LepPt" Expression="LepPt"/>
          <Input Type="Variable" Label="LepChg" Expression="LepChg"/>
          <Input Type="Variable" Label="LepEta" Expression="LepEta"/>
          <Input Type="Variable" Label="Met" Expression="Met"/>
          <Input Type="Variable" Label="mt" Expression="mt"/>
          <Input Type="Variable" Label="HT20" Expression="HT20"/>
          <Input Type="Variable" Label="NbLoose30" Expression="NbLoose30"/>
          <Input Type="Variable" Label="Njet" Expression="Njet"/>
          <Input Type="Variable" Label="JetHBpt" Expression="JetHBpt"/>
          <Input Type="Variable" Label="DrJetHBLep" Expression="DrJetHBLep"/>
        </Input>
        <Output NOutputs="11">
          <Output Type="Variable" Label="Jet1Pt" Expression="Jet1Pt"/>
          <Output Type="Variable" Label="LepPt" Expression="LepPt"/>
          <Output Type="Variable" Label="LepChg" Expression="LepChg"/>
          <Output Type="Variable" Label="LepEta" Expression="LepEta"/>
          <Output Type="Variable" Label="Met" Expression="Met"/>
          <Output Type="Variable" Label="mt" Expression="mt"/>
          <Output Type="Variable" Label="HT20" Expression="HT20"/>
          <Output Type="Variable" Label="NbLoose30" Expression="NbLoose30"/>
          <Output Type="Variable" Label="Njet" Expression="Njet"/>
          <Output Type="Variable" Label="JetHBpt" Expression="JetHBpt"/>
          <Output Type="Variable" Label="DrJetHBLep" Expression="DrJetHBLep"/>
        </Output>
      </Selection>
      <Class ClassIndex="0">
        <Ranges>
          <Range Index="0" Min="1.1004869842529297e+02" Max="1.2779298095703125e+03"/>
          <Range Index="1" Min="5.0007581710815430e+00" Max="2.9949773788452148e+01"/>
          <Range Index="2" Min="-1.0000000000000000e+00" Max="1.0000000000000000e+00"/>
          <Range Index="3" Min="-2.4711689949035645e+00" Max="2.3791146278381348e+00"/>
          <Range Index="4" Min="2.8022933959960938e+02" Max="1.2514943847656250e+03"/>
          <Range Index="5" Min="5.5733408778905869e-02" Max="3.0052719116210938e+02"/>
          <Range Index="6" Min="1.1735253143310547e+02" Max="2.3474851074218750e+03"/>
          <Range Index="7" Min="0.0000000000000000e+00" Max="5.0000000000000000e+00"/>
          <Range Index="8" Min="1.0000000000000000e+00" Max="1.1000000000000000e+01"/>
          <Range Index="9" Min="2.0057344436645508e+01" Max="1.0570437011718750e+03"/>
          <Range Index="10" Min="6.2708742916584015e-05" Max="4.9576835632324219e+00"/>
        </Ranges>
      </Class>
      <Class ClassIndex="1">
        <Ranges>
          <Range Index="0" Min="1.1005755615234375e+02" Max="1.5727603759765625e+03"/>
          <Range Index="1" Min="5.0013527870178223e+00" Max="2.9998437881469727e+01"/>
          <Range Index="2" Min="-1.0000000000000000e+00" Max="1.0000000000000000e+00"/>
          <Range Index="3" Min="-2.4841156005859375e+00" Max="2.4988005161285400e+00"/>
          <Range Index="4" Min="2.8002029418945312e+02" Max="1.2894793701171875e+03"/>
          <Range Index="5" Min="5.3781573660671711e-04" Max="2.1579251098632812e+02"/>
          <Range Index="6" Min="1.1200339508056641e+02" Max="4.5048730468750000e+03"/>
          <Range Index="7" Min="0.0000000000000000e+00" Max="6.0000000000000000e+00"/>
          <Range Index="8" Min="1.0000000000000000e+00" Max="1.4000000000000000e+01"/>
          <Range Index="9" Min="-9.9900000000000000e+02" Max="1.3784288330078125e+03"/>
          <Range Index="10" Min="-9.9900000000000000e+02" Max="5.3802633285522461e+00"/>
        </Ranges>
      </Class>
      <Class ClassIndex="2">
        <Ranges>
          <Range Index="0" Min="1.1004869842529297e+02" Max="1.5727603759765625e+03"/>
          <Range Index="1" Min="5.0007581710815430e+00" Max="2.9998437881469727e+01"/>
          <Range Index="2" Min="-1.0000000000000000e+00" Max="1.0000000000000000e+00"/>
          <Range Index="3" Min="-2.4841156005859375e+00" Max="2.4988005161285400e+00"/>
          <Range Index="4" Min="2.8002029418945312e+02" Max="1.2894793701171875e+03"/>
          <Range Index="5" Min="5.3781573660671711e-04" Max="3.0052719116210938e+02"/>
          <Range Index="6" Min="1.1200339508056641e+02" Max="4.5048730468750000e+03"/>
          <Range Index="7" Min="0.0000000000000000e+00" Max="6.0000000000000000e+00"/>
          <Range Index="8" Min="1.0000000000000000e+00" Max="1.4000000000000000e+01"/>
          <Range Index="9" Min="-9.9900000000000000e+02" Max="1.3784288330078125e+03"/>
          <Range Index="10" Min="-9.9900000000000000e+02" Max="5.3802633285522461e+00"/>
        </Ranges>
      </Class>
    </Transform>
  </Transformations>
  <MVAPdfs/>
  <Weights>
    <Layout NLayers="5">
      <Layer Index="0" NNeurons="12">
        <Neuron NSynapses="11">
          9.0074676145812616e-01 2.0447456186037858e+00 4.1443413896719630e+00 -8.8345742878625386e-02 -2.2441046955936980e-01 -1.6581219244689471e+00 -3.2877210641840620e+00 1.9599275951771067e+00 5.1169683002663791e-01 1.6610243466132193e-01 -1.7504415619537792e+00 
        </Neuron>
        <Neuron NSynapses="11">
          1.6451629383530375e+00 -2.1349970511028427e+00 4.0735655481224625e-02 2.5116045072396082e-01 1.7681027904421593e+00 -7.6891088572623456e-01 5.5502584193055986e+00 1.7055337750213637e-01 2.6723424229314303e+00 2.8872466164577579e+00 -2.1188722542624232e+00 
        </Neuron>
        <Neuron NSynapses="11">
          9.3887964056494999e-01 -1.0431699583285181e+00 -5.0237353067136081e-01 2.6563944452744837e-01 -1.1431706934021337e+00 -3.0765263475489819e+00 -5.7536026440507571e-01 -1.8381414254838682e-01 -3.3943184288073375e-01 1.8516418296861146e+00 8.0035388809562424e-01 
        </Neuron>
        <Neuron NSynapses="11">
          -1.3269717645114738e+00 2.6577032674086762e+00 4.0198329286921525e-01 1.4410097796786836e-01 8.5284711496689720e+00 -1.4815462426163689e-01 -1.0211415838428946e+00 6.9668086115384675e-01 -2.0517157868186180e+00 -3.2418823919084533e-01 2.7736462505489601e-01 
        </Neuron>
        <Neuron NSynapses="11">
          5.1194414206284513e+00 -2.1100549461660992e-01 4.4280319241051478e+00 1.9630886656096704e+00 5.8167677113539575e-02 -2.6225478579107986e-01 -1.0822900449427737e+00 1.7441354952688994e+00 -8.9578957932136678e+00 4.1716990050848179e-01 -7.9559383295974930e+00 
        </Neuron>
        <Neuron NSynapses="11">
          -1.3701433094556748e+00 -2.3041920735691868e+00 -1.1582354118308150e+01 1.7556851038471144e+01 6.6511143057451549e-01 -2.6614941171023858e+00 8.7886157379086594e-01 -4.6199296687986291e-01 -1.5708019975249357e+00 2.9894960994622646e+00 -2.7478241891419382e+00 
        </Neuron>
        <Neuron NSynapses="11">
          -1.1600631775632233e+00 -1.4578149000705334e+00 9.3642836491280335e-01 -4.3994312906026920e+00 6.9298884044171360e-01 -1.5396082392299841e+00 1.6047624963902944e+00 1.0065689106296285e+00 6.4193660844624141e+00 7.9551629315272943e-01 2.3710905251811862e+00 
        </Neuron>
        <Neuron NSynapses="11">
          -6.3719241779106124e+00 -9.1270431707002464e-01 1.1069996003681415e+00 7.5321653396496180e-01 4.6262203243471224e-02 2.6556205515059990e+00 -5.8330496072774252e-01 -1.0306560100418332e+00 2.0298768174133976e+00 8.6694343027875231e-01 3.0752447584815354e+00 
        </Neuron>
        <Neuron NSynapses="11">
          -7.7871378637287378e+00 -2.2197039250350969e+00 6.8554746616622575e-01 -7.4105899099113293e-01 4.2962122122548085e-01 -2.3949019066271813e+00 -2.0359951516145181e+00 1.4717874923258942e+00 1.6514234849021459e+00 -8.7288735684097105e+00 -5.1317511131375939e+00 
        </Neuron>
        <Neuron NSynapses="11">
          -1.0783428663611185e+00 -2.6514952973570631e+00 -2.4235784930096580e+00 -2.4480239816883476e+00 -2.8368161734556585e-01 -2.5624070504165686e+00 -2.4213992589380928e+00 -1.0408062028598899e+00 2.5838134340938503e+00 -1.3148632208993456e+00 1.7239676313017749e+00 
        </Neuron>
        <Neuron NSynapses="11">
          -2.2812008960928698e+00 4.1801367761471769e-01 1.0053869174478416e+00 1.9884889743699674e+00 -1.7975360137191305e+00 8.5892189535825014e-01 -2.7281600011600526e-01 -9.6501700788027567e-01 -1.6065178850269690e+00 -2.2024365245046482e+00 -3.8810087426403377e+00 
        </Neuron>
        <Neuron NSynapses="11">
          -3.2075855523988855e-01 -1.9496115795957669e-01 1.9151488923198068e+00 2.3247101245558737e+00 -4.0318394279647890e-01 -1.1318917029783460e+00 -2.4976113169766181e-01 -1.8237295870214061e+00 -9.5377299532028559e-01 -9.2769869304883146e-01 -4.2106777794340751e+00 
        </Neuron>
      </Layer>
      <Layer Index="1" NNeurons="12">
        <Neuron NSynapses="11">
          3.8769672824672524e-01 -1.1956269308743765e+00 1.6751935651272603e+00 1.1623828656670527e+00 4.1538689649314682e+00 -1.9631086803402611e+00 -6.9037163176988559e-01 5.0155771710685491e+00 3.3248836198420264e+00 -9.9439354599218738e-02 -2.6949948527739083e+00 
        </Neuron>
        <Neuron NSynapses="11">
          -4.4241762188416645e-01 -1.4025885551910315e+00 2.8191370605941968e+00 2.2773184904589661e+00 -6.4754085318931509e-01 -6.4146284168798096e-01 -1.2171035537629875e+00 -2.5720557023262138e+00 8.1254501038669713e-01 3.3368440806705637e+00 -1.0922436592390723e+00 
        </Neuron>
        <Neuron NSynapses="11">
          1.9314387462666088e-01 1.3037924980400456e-01 1.4644850050136489e+00 -1.9208884242083977e+00 3.0956544059881015e+00 -1.4524679545762273e+00 7.8255724936320603e-01 -2.5047190350808013e-01 4.5798154678003780e+00 3.4271922715715828e+00 -2.1184634170283347e+00 
        </Neuron>
        <Neuron NSynapses="11">
          -1.3172106998110100e+00 -1.7205696385720121e-01 5.8223606405419677e+00 -3.2441830372920966e+00 -1.0694974994648561e+00 1.4672361058641021e+00 2.2323317488671850e+00 1.2975046276228011e+00 2.9382003217160761e+00 4.7201348667463421e+00 -1.8065151600288514e+00 
        </Neuron>
        <Neuron NSynapses="11">
          -3.5538047133069683e-01 1.5460090170580529e-01 2.8065740468058376e-01 -1.9576051253708053e+00 -3.7145706994317389e+00 1.0477801357863894e+00 2.5900658881875751e+00 -4.3387750096159268e+00 -9.5931444772678909e-01 -7.6183894817906461e-01 2.9158195206578790e+00 
        </Neuron>
        <Neuron NSynapses="11">
          2.4028421726335054e+00 -4.8536973302775388e-01 1.6968499769092923e-02 -2.5987256217910906e+00 6.7166855766603961e-01 1.3557253797354156e+00 -3.7568942204959077e-01 7.0988976885160326e-01 -2.7201448756711216e-01 -2.6428116712467227e+00 1.2867185698146599e+00 
        </Neuron>
        <Neuron NSynapses="11">
          1.8608935850303006e+00 -1.9227084783546082e+00 -1.9102917229750227e+00 1.8739726586263239e+00 8.0506065214215128e-01 -1.8854615552050089e+00 1.0890972801808927e+00 1.1756955196271870e+00 -2.5988364347268345e+00 -1.5815152447404304e+00 3.7730609671421718e+00 
        </Neuron>
        <Neuron NSynapses="11">
          1.0186012931584965e+00 4.3334983360510609e-01 -1.7260320400097925e-01 -2.1027095269269500e+00 -9.6670525819058328e-01 1.7236383990806683e+00 1.2082790381351334e+00 8.2794135952166892e-01 1.4981835171797653e-01 1.8963989421567904e+00 -1.7062007711637133e+00 
        </Neuron>
        <Neuron NSynapses="11">
          -2.6743156062406387e-01 -7.8950521665400564e-01 -2.5147549667580229e+00 4.8690927587267101e+00 2.9676556132336502e+00 -1.1281841093087979e+00 4.1080802456122729e+00 -6.5597089926782581e-01 -2.6325118765972930e+00 -4.5404497608518115e+00 3.2829352527977131e+00 
        </Neuron>
        <Neuron NSynapses="11">
          9.5331252486604456e-01 9.1862762715529989e-01 -2.3769454605192735e+00 2.5910356777572616e+00 -2.6741711194042819e+00 1.0601718395712152e+00 -1.2370484735324312e+00 -1.7682245509672703e-01 -2.8861498790799747e+00 -3.0746258026882911e+00 -3.7071548909343867e-02 
        </Neuron>
        <Neuron NSynapses="11">
          -2.6561039982595753e+00 -1.9786195697823326e+00 -4.6904521577239287e+00 1.9790659350177986e+00 -1.7562798874981800e+00 -1.8847977020015820e+00 9.6427595173772596e-01 -4.4057394810208728e-01 -1.3203620395959748e+00 -3.6682301499663779e+00 8.9600417329224691e-01 
        </Neuron>
        <Neuron NSynapses="11">
          1.9136447266340562e+00 1.3415405777613174e+00 -1.0021713072483178e+00 1.2670080850479856e-01 -1.2110392603754903e+00 -1.2644754632630757e+00 -2.4347988756130317e+00 -7.9132846358279629e-01 2.0301449804724017e-01 2.2921542765936964e+00 -1.2060095964965893e+00 
        </Neuron>
      </Layer>
      <Layer Index="2" NNeurons="12">
        <Neuron NSynapses="11">
          8.3950120966186537e-01 -2.3808828937956465e+00 -2.1145457769261302e+00 1.2556791505210101e+00 4.5218073245204310e-01 -2.6262093445889763e+00 -1.2445063276366051e+00 8.9195922511105141e-01 -1.4171317712194884e-01 7.6398095177133407e-01 -1.7199981203622670e+00 
        </Neuron>
        <Neuron NSynapses="11">
          -1.1569637151057661e-01 1.1229140101671939e+00 9.6202115063703408e-01 1.2403148444267231e+00 -3.5263527741054834e-01 2.1707589262361218e-01 -1.5725982660503784e-01 -1.0480992834970815e+00 -7.5052741026139602e-01 -1.5233699050074312e+00 -2.1476020448327375e+00 
        </Neuron>
        <Neuron NSynapses="11">
          -3.1504603007611292e+00 2.2838493784625440e+00 -1.8523779813652803e+00 5.1920629453969436e-01 -1.6020114874085052e+00 1.0619238349812850e-01 -1.7703387729520736e+00 -1.1340364911683483e+00 2.0900809454595874e+00 -3.8162723529122440e+00 1.1766819745744463e+00 
        </Neuron>
        <Neuron NSynapses="11">
          1.7904945136124124e+00 -3.5668540845630794e+00 -1.6427897851171074e+00 -4.2362073114371124e-01 -1.6022457445847624e+00 4.0548852117043604e-01 -1.5098343039458242e-01 1.6243226799147961e+00 -4.0680248853504972e+00 1.6576899496763406e+00 -2.3599912487716885e+00 
        </Neuron>
        <Neuron NSynapses="11">
          -2.2183445358756799e+00 -3.4676576869777551e+00 9.4704234981552482e-01 -2.6177198545560727e+00 -1.4459270459372691e+00 8.7861920506399394e-01 -3.1498288682795195e-01 -1.6619619857598131e+00 3.1425200766106687e+00 -1.6406192983932377e+00 1.4387061992739019e+00 
        </Neuron>
        <Neuron NSynapses="11">
          9.0679813381934682e-01 -7.2990843278275352e-01 -8.1675427071464390e-01 1.1098437721256454e-01 -1.2048297796884804e+00 4.6469525126167555e-01 1.9220646467616851e+00 1.4430927953393657e+00 1.5793101076819525e+00 -1.3317098988486811e+00 6.5225448391227692e-01 
        </Neuron>
        <Neuron NSynapses="11">
          -3.3130541546091168e+00 -1.5853013989560322e-01 -1.9185601044823055e+00 -2.7801805247065601e+00 -9.1036420482240310e-01 3.0216231429733742e-01 8.6697877017928704e-01 1.4180972797339890e+00 -6.2650096144126377e-01 2.7748296398700534e+00 -2.4440436998831081e+00 
        </Neuron>
        <Neuron NSynapses="11">
          2.0425225197194641e-01 3.4785414888813286e+00 -1.5934588234817884e+00 -1.6560458212703333e+00 -1.5842372934276043e+00 -1.4063516935407883e+00 -9.1602991190272387e-01 -2.6854037758267442e+00 -1.0851091292427046e+00 -1.0574348960944777e+00 2.9624143754240868e+00 
        </Neuron>
        <Neuron NSynapses="11">
          8.5129849722699391e-01 -9.3899885021037457e-04 -9.6600780226311933e-01 -3.1943305499321855e+00 -1.8687526696527470e+00 -2.3021665929934801e-01 -6.6303770181290078e-01 -1.9595925730608497e+00 6.1625188050402768e-01 -3.1823079422465721e+00 -2.1396757134950959e+00 
        </Neuron>
        <Neuron NSynapses="11">
          -3.5545026794250365e+00 7.2382913733263565e-01 -1.4319630409135100e+00 -2.4005157364150653e+00 -7.8721564913731634e-01 -2.1058329156423135e+00 -2.3209008769298070e+00 5.8193124917000050e-01 -2.3000686833726487e-02 -2.9955156031906296e+00 2.4517424481972636e+00 
        </Neuron>
        <Neuron NSynapses="11">
          4.0517056545492269e-01 -1.1261607818501658e+00 -3.3924916496260449e-02 2.3468267870440762e+00 1.0637662940018329e+00 8.8359018433542075e-02 -8.1803045193023505e-01 -6.5228467816398142e-02 -3.6684914385893563e+00 3.5868888214657888e+00 -2.5778665521487765e-01 
        </Neuron>
        <Neuron NSynapses="11">
          9.1492597763335789e-03 -2.1048753215852817e-01 7.6943631804252866e-01 1.7712180175790386e+00 -2.1991841532143610e+00 -2.6202677703196492e-01 3.6065092086345846e-01 -1.7643612634969783e+00 -1.8975609819718424e+00 -7.2609716316491257e-01 -8.1305535199289147e-01 
        </Neuron>
      </Layer>
      <Layer Index="3" NNeurons="12">
        <Neuron NSynapses="1">
          -1.4754012959071101e+00 
        </Neuron>
        <Neuron NSynapses="1">
          3.7695464203020608e+00 
        </Neuron>
        <Neuron NSynapses="1">
          1.6950875867914399e+00 
        </Neuron>
        <Neuron NSynapses="1">
          -2.1366542575005583e+00 
        </Neuron>
        <Neuron NSynapses="1">
          1.1761527491548265e+00 
        </Neuron>
        <Neuron NSynapses="1">
          -3.7423251357395371e-01 
        </Neuron>
        <Neuron NSynapses="1">
          -2.2710737634876912e-01 
        </Neuron>
        <Neuron NSynapses="1">
          -2.5346164760259375e+00 
        </Neuron>
        <Neuron NSynapses="1">
          1.7666106934289985e+00 
        </Neuron>
        <Neuron NSynapses="1">
          -1.8087795837207434e+00 
        </Neuron>
        <Neuron NSynapses="1">
          1.9940319673119429e+00 
        </Neuron>
        <Neuron NSynapses="1">
          -1.5121058202370537e-02 
        </Neuron>
      </Layer>
      <Layer Index="4" NNeurons="1">
        <Neuron NSynapses="0"/>
      </Layer>
    </Layout>
  </Weights>
</MethodSetup>
