<?xml version="1.0"?>
<MethodSetup Method="MLP::MLP_ANN_N1_NC600">
  <GeneralInfo>
    <Info name="TMVA Release" value="4.2.1 [262657]"/>
    <Info name="ROOT Release" value="6.06/01 [394753]"/>
    <Info name="Creator" value="brucms16"/>
    <Info name="Date" value="Wed Sep  7 02:11:39 2016"/>
    <Info name="Host" value="Linux vocms0315.cern.ch 2.6.32-573.26.1.el6.x86_64 #1 SMP Wed May 4 09:23:05 CEST 2016 x86_64 x86_64 x86_64 GNU/Linux"/>
    <Info name="Dir" value="/home/t3cms/brucms16/CMSSW_8_0_14/src/UserCode/SkeletonAnalysis/macros"/>
    <Info name="Training events" value="15056"/>
    <Info name="TrainingTime" value="2.93525324e+02"/>
    <Info name="AnalysisType" value="Classification"/>
  </GeneralInfo>
  <Options>
    <Option name="NCycles" modified="Yes">600</Option>
    <Option name="HiddenLayers" modified="Yes">N,N,N+1</Option>
    <Option name="NeuronType" modified="No">sigmoid</Option>
    <Option name="RandomSeed" modified="No">1</Option>
    <Option name="EstimatorType" modified="No">CE</Option>
    <Option name="NeuronInputType" modified="No">sum</Option>
    <Option name="V" modified="Yes">False</Option>
    <Option name="VerbosityLevel" modified="No">Default</Option>
    <Option name="VarTransform" modified="Yes">Norm</Option>
    <Option name="H" modified="Yes">False</Option>
    <Option name="CreateMVAPdfs" modified="No">False</Option>
    <Option name="IgnoreNegWeightsInTraining" modified="No">False</Option>
    <Option name="TrainingMethod" modified="No">BP</Option>
    <Option name="LearningRate" modified="Yes">9.000000e-02</Option>
    <Option name="DecayRate" modified="Yes">1.000000e-02</Option>
    <Option name="TestRate" modified="No">10</Option>
    <Option name="EpochMonitoring" modified="No">False</Option>
    <Option name="Sampling" modified="No">1.000000e+00</Option>
    <Option name="SamplingEpoch" modified="No">1.000000e+00</Option>
    <Option name="SamplingImportance" modified="No">1.000000e+00</Option>
    <Option name="SamplingTraining" modified="No">True</Option>
    <Option name="SamplingTesting" modified="No">False</Option>
    <Option name="ResetStep" modified="No">50</Option>
    <Option name="Tau" modified="No">3.000000e+00</Option>
    <Option name="BPMode" modified="No">sequential</Option>
    <Option name="BatchSize" modified="No">-1</Option>
    <Option name="ConvergenceImprove" modified="No">1.000000e-30</Option>
    <Option name="ConvergenceTests" modified="No">-1</Option>
    <Option name="UseRegulator" modified="No">False</Option>
    <Option name="UpdateLimit" modified="No">10000</Option>
    <Option name="CalculateErrors" modified="No">False</Option>
    <Option name="WeightRange" modified="No">1.000000e+00</Option>
  </Options>
  <Variables NVar="11">
    <Variable VarIndex="0" Expression="Jet1Pt" Label="Jet1Pt" Title="Jet1Pt" Unit="" Internal="Jet1Pt" Type="F" Min="1.10048698e+02" Max="1.57276038e+03"/>
    <Variable VarIndex="1" Expression="LepPt" Label="LepPt" Title="LepPt" Unit="" Internal="LepPt" Type="F" Min="5.00075817e+00" Max="2.99984379e+01"/>
    <Variable VarIndex="2" Expression="LepChg" Label="LepChg" Title="LepChg" Unit="" Internal="LepChg" Type="F" Min="-1.00000000e+00" Max="1.00000000e+00"/>
    <Variable VarIndex="3" Expression="LepEta" Label="LepEta" Title="LepEta" Unit="" Internal="LepEta" Type="F" Min="-2.48411560e+00" Max="2.49880052e+00"/>
    <Variable VarIndex="4" Expression="Met" Label="Met" Title="Met" Unit="" Internal="Met" Type="F" Min="2.80020294e+02" Max="1.28947937e+03"/>
    <Variable VarIndex="5" Expression="mt" Label="mt" Title="mt" Unit="" Internal="mt" Type="F" Min="5.37815737e-04" Max="3.00527191e+02"/>
    <Variable VarIndex="6" Expression="HT20" Label="HT20" Title="HT20" Unit="" Internal="HT20" Type="F" Min="1.12003395e+02" Max="4.50487305e+03"/>
    <Variable VarIndex="7" Expression="NbLoose30" Label="NbLoose30" Title="NbLoose30" Unit="" Internal="NbLoose30" Type="F" Min="0.00000000e+00" Max="6.00000000e+00"/>
    <Variable VarIndex="8" Expression="Njet" Label="Njet" Title="Njet" Unit="" Internal="Njet" Type="F" Min="1.00000000e+00" Max="1.40000000e+01"/>
    <Variable VarIndex="9" Expression="JetHBpt" Label="JetHBpt" Title="JetHBpt" Unit="" Internal="JetHBpt" Type="F" Min="-9.99000000e+02" Max="1.37842883e+03"/>
    <Variable VarIndex="10" Expression="DrJetHBLep" Label="DrJetHBLep" Title="DrJetHBLep" Unit="" Internal="DrJetHBLep" Type="F" Min="-9.99000000e+02" Max="5.38026333e+00"/>
  </Variables>
  <Spectators NSpec="0"/>
  <Classes NClass="2">
    <Class Name="Signal" Index="0"/>
    <Class Name="Background" Index="1"/>
  </Classes>
  <Transformations NTransformations="1">
    <Transform Name="Normalize">
      <Selection>
        <Input NInputs="11">
          <Input Type="Variable" Label="Jet1Pt" Expression="Jet1Pt"/>
          <Input Type="Variable" Label="LepPt" Expression="LepPt"/>
          <Input Type="Variable" Label="LepChg" Expression="LepChg"/>
          <Input Type="Variable" Label="LepEta" Expression="LepEta"/>
          <Input Type="Variable" Label="Met" Expression="Met"/>
          <Input Type="Variable" Label="mt" Expression="mt"/>
          <Input Type="Variable" Label="HT20" Expression="HT20"/>
          <Input Type="Variable" Label="NbLoose30" Expression="NbLoose30"/>
          <Input Type="Variable" Label="Njet" Expression="Njet"/>
          <Input Type="Variable" Label="JetHBpt" Expression="JetHBpt"/>
          <Input Type="Variable" Label="DrJetHBLep" Expression="DrJetHBLep"/>
        </Input>
        <Output NOutputs="11">
          <Output Type="Variable" Label="Jet1Pt" Expression="Jet1Pt"/>
          <Output Type="Variable" Label="LepPt" Expression="LepPt"/>
          <Output Type="Variable" Label="LepChg" Expression="LepChg"/>
          <Output Type="Variable" Label="LepEta" Expression="LepEta"/>
          <Output Type="Variable" Label="Met" Expression="Met"/>
          <Output Type="Variable" Label="mt" Expression="mt"/>
          <Output Type="Variable" Label="HT20" Expression="HT20"/>
          <Output Type="Variable" Label="NbLoose30" Expression="NbLoose30"/>
          <Output Type="Variable" Label="Njet" Expression="Njet"/>
          <Output Type="Variable" Label="JetHBpt" Expression="JetHBpt"/>
          <Output Type="Variable" Label="DrJetHBLep" Expression="DrJetHBLep"/>
        </Output>
      </Selection>
      <Class ClassIndex="0">
        <Ranges>
          <Range Index="0" Min="1.1004869842529297e+02" Max="1.2779298095703125e+03"/>
          <Range Index="1" Min="5.0007581710815430e+00" Max="2.9949773788452148e+01"/>
          <Range Index="2" Min="-1.0000000000000000e+00" Max="1.0000000000000000e+00"/>
          <Range Index="3" Min="-2.4711689949035645e+00" Max="2.3791146278381348e+00"/>
          <Range Index="4" Min="2.8022933959960938e+02" Max="1.2514943847656250e+03"/>
          <Range Index="5" Min="5.5733408778905869e-02" Max="3.0052719116210938e+02"/>
          <Range Index="6" Min="1.1735253143310547e+02" Max="2.3474851074218750e+03"/>
          <Range Index="7" Min="0.0000000000000000e+00" Max="5.0000000000000000e+00"/>
          <Range Index="8" Min="1.0000000000000000e+00" Max="1.1000000000000000e+01"/>
          <Range Index="9" Min="2.0057344436645508e+01" Max="1.0570437011718750e+03"/>
          <Range Index="10" Min="6.2708742916584015e-05" Max="4.9576835632324219e+00"/>
        </Ranges>
      </Class>
      <Class ClassIndex="1">
        <Ranges>
          <Range Index="0" Min="1.1005755615234375e+02" Max="1.5727603759765625e+03"/>
          <Range Index="1" Min="5.0013527870178223e+00" Max="2.9998437881469727e+01"/>
          <Range Index="2" Min="-1.0000000000000000e+00" Max="1.0000000000000000e+00"/>
          <Range Index="3" Min="-2.4841156005859375e+00" Max="2.4988005161285400e+00"/>
          <Range Index="4" Min="2.8002029418945312e+02" Max="1.2894793701171875e+03"/>
          <Range Index="5" Min="5.3781573660671711e-04" Max="2.1579251098632812e+02"/>
          <Range Index="6" Min="1.1200339508056641e+02" Max="4.5048730468750000e+03"/>
          <Range Index="7" Min="0.0000000000000000e+00" Max="6.0000000000000000e+00"/>
          <Range Index="8" Min="1.0000000000000000e+00" Max="1.4000000000000000e+01"/>
          <Range Index="9" Min="-9.9900000000000000e+02" Max="1.3784288330078125e+03"/>
          <Range Index="10" Min="-9.9900000000000000e+02" Max="5.3802633285522461e+00"/>
        </Ranges>
      </Class>
      <Class ClassIndex="2">
        <Ranges>
          <Range Index="0" Min="1.1004869842529297e+02" Max="1.5727603759765625e+03"/>
          <Range Index="1" Min="5.0007581710815430e+00" Max="2.9998437881469727e+01"/>
          <Range Index="2" Min="-1.0000000000000000e+00" Max="1.0000000000000000e+00"/>
          <Range Index="3" Min="-2.4841156005859375e+00" Max="2.4988005161285400e+00"/>
          <Range Index="4" Min="2.8002029418945312e+02" Max="1.2894793701171875e+03"/>
          <Range Index="5" Min="5.3781573660671711e-04" Max="3.0052719116210938e+02"/>
          <Range Index="6" Min="1.1200339508056641e+02" Max="4.5048730468750000e+03"/>
          <Range Index="7" Min="0.0000000000000000e+00" Max="6.0000000000000000e+00"/>
          <Range Index="8" Min="1.0000000000000000e+00" Max="1.4000000000000000e+01"/>
          <Range Index="9" Min="-9.9900000000000000e+02" Max="1.3784288330078125e+03"/>
          <Range Index="10" Min="-9.9900000000000000e+02" Max="5.3802633285522461e+00"/>
        </Ranges>
      </Class>
    </Transform>
  </Transformations>
  <MVAPdfs/>
  <Weights>
    <Layout NLayers="5">
      <Layer Index="0" NNeurons="12">
        <Neuron NSynapses="11">
          -1.9510554413320041e-01 -1.0290168276559215e-01 -1.0632097893195630e-01 -2.1378961739636697e+00 -4.1478921129620590e+00 2.1012842587693426e-01 1.0905104605299254e+00 2.2436257719904571e+00 -4.0416760842093682e+00 -1.9245405660181378e-01 -3.4563971074135718e+00 
        </Neuron>
        <Neuron NSynapses="11">
          -2.5514327771208212e+00 3.5654210008581183e-01 4.6057771103781904e-02 -2.5577816261671922e+00 1.8036199724106865e+00 1.3485820281916943e+00 1.8932316218090568e+00 2.3235056730685461e-01 4.1464580400418711e+00 5.6830726034520229e-01 -1.0059487779154805e-01 
        </Neuron>
        <Neuron NSynapses="11">
          8.3515698783766301e-01 1.0851703031433252e-01 -1.1674940483729146e-01 -1.9756263348293956e+00 2.7640531459066726e+00 -1.2040301142936025e+00 -3.5876506438218256e+00 -1.8575853631619929e-01 -6.9171810821367119e-01 -5.5676641340343946e-01 -5.4522568295960017e-01 
        </Neuron>
        <Neuron NSynapses="11">
          1.1621688664784984e+00 6.0781326408865377e-01 3.2501199159081832e-02 6.9769990817937833e-01 2.5992544946368885e+00 -1.7650910244305775e+00 3.2918564527555860e-01 1.1475130140328320e+00 -8.4475070970616062e-01 7.1998370064157662e+00 -2.8048751298373760e+00 
        </Neuron>
        <Neuron NSynapses="11">
          8.3699220391928932e+00 -1.1237106426703740e+00 8.8919091706699867e+00 -1.6468826574554210e+00 -2.1049695580590537e+00 3.4097511379461283e+00 5.2376729086741616e+00 5.0025988497738905e-01 -7.9830772235210801e-01 -8.5727874799138168e-02 -9.3493339191561564e-01 
        </Neuron>
        <Neuron NSynapses="11">
          7.0025171073193793e-01 -1.7326107561637443e+01 7.8686815888152611e-03 2.3590832544469804e+00 1.6994422130743354e+00 -4.5228897433216106e+00 1.4673098967406493e+00 -5.4914927735535535e-01 3.9755038472460713e+00 4.5763483448070202e-01 3.0362838954792033e+00 
        </Neuron>
        <Neuron NSynapses="11">
          -4.8527480356805039e+00 2.6068546134670965e+00 -5.3422121591806402e+00 -1.6872921537656649e+00 -4.3264371516132855e-02 1.6707794552518349e-01 -1.0831666413080812e+00 1.1788544086768398e+00 2.0374807242752300e+00 2.0626780886259195e+00 -7.3046312829946913e-01 
        </Neuron>
        <Neuron NSynapses="11">
          -3.9895911756180040e+00 -9.1280871274521291e-01 -4.5915274464835720e-01 5.1072912193556625e+00 2.7556688106501097e+00 1.6555230063217830e+00 -1.9240621376119651e+00 -1.1007403007654752e+00 6.4973325270677854e-02 1.5143215294403081e+00 6.9524418662599341e-01 
        </Neuron>
        <Neuron NSynapses="11">
          -2.5095915280241456e+00 3.3829219625358709e-01 3.1705484199933145e+00 2.5120441692909194e+00 -1.5244264062575938e-01 -2.9348637178241042e+00 -4.4515232292026994e+00 1.7440388722167159e+00 -1.5530680652844784e+00 -5.4895474329474325e+00 -6.7173900216473950e+00 
        </Neuron>
        <Neuron NSynapses="11">
          -3.6623919756074210e+00 4.4809074740843313e-01 -5.8959982727210241e+00 7.7406597227433438e-01 9.4344143099017430e-01 -2.0807878166996061e+00 3.4136337147462013e+00 -1.0960771039039967e+00 -3.5076171066846062e+00 -7.8071220501387417e-01 2.7426435113804404e-01 
        </Neuron>
        <Neuron NSynapses="11">
          -5.7690262247111435e-01 -2.2833424826500748e+00 8.9236687811046578e-01 4.9995486931554683e-01 -2.4907206543101239e-02 1.3912629769820013e+00 2.8109557904204380e-01 -4.6890522985689387e-01 -1.0080411273320557e-01 -2.5878967443002536e+00 -3.8208939588385729e+00 
        </Neuron>
        <Neuron NSynapses="11">
          1.2975933210546089e+00 -2.9538681670514277e+00 1.8264650544246335e+00 7.5745850874434206e-01 1.5832169312929081e+00 -8.3926181665916710e-01 -6.7316263373846533e-03 -1.3124492112517463e+00 8.9081173668467395e-01 -1.1754740384144617e+00 -3.8812964696198407e+00 
        </Neuron>
      </Layer>
      <Layer Index="1" NNeurons="12">
        <Neuron NSynapses="11">
          -2.7338311484079947e+00 -1.4948624985417731e+00 -1.3640731113356839e+00 1.9102652936528395e+00 2.0792375862793238e+00 -2.8860892292777987e+00 -1.4138145583750277e+00 6.1997705430023942e+00 6.2876104550120901e+00 -1.8802191853411812e+00 -2.8566686813550444e+00 
        </Neuron>
        <Neuron NSynapses="11">
          1.0420780968675118e+00 -7.0547817613149721e-01 1.6559177037062400e+00 -9.3884637695846163e-01 -4.2968232329231855e+00 -8.4637315274195402e-01 -6.1293479168721865e-01 -4.8013763395230100e+00 -1.6359520569234580e+00 2.2735306641513051e+00 -6.5379240349322032e-01 
        </Neuron>
        <Neuron NSynapses="11">
          -2.6290131818160484e-01 -1.1387969160930554e-01 5.4846759784822263e-01 2.9633776561300129e+00 3.9002586608024856e+00 -3.2415890414508981e+00 4.5655493393435892e-01 1.4455847482580140e+00 3.1851978340225542e+00 -2.6206339810820869e+00 3.9399539770003933e-01 
        </Neuron>
        <Neuron NSynapses="11">
          -2.0345145338641411e+00 -9.6098768876399443e-01 1.8232676717532075e+00 2.1636364622443813e+00 -1.5248383587481931e+00 2.4777983984715872e+00 1.1717324266274900e+00 -1.8185810565421727e+00 4.2858356126229653e+00 4.2428146530171000e+00 -3.6798966059556015e+00 
        </Neuron>
        <Neuron NSynapses="11">
          6.9957942908329118e-01 -4.1089191563995620e-01 1.7128097811502971e+00 -2.1881776064675114e+00 -1.9623912732963833e-01 -5.2974818722189990e-04 2.6664204143127677e+00 -1.0489920366157230e+00 -1.3590508542482003e+00 -1.2502361463072544e+00 1.0611893432895987e+00 
        </Neuron>
        <Neuron NSynapses="11">
          5.7607546773646243e+00 -7.0524165810326145e-01 -8.3818169911615814e-01 -8.6166249120491567e-01 -2.5009212684744242e-01 1.5634268023476070e+00 1.6181571697749040e+00 -1.8419354857328440e+00 8.4913235665690312e-02 -3.6166137801822908e+00 -3.5557634346472711e-01 
        </Neuron>
        <Neuron NSynapses="11">
          2.0681519884564934e+00 -1.3048231936302355e+00 -4.0805612958595888e-01 3.3256389863930319e-01 3.6798279855385703e+00 -1.2293377723259273e+00 -5.3286234135171107e-01 3.1510333862213823e-02 1.9844673362972418e+00 2.9140055974739032e-01 9.7309814712069065e-01 
        </Neuron>
        <Neuron NSynapses="11">
          9.4323533027837470e-01 6.1589338867020349e-01 -9.4646987422623480e-02 -2.0500074269570061e+00 -9.8030947487802578e-01 1.9078616294677360e+00 1.0958112484811950e+00 7.5803764120775796e-01 -1.7277921772980789e-01 2.1046877521949665e+00 -1.7230628199554310e+00 
        </Neuron>
        <Neuron NSynapses="11">
          -4.1228160279604840e+00 9.1962595083185672e-01 -1.3881820023826330e+00 -2.4327434191241180e+00 3.3326273539426383e+00 -4.9373718821319418e-01 3.8026152868825656e+00 3.7932021934827204e-01 -4.1234587815113430e+00 -2.3743951140677957e-01 2.0067282392380567e-01 
        </Neuron>
        <Neuron NSynapses="11">
          -2.3760474338293238e+00 2.5547653660548053e+00 1.9134233198144170e+00 5.0959421239684088e-01 -3.0916496947003549e+00 1.1840829029584088e+00 6.3586156250263415e-01 -1.5394201521417807e+00 -4.0284851502025409e+00 -4.0671888372833394e+00 -2.1372917414151199e-01 
        </Neuron>
        <Neuron NSynapses="11">
          -2.6715617289548264e+00 -2.3004531271509312e+00 -2.1162229791891658e+00 -8.6010277667828194e-01 -4.4324369416101819e+00 -1.5407132609372027e+00 4.1935318996389652e+00 -2.2451247001579451e+00 -2.4794667423724519e+00 -1.9029893242066651e+00 -5.1893982770262137e-01 
        </Neuron>
        <Neuron NSynapses="11">
          2.4616803037160722e+00 1.2603603159368766e+00 -6.7972458211479081e-01 -1.4549774604043195e+00 -1.0053827979665428e+00 -1.9562177730369257e+00 -1.6513128358283922e+00 6.2241358264322744e-01 -8.2668023380761013e-01 5.5722595772825556e-01 -4.1435453488107526e-01 
        </Neuron>
      </Layer>
      <Layer Index="2" NNeurons="12">
        <Neuron NSynapses="12">
          -5.7162944901558332e-01 -2.8052272777350229e+00 -5.0868110631546255e+00 1.3576661717212521e-01 2.6721932603050984e+00 -3.1833054625254995e+00 -3.0883346402603209e+00 6.0716285395228908e-01 -7.6552922239218654e-02 9.6538195834525364e-01 2.1482329822437196e-01 -1.6533272986401319e+00 
        </Neuron>
        <Neuron NSynapses="12">
          1.1593300166688476e+00 1.2961856828333533e+00 6.0495616600151136e-01 -5.4763879714887020e-01 -3.3776976840732870e-01 -1.0627603465145543e+00 -2.2073378049318189e+00 -5.4078531519852946e-01 -1.7428868239228212e+00 -1.3038118661585147e+00 -2.4417934334294582e+00 1.1583835870067920e+00 
        </Neuron>
        <Neuron NSynapses="12">
          -2.2543611078596442e+00 1.2518096653867892e+00 -2.1678386375639014e+00 7.9136079981571428e-01 5.4121037955400708e-01 -1.8638112334164206e-01 6.9165283591657523e-01 -2.1019358780000013e+00 -4.4689953572509468e-02 1.0668562818733409e+00 -2.5301037905839854e+00 -2.6543666217460444e+00 
        </Neuron>
        <Neuron NSynapses="12">
          -2.2118568458871071e+00 -1.1758272500176126e+00 2.9068085485442601e+00 -1.0839883871374407e+00 8.4541268804588454e-01 -7.9120117022954628e-01 -1.3412906218795229e+00 -1.7570457240442159e+00 -1.6629575468099922e+00 -1.2840292329764207e+00 1.4657488531128033e+00 -1.4596260930728326e+00 
        </Neuron>
        <Neuron NSynapses="12">
          -2.6343544922622719e+00 3.6616224677372172e-01 1.5314261546420882e+00 -1.9344647236082939e+00 1.4799028529337370e+00 -2.5436826642184038e+00 6.8971972677719728e-01 8.0913032309598909e-01 -1.6889893193732299e+00 -5.7184648887464384e-01 6.6055587951768402e-01 -2.5989347821887896e+00 
        </Neuron>
        <Neuron NSynapses="12">
          4.4304227695945297e-01 2.2310878113160735e+00 8.5684987202573315e-01 2.0727392695384497e+00 -1.8533467272029518e+00 1.3719348266348252e+00 -1.9544760407735102e+00 6.5563493525241590e-01 -1.7030490404769931e+00 -1.8961315683367059e+00 -2.2501363520159304e-01 1.2483136067721190e+00 
        </Neuron>
        <Neuron NSynapses="12">
          4.0108833335613675e-01 -6.7454811719470487e-02 -2.0186950434962708e-01 -3.5593898419858522e-01 -4.2276555337430546e+00 2.9594621612256500e-01 6.6872077431060117e-01 -1.6187516058260278e+00 -9.6608587185160189e-01 -1.7441807744441147e+00 -2.4564956746063213e+00 -1.6072263290003308e-01 
        </Neuron>
        <Neuron NSynapses="12">
          -8.9091994231503369e-01 -2.7853864337648209e+00 3.3084584356956541e+00 9.5895742604763723e-01 -7.5700134666322000e-02 -1.3902856669868655e+00 -4.0097971440543589e-01 -1.4528964011403402e+00 -1.8918906822008765e+00 8.8736335905348263e-01 1.2916377562425583e+00 -2.1882153611406117e+00 
        </Neuron>
        <Neuron NSynapses="12">
          -1.4861027951690872e-01 -4.0140794900746846e+00 -4.4509868658880913e-01 -2.2249342770105502e+00 7.3948867052899547e-02 -3.4788245100559414e+00 -2.2167448845122508e+00 -6.6371488514043342e-01 -1.5338113990843902e+00 -1.6613996113300327e+00 2.7808968731558776e+00 -1.6248876254039499e+00 
        </Neuron>
        <Neuron NSynapses="12">
          -1.9031045564227074e+00 2.5487387730682265e+00 2.1382868780076801e-02 7.6405846062568494e-01 -2.9955715562370111e-01 2.3123676811861698e+00 3.0810318593741259e+00 6.8637515876218791e-01 -8.1024438357315420e-01 -8.9188132562591749e-01 -1.2055319440975363e+00 9.9970923087988328e-01 
        </Neuron>
        <Neuron NSynapses="12">
          1.7348492855747741e-01 -2.0523163067636507e+00 -5.7080991662221559e-01 -3.8427182472591614e-01 4.3844542119060181e-01 -2.1260930823741959e+00 5.6428983963793000e-01 7.1514526739784989e-01 -2.7952354799135724e+00 -2.0141176831162630e-01 -2.2505831470382764e+00 3.5543661454785164e-01 
        </Neuron>
        <Neuron NSynapses="12">
          3.7588744951647307e-01 -5.6180963308174336e-01 1.5437573731389874e-02 -9.1964853117296064e-01 -4.3012141647027291e-01 1.7877670417024603e+00 -6.9459234343883036e-01 -1.2457398008796334e+00 9.7769859944431742e-02 -1.9895123056259971e+00 -1.1324806186722112e+00 1.4168633797831238e+00 
        </Neuron>
      </Layer>
      <Layer Index="3" NNeurons="13">
        <Neuron NSynapses="1">
          -2.1554602197193118e+00 
        </Neuron>
        <Neuron NSynapses="1">
          -3.3391088676383704e+00 
        </Neuron>
        <Neuron NSynapses="1">
          1.8154632616469202e+00 
        </Neuron>
        <Neuron NSynapses="1">
          -1.1570376565283520e+00 
        </Neuron>
        <Neuron NSynapses="1">
          1.5271464868895879e+00 
        </Neuron>
        <Neuron NSynapses="1">
          -3.2901291921141103e+00 
        </Neuron>
        <Neuron NSynapses="1">
          -2.5381107326827901e+00 
        </Neuron>
        <Neuron NSynapses="1">
          -6.5533507029525362e-01 
        </Neuron>
        <Neuron NSynapses="1">
          -5.1043858970707312e-01 
        </Neuron>
        <Neuron NSynapses="1">
          1.2902863008124785e+00 
        </Neuron>
        <Neuron NSynapses="1">
          1.9009210001468750e+00 
        </Neuron>
        <Neuron NSynapses="1">
          -1.7203062923847685e+00 
        </Neuron>
        <Neuron NSynapses="1">
          8.4252543825844739e-02 
        </Neuron>
      </Layer>
      <Layer Index="4" NNeurons="1">
        <Neuron NSynapses="0"/>
      </Layer>
    </Layout>
  </Weights>
</MethodSetup>
