<?xml version="1.0"?>
<MethodSetup Method="MLP::MLP_ANN_N3_NC700">
  <GeneralInfo>
    <Info name="TMVA Release" value="4.2.1 [262657]"/>
    <Info name="ROOT Release" value="6.06/01 [394753]"/>
    <Info name="Creator" value="brucms16"/>
    <Info name="Date" value="Wed Sep  7 03:46:56 2016"/>
    <Info name="Host" value="Linux vocms0315.cern.ch 2.6.32-573.26.1.el6.x86_64 #1 SMP Wed May 4 09:23:05 CEST 2016 x86_64 x86_64 x86_64 GNU/Linux"/>
    <Info name="Dir" value="/home/t3cms/brucms16/CMSSW_8_0_14/src/UserCode/SkeletonAnalysis/macros"/>
    <Info name="Training events" value="15056"/>
    <Info name="TrainingTime" value="3.59230960e+02"/>
    <Info name="AnalysisType" value="Classification"/>
  </GeneralInfo>
  <Options>
    <Option name="NCycles" modified="Yes">700</Option>
    <Option name="HiddenLayers" modified="Yes">N,N,N+3</Option>
    <Option name="NeuronType" modified="No">sigmoid</Option>
    <Option name="RandomSeed" modified="No">1</Option>
    <Option name="EstimatorType" modified="No">CE</Option>
    <Option name="NeuronInputType" modified="No">sum</Option>
    <Option name="V" modified="Yes">False</Option>
    <Option name="VerbosityLevel" modified="No">Default</Option>
    <Option name="VarTransform" modified="Yes">Norm</Option>
    <Option name="H" modified="Yes">False</Option>
    <Option name="CreateMVAPdfs" modified="No">False</Option>
    <Option name="IgnoreNegWeightsInTraining" modified="No">False</Option>
    <Option name="TrainingMethod" modified="No">BP</Option>
    <Option name="LearningRate" modified="Yes">9.000000e-02</Option>
    <Option name="DecayRate" modified="Yes">1.000000e-02</Option>
    <Option name="TestRate" modified="No">10</Option>
    <Option name="EpochMonitoring" modified="No">False</Option>
    <Option name="Sampling" modified="No">1.000000e+00</Option>
    <Option name="SamplingEpoch" modified="No">1.000000e+00</Option>
    <Option name="SamplingImportance" modified="No">1.000000e+00</Option>
    <Option name="SamplingTraining" modified="No">True</Option>
    <Option name="SamplingTesting" modified="No">False</Option>
    <Option name="ResetStep" modified="No">50</Option>
    <Option name="Tau" modified="No">3.000000e+00</Option>
    <Option name="BPMode" modified="No">sequential</Option>
    <Option name="BatchSize" modified="No">-1</Option>
    <Option name="ConvergenceImprove" modified="No">1.000000e-30</Option>
    <Option name="ConvergenceTests" modified="No">-1</Option>
    <Option name="UseRegulator" modified="No">False</Option>
    <Option name="UpdateLimit" modified="No">10000</Option>
    <Option name="CalculateErrors" modified="No">False</Option>
    <Option name="WeightRange" modified="No">1.000000e+00</Option>
  </Options>
  <Variables NVar="11">
    <Variable VarIndex="0" Expression="Jet1Pt" Label="Jet1Pt" Title="Jet1Pt" Unit="" Internal="Jet1Pt" Type="F" Min="1.10048698e+02" Max="1.57276038e+03"/>
    <Variable VarIndex="1" Expression="LepPt" Label="LepPt" Title="LepPt" Unit="" Internal="LepPt" Type="F" Min="5.00075817e+00" Max="2.99984379e+01"/>
    <Variable VarIndex="2" Expression="LepChg" Label="LepChg" Title="LepChg" Unit="" Internal="LepChg" Type="F" Min="-1.00000000e+00" Max="1.00000000e+00"/>
    <Variable VarIndex="3" Expression="LepEta" Label="LepEta" Title="LepEta" Unit="" Internal="LepEta" Type="F" Min="-2.48411560e+00" Max="2.49880052e+00"/>
    <Variable VarIndex="4" Expression="Met" Label="Met" Title="Met" Unit="" Internal="Met" Type="F" Min="2.80020294e+02" Max="1.28947937e+03"/>
    <Variable VarIndex="5" Expression="mt" Label="mt" Title="mt" Unit="" Internal="mt" Type="F" Min="5.37815737e-04" Max="3.00527191e+02"/>
    <Variable VarIndex="6" Expression="HT20" Label="HT20" Title="HT20" Unit="" Internal="HT20" Type="F" Min="1.12003395e+02" Max="4.50487305e+03"/>
    <Variable VarIndex="7" Expression="NbLoose30" Label="NbLoose30" Title="NbLoose30" Unit="" Internal="NbLoose30" Type="F" Min="0.00000000e+00" Max="6.00000000e+00"/>
    <Variable VarIndex="8" Expression="Njet" Label="Njet" Title="Njet" Unit="" Internal="Njet" Type="F" Min="1.00000000e+00" Max="1.40000000e+01"/>
    <Variable VarIndex="9" Expression="JetHBpt" Label="JetHBpt" Title="JetHBpt" Unit="" Internal="JetHBpt" Type="F" Min="-9.99000000e+02" Max="1.37842883e+03"/>
    <Variable VarIndex="10" Expression="DrJetHBLep" Label="DrJetHBLep" Title="DrJetHBLep" Unit="" Internal="DrJetHBLep" Type="F" Min="-9.99000000e+02" Max="5.38026333e+00"/>
  </Variables>
  <Spectators NSpec="0"/>
  <Classes NClass="2">
    <Class Name="Signal" Index="0"/>
    <Class Name="Background" Index="1"/>
  </Classes>
  <Transformations NTransformations="1">
    <Transform Name="Normalize">
      <Selection>
        <Input NInputs="11">
          <Input Type="Variable" Label="Jet1Pt" Expression="Jet1Pt"/>
          <Input Type="Variable" Label="LepPt" Expression="LepPt"/>
          <Input Type="Variable" Label="LepChg" Expression="LepChg"/>
          <Input Type="Variable" Label="LepEta" Expression="LepEta"/>
          <Input Type="Variable" Label="Met" Expression="Met"/>
          <Input Type="Variable" Label="mt" Expression="mt"/>
          <Input Type="Variable" Label="HT20" Expression="HT20"/>
          <Input Type="Variable" Label="NbLoose30" Expression="NbLoose30"/>
          <Input Type="Variable" Label="Njet" Expression="Njet"/>
          <Input Type="Variable" Label="JetHBpt" Expression="JetHBpt"/>
          <Input Type="Variable" Label="DrJetHBLep" Expression="DrJetHBLep"/>
        </Input>
        <Output NOutputs="11">
          <Output Type="Variable" Label="Jet1Pt" Expression="Jet1Pt"/>
          <Output Type="Variable" Label="LepPt" Expression="LepPt"/>
          <Output Type="Variable" Label="LepChg" Expression="LepChg"/>
          <Output Type="Variable" Label="LepEta" Expression="LepEta"/>
          <Output Type="Variable" Label="Met" Expression="Met"/>
          <Output Type="Variable" Label="mt" Expression="mt"/>
          <Output Type="Variable" Label="HT20" Expression="HT20"/>
          <Output Type="Variable" Label="NbLoose30" Expression="NbLoose30"/>
          <Output Type="Variable" Label="Njet" Expression="Njet"/>
          <Output Type="Variable" Label="JetHBpt" Expression="JetHBpt"/>
          <Output Type="Variable" Label="DrJetHBLep" Expression="DrJetHBLep"/>
        </Output>
      </Selection>
      <Class ClassIndex="0">
        <Ranges>
          <Range Index="0" Min="1.1004869842529297e+02" Max="1.2779298095703125e+03"/>
          <Range Index="1" Min="5.0007581710815430e+00" Max="2.9949773788452148e+01"/>
          <Range Index="2" Min="-1.0000000000000000e+00" Max="1.0000000000000000e+00"/>
          <Range Index="3" Min="-2.4711689949035645e+00" Max="2.3791146278381348e+00"/>
          <Range Index="4" Min="2.8022933959960938e+02" Max="1.2514943847656250e+03"/>
          <Range Index="5" Min="5.5733408778905869e-02" Max="3.0052719116210938e+02"/>
          <Range Index="6" Min="1.1735253143310547e+02" Max="2.3474851074218750e+03"/>
          <Range Index="7" Min="0.0000000000000000e+00" Max="5.0000000000000000e+00"/>
          <Range Index="8" Min="1.0000000000000000e+00" Max="1.1000000000000000e+01"/>
          <Range Index="9" Min="2.0057344436645508e+01" Max="1.0570437011718750e+03"/>
          <Range Index="10" Min="6.2708742916584015e-05" Max="4.9576835632324219e+00"/>
        </Ranges>
      </Class>
      <Class ClassIndex="1">
        <Ranges>
          <Range Index="0" Min="1.1005755615234375e+02" Max="1.5727603759765625e+03"/>
          <Range Index="1" Min="5.0013527870178223e+00" Max="2.9998437881469727e+01"/>
          <Range Index="2" Min="-1.0000000000000000e+00" Max="1.0000000000000000e+00"/>
          <Range Index="3" Min="-2.4841156005859375e+00" Max="2.4988005161285400e+00"/>
          <Range Index="4" Min="2.8002029418945312e+02" Max="1.2894793701171875e+03"/>
          <Range Index="5" Min="5.3781573660671711e-04" Max="2.1579251098632812e+02"/>
          <Range Index="6" Min="1.1200339508056641e+02" Max="4.5048730468750000e+03"/>
          <Range Index="7" Min="0.0000000000000000e+00" Max="6.0000000000000000e+00"/>
          <Range Index="8" Min="1.0000000000000000e+00" Max="1.4000000000000000e+01"/>
          <Range Index="9" Min="-9.9900000000000000e+02" Max="1.3784288330078125e+03"/>
          <Range Index="10" Min="-9.9900000000000000e+02" Max="5.3802633285522461e+00"/>
        </Ranges>
      </Class>
      <Class ClassIndex="2">
        <Ranges>
          <Range Index="0" Min="1.1004869842529297e+02" Max="1.5727603759765625e+03"/>
          <Range Index="1" Min="5.0007581710815430e+00" Max="2.9998437881469727e+01"/>
          <Range Index="2" Min="-1.0000000000000000e+00" Max="1.0000000000000000e+00"/>
          <Range Index="3" Min="-2.4841156005859375e+00" Max="2.4988005161285400e+00"/>
          <Range Index="4" Min="2.8002029418945312e+02" Max="1.2894793701171875e+03"/>
          <Range Index="5" Min="5.3781573660671711e-04" Max="3.0052719116210938e+02"/>
          <Range Index="6" Min="1.1200339508056641e+02" Max="4.5048730468750000e+03"/>
          <Range Index="7" Min="0.0000000000000000e+00" Max="6.0000000000000000e+00"/>
          <Range Index="8" Min="1.0000000000000000e+00" Max="1.4000000000000000e+01"/>
          <Range Index="9" Min="-9.9900000000000000e+02" Max="1.3784288330078125e+03"/>
          <Range Index="10" Min="-9.9900000000000000e+02" Max="5.3802633285522461e+00"/>
        </Ranges>
      </Class>
    </Transform>
  </Transformations>
  <MVAPdfs/>
  <Weights>
    <Layout NLayers="5">
      <Layer Index="0" NNeurons="12">
        <Neuron NSynapses="11">
          8.2612450353900124e-01 5.4183888125233870e-01 1.4488751211925637e+00 4.2446316690656021e+00 -2.0296227508208933e+00 -5.2132987084334570e-01 1.3869668757146134e+00 1.4468807535130692e+00 -2.2195464569687973e+00 -3.8071711466180008e-01 -3.4206429760733168e+00 
        </Neuron>
        <Neuron NSynapses="11">
          2.4993272654866114e+00 -3.9708549823230022e-01 -3.1660208057688384e+00 -4.0156436103944931e-01 9.7189186419308005e-01 -1.8971761863134238e+00 2.3886407749572456e+00 -1.9162689696193058e-01 3.1245603026436179e+00 1.0838280242084444e+00 -2.2984106096967588e-01 
        </Neuron>
        <Neuron NSynapses="11">
          1.4298876547708599e+00 8.1404603005005613e-02 5.0766224711742558e-01 -4.2549031780956863e+00 1.2293429152656157e+00 5.8215760836245767e-01 -3.6489601236233864e+00 5.5131827672749345e-01 -3.8603742996450896e-01 -1.3932980868597197e-01 -7.7039731236664177e-01 
        </Neuron>
        <Neuron NSynapses="11">
          1.2126500705715497e-02 5.4772174519893600e-02 1.5795836297756454e+00 -1.0752479833347239e+00 1.5327844400660693e+00 -2.4118563349773421e+00 6.5871284674480335e-01 1.0062389279192685e+00 -3.8896054678814096e-01 5.2076941568692945e+00 -2.9648566692239888e+00 
        </Neuron>
        <Neuron NSynapses="11">
          6.2861993833651901e+00 -2.9278441668020299e+00 9.0970467091883513e+00 6.7380122791018715e-01 2.5155786627259422e+00 6.8226411450362221e+00 4.0605482814570211e+00 1.0937058074664769e+00 -4.3557896711936515e+00 2.1008534175142587e-01 -4.9040866213446399e-01 
        </Neuron>
        <Neuron NSynapses="11">
          -1.6088796573402910e+00 -1.7817410757571238e+01 1.1648648663312926e-01 3.4460123788944483e+00 7.6008374089508710e-02 -2.8236522743017805e+00 -1.4667964058278003e-02 -7.6564540909004841e-01 2.7638472492088213e+00 2.3225152904312343e+00 3.4314207516325079e+00 
        </Neuron>
        <Neuron NSynapses="11">
          -1.3713270344629966e+00 3.6238249601230161e+00 -4.3745510868529696e+00 -7.0793365264840791e-01 -6.0921923823508017e-01 -1.9480108772347009e+00 -1.4715454963972199e-01 6.0766708851025353e-01 3.6960743267418867e+00 1.8092315687375997e+00 -6.8395660938662339e-01 
        </Neuron>
        <Neuron NSynapses="11">
          -6.6563513386232041e+00 -3.7766425209451537e-01 -3.7690384446400187e+00 3.4134883953680351e-01 1.7063472421314128e+00 1.4389423333110023e+00 -2.9603196044277991e+00 -1.3450462203203959e+00 6.6951388312411531e-01 2.1975409021456893e-01 -8.8843260771039057e-01 
        </Neuron>
        <Neuron NSynapses="11">
          -5.8452412064001962e+00 2.7354502785773521e-01 -7.6870822648814818e-01 1.2740886636523323e+00 1.6013276687336926e+00 -1.0910451783638182e+00 -2.2148278002776718e+00 1.6804523075190785e+00 -3.8017169646924605e+00 -5.7657537059741237e+00 -6.5173598046883656e+00 
        </Neuron>
        <Neuron NSynapses="11">
          -1.5256629432438213e+00 3.2416929139473249e+00 -5.3576678899961436e+00 1.0862895363558103e+00 1.2930402161995707e+00 1.9477725983479049e-01 3.7506988101885237e+00 -1.1303977284750772e+00 3.9934980145918497e-01 -1.2815944894048297e+00 -3.9141838555940073e-01 
        </Neuron>
        <Neuron NSynapses="11">
          -1.7769630910230707e+00 -2.3033933093086412e+00 1.2401876557324896e+00 1.0131441933709577e+00 -1.7460817348824642e+00 2.7428341277341302e+00 4.7392038796648878e-01 -5.1980629496308151e-01 -4.6255414597024819e-01 -2.5168917545038427e+00 -4.3419357822762992e+00 
        </Neuron>
        <Neuron NSynapses="11">
          1.8138348646640357e-01 -2.9824466855534060e+00 2.4566066442888954e+00 1.3048142123731081e+00 -3.6482414678439185e-01 5.0288836211727761e-01 1.6938809638709870e-01 -1.3626921905500446e+00 2.5969524937351751e-01 -9.3563785071008954e-01 -4.4207184687719572e+00 
        </Neuron>
      </Layer>
      <Layer Index="1" NNeurons="12">
        <Neuron NSynapses="11">
          7.1742315257735423e-01 -7.9824172702184470e-01 1.8215447236275455e+00 -1.4672763588810716e+00 3.3054489665077722e+00 -2.3319271207871548e+00 -1.5631408597646328e+00 3.5326536172210368e+00 1.8452759839219408e+00 -3.8703197203468833e+00 -1.6961328777728761e+00 
        </Neuron>
        <Neuron NSynapses="11">
          1.2689186936867227e+00 -3.5430466492734696e+00 8.2406497024665559e-01 3.4608600191888015e+00 -2.4057826994647571e+00 2.5939799828914512e-01 -2.3884802609405287e+00 -5.0594646736065787e+00 -2.2871704634065710e+00 -1.3104552548804131e+00 -1.2511154862683793e+00 
        </Neuron>
        <Neuron NSynapses="11">
          -9.1757494580521382e-01 2.1618180149122870e-01 1.7652400435139584e+00 -2.6126600275345835e+00 -8.8122284390559646e-01 -1.0800906552823264e+00 3.6886488883835034e+00 3.0035102333396249e+00 2.9584422420535437e+00 -1.8951200718051755e+00 2.1956951382890417e+00 
        </Neuron>
        <Neuron NSynapses="11">
          -7.8992980697896120e-01 -8.3376035877893684e-01 1.1361592639198914e+00 -1.5930646186841861e+00 -1.6768110686247070e-01 8.2436986539118895e-01 2.4127800087624753e+00 7.6604573934650322e-01 2.6832670658248450e+00 4.1877370056701713e+00 -2.2029119137101780e+00 
        </Neuron>
        <Neuron NSynapses="11">
          5.0083361858435005e-01 -5.8115978410805749e-02 6.3488482585345940e-01 -1.8634394668424656e+00 -1.0109452687667921e+00 1.3001251193524370e+00 2.6925126737056426e+00 -1.0091227460287866e+00 1.6343072440590350e-01 -3.8139610509757416e-01 4.0346645012114984e-01 
        </Neuron>
        <Neuron NSynapses="11">
          7.7723363770776255e-01 -1.4267135409647386e-01 1.1001630124977686e+00 -2.7310390017747133e+00 2.9637673762157801e+00 2.5147816162593433e+00 2.9796240114897268e+00 -2.0103937662903748e+00 -1.4073499899461004e+00 -4.6747846823869255e+00 4.1720850725841412e-02 
        </Neuron>
        <Neuron NSynapses="11">
          8.3974868672704195e-01 -1.1706367740005972e+00 3.7649808207162674e+00 -7.5546262491112814e-01 -4.8569330427384746e-02 -2.9499866789038012e+00 1.8759690991837357e+00 3.3955629479660008e+00 3.2160564325777147e-01 -1.2750417593266363e+00 1.8619137347590782e+00 
        </Neuron>
        <Neuron NSynapses="11">
          1.0994146856923994e+00 4.2143536764022099e-01 -1.8107569896477368e-01 -1.7878559092549742e+00 -9.3787811955053746e-01 1.9484742421049803e+00 1.4339297669478117e+00 9.5441492468574496e-01 5.0297436161100362e-01 1.9832795108534140e+00 -1.6180703547222435e+00 
        </Neuron>
        <Neuron NSynapses="11">
          -1.9643200421965468e+00 -6.0448499752015161e-01 -3.2356602943255632e+00 3.2170358175982390e+00 1.0775932988724335e+00 -2.4096826856307323e+00 -2.4859218036884885e+00 -3.1460197542112662e+00 -2.9056328119992880e+00 1.3885912588677340e+00 2.7922991259982249e-01 
        </Neuron>
        <Neuron NSynapses="11">
          1.1316753527690342e+00 9.0484635556662496e-01 -4.6252408045691391e+00 1.3332563150649765e+00 -3.0495430157328314e+00 9.3729264870002704e-01 -3.0339552228620570e-01 -2.3828449366814377e+00 -2.2524060520221787e+00 -1.5999473176562837e-01 -3.5141008349504316e-01 
        </Neuron>
        <Neuron NSynapses="11">
          -3.3624225707517357e+00 -1.3054839185674980e+00 -4.7938185572102467e+00 1.7531707349430774e+00 -2.2776087837518366e+00 -2.1325408990809445e+00 6.3516537289512143e-01 -5.8210105997227251e+00 -2.3609524722399957e+00 -2.0035006769814152e+00 -6.1222657304923433e-01 
        </Neuron>
        <Neuron NSynapses="11">
          1.9756819641352483e+00 9.6175776191795925e-01 4.1145357035328308e-03 -8.9341316066791288e-01 -1.8666416595311801e+00 -1.3292149384814139e-01 -2.2181346935011144e+00 2.2537974383499702e+00 -8.2410327117203153e-01 1.5634297037068086e+00 -9.6618671818714819e-01 
        </Neuron>
      </Layer>
      <Layer Index="2" NNeurons="12">
        <Neuron NSynapses="14">
          -1.8817090389637534e+00 -5.5566621339701094e-01 -2.9784952636604913e+00 1.6590105459143745e-01 -1.2187850092409416e+00 -1.3079156949707993e+00 -1.9715919733549196e+00 3.5524606678057097e-01 6.6362111106449950e-01 -6.1012076286668226e-01 -1.7014464438360302e+00 -5.4080166138773678e-01 -3.2659031095418695e-01 2.7024113654651766e-01 
        </Neuron>
        <Neuron NSynapses="14">
          7.8736434340907624e-01 -1.8196224584799939e-01 -5.0823330654706356e-01 -4.4058453920969731e-01 -1.7854258821895246e+00 -5.7246035210915858e-01 -1.6799753553172483e+00 -1.5288327147527931e+00 -1.0218462478668013e+00 1.4828263957806362e+00 -1.6982886307161253e+00 1.5398170692032223e+00 -1.6017835701398437e+00 1.0335851348600380e+00 
        </Neuron>
        <Neuron NSynapses="14">
          -3.6804134249033815e+00 1.0663610587337902e+00 -1.2518072954849206e+00 -2.9710725505910824e+00 -9.0231925836738980e-01 3.2867930356389796e-01 -2.5653870480559413e+00 -2.5311148674873101e+00 -2.4565470804184746e+00 -1.9219519014493280e+00 4.2101739258456333e-01 -1.1455841364332038e+00 -1.6545594126569522e-02 -1.1666020638437868e+00 
        </Neuron>
        <Neuron NSynapses="14">
          1.4422277647674207e+00 -1.6789333449769708e+00 -2.8565374690383623e+00 -2.2151071874315176e+00 -2.8666295759658792e-02 -1.3256614091749028e+00 -1.2323875091502277e+00 1.9459840696873150e+00 4.3449680906730098e-01 -2.7891049772290559e-02 2.1398912639469083e+00 -2.8235427440346323e+00 5.3924455937314208e-01 3.0831078314174798e-01 
        </Neuron>
        <Neuron NSynapses="14">
          -3.3211108796842264e+00 -8.9959863735046852e-01 5.7744334469475478e-01 -8.2666777742832920e-01 -7.4019776534899029e-01 1.6709042523706006e+00 2.0434749010222752e+00 2.8168659515070313e+00 -2.7986237143729675e+00 3.0812350729708393e-01 -2.4602583836429370e+00 2.3372406178953331e+00 -3.0386084610919144e+00 -2.0621346913435397e+00 
        </Neuron>
        <Neuron NSynapses="14">
          6.1974376981974644e-01 1.4748459881251856e+00 2.4931155610532643e+00 7.5852610290016831e-01 1.9566406007351075e-01 -1.9727140839965221e-01 -9.6965498686204366e-01 9.5514259281641567e-01 3.0513883219574907e+00 -1.7884725109640225e+00 5.9758649987946455e-01 -1.6606389718846752e+00 -1.6356084690105602e-01 -5.3219670223415561e-02 
        </Neuron>
        <Neuron NSynapses="14">
          -1.4844349749261856e+00 -1.2484960316842340e+00 2.6979532516837788e+00 1.8944999599525525e+00 -3.3325121666566127e-01 -5.5970539816795484e-01 -1.1442168543842057e+00 -2.5289927088649815e+00 -2.6934408263275653e+00 5.1361175490118882e-01 -1.1316471771874250e+00 -9.9517586745164133e-01 -5.3888312995092835e-01 -2.1615835680622046e+00 
        </Neuron>
        <Neuron NSynapses="14">
          -3.6714221040859933e+00 -1.7708402394638816e+00 1.2288293411062290e+00 -1.0891394409363679e+00 -2.4813989129273826e+00 -1.1382390417999000e+00 -1.7186381576844758e+00 -4.0102072654805276e+00 8.3163991964419004e-01 -2.7232028311255472e+00 -1.8671223979827236e+00 3.3124161828886671e+00 1.2036523479235261e-02 1.9362002391782426e-01 
        </Neuron>
        <Neuron NSynapses="14">
          -1.5524410473606216e+00 1.3729374839655866e+00 4.1111430264329512e+00 1.1707501540669230e+00 -1.3413948587028892e+00 -1.0593426985243799e+00 -2.5051617804414801e+00 -2.7025613797367465e-01 1.2364545860778244e+00 -1.0398063438398886e+00 4.9899581749913291e-01 1.7395646985740620e+00 1.2420860826093028e+00 -1.3941607456860807e+00 
        </Neuron>
        <Neuron NSynapses="14">
          3.2173879858286898e+00 8.2657969255086305e-01 -3.8490506340836457e+00 -7.7655847882345663e-01 -1.2934942973530590e+00 9.6675639232134403e-01 6.2121002128924241e-01 1.1494851298295741e+00 2.4783037737311573e+00 -5.2313568143518840e-01 1.6438117779863837e+00 -4.8744945402357193e-01 9.5452217162385300e-01 -1.3483940503313046e+00 
        </Neuron>
        <Neuron NSynapses="14">
          6.9695198807543735e-01 -1.6523406862891645e+00 1.5355072773156997e-01 1.2249739647750679e+00 -7.6232253904173064e-01 -8.6046106253826327e-01 5.1056827239460610e-02 -1.9072688173939123e+00 6.6888149566208654e-01 -2.1703167543319850e+00 1.8391473120252178e-01 -1.0040472178001592e+00 2.3850349873115579e+00 9.4495211347351737e-01 
        </Neuron>
        <Neuron NSynapses="14">
          1.3082464019041304e+00 4.5955845512107740e-02 -2.3534527452947089e+00 -7.5008799496939060e-01 -2.2275203878263014e-01 -1.9471067559367616e+00 -6.7017342043847494e-01 -1.5954307590897311e-02 -1.5419612059616423e+00 -2.0056177412769731e+00 -2.0129527515003316e+00 -3.2492232116270930e-01 -1.4350616174387338e+00 -2.8661312948877344e+00 
        </Neuron>
      </Layer>
      <Layer Index="3" NNeurons="15">
        <Neuron NSynapses="1">
          -4.1772366272069732e+00 
        </Neuron>
        <Neuron NSynapses="1">
          -1.5091016798585131e+00 
        </Neuron>
        <Neuron NSynapses="1">
          2.9298398318374552e+00 
        </Neuron>
        <Neuron NSynapses="1">
          1.0786839903992329e+00 
        </Neuron>
        <Neuron NSynapses="1">
          -9.5012294270098907e-01 
        </Neuron>
        <Neuron NSynapses="1">
          -9.2515884290664263e-01 
        </Neuron>
        <Neuron NSynapses="1">
          -2.8377915194853887e+00 
        </Neuron>
        <Neuron NSynapses="1">
          -1.8588720532988601e+00 
        </Neuron>
        <Neuron NSynapses="1">
          -3.0396991695541882e+00 
        </Neuron>
        <Neuron NSynapses="1">
          -1.6507322404454248e+00 
        </Neuron>
        <Neuron NSynapses="1">
          -1.9318894276259291e+00 
        </Neuron>
        <Neuron NSynapses="1">
          8.0458254919668570e-01 
        </Neuron>
        <Neuron NSynapses="1">
          -1.6607723500348326e+00 
        </Neuron>
        <Neuron NSynapses="1">
          7.3869588929118235e-01 
        </Neuron>
        <Neuron NSynapses="1">
          4.8470706829343257e-01 
        </Neuron>
      </Layer>
      <Layer Index="4" NNeurons="1">
        <Neuron NSynapses="0"/>
      </Layer>
    </Layout>
  </Weights>
</MethodSetup>
