<?xml version="1.0"?>
<MethodSetup Method="MLP::MLP_ANN_N3_NC1000">
  <GeneralInfo>
    <Info name="TMVA Release" value="4.2.1 [262657]"/>
    <Info name="ROOT Release" value="6.06/01 [394753]"/>
    <Info name="Creator" value="brucms16"/>
    <Info name="Date" value="Wed Sep  7 04:09:57 2016"/>
    <Info name="Host" value="Linux vocms0315.cern.ch 2.6.32-573.26.1.el6.x86_64 #1 SMP Wed May 4 09:23:05 CEST 2016 x86_64 x86_64 x86_64 GNU/Linux"/>
    <Info name="Dir" value="/home/t3cms/brucms16/CMSSW_8_0_14/src/UserCode/SkeletonAnalysis/macros"/>
    <Info name="Training events" value="15056"/>
    <Info name="TrainingTime" value="5.11625515e+02"/>
    <Info name="AnalysisType" value="Classification"/>
  </GeneralInfo>
  <Options>
    <Option name="NCycles" modified="Yes">1000</Option>
    <Option name="HiddenLayers" modified="Yes">N,N,N+3</Option>
    <Option name="NeuronType" modified="No">sigmoid</Option>
    <Option name="RandomSeed" modified="No">1</Option>
    <Option name="EstimatorType" modified="No">CE</Option>
    <Option name="NeuronInputType" modified="No">sum</Option>
    <Option name="V" modified="Yes">False</Option>
    <Option name="VerbosityLevel" modified="No">Default</Option>
    <Option name="VarTransform" modified="Yes">Norm</Option>
    <Option name="H" modified="Yes">False</Option>
    <Option name="CreateMVAPdfs" modified="No">False</Option>
    <Option name="IgnoreNegWeightsInTraining" modified="No">False</Option>
    <Option name="TrainingMethod" modified="No">BP</Option>
    <Option name="LearningRate" modified="Yes">9.000000e-02</Option>
    <Option name="DecayRate" modified="Yes">1.000000e-02</Option>
    <Option name="TestRate" modified="No">10</Option>
    <Option name="EpochMonitoring" modified="No">False</Option>
    <Option name="Sampling" modified="No">1.000000e+00</Option>
    <Option name="SamplingEpoch" modified="No">1.000000e+00</Option>
    <Option name="SamplingImportance" modified="No">1.000000e+00</Option>
    <Option name="SamplingTraining" modified="No">True</Option>
    <Option name="SamplingTesting" modified="No">False</Option>
    <Option name="ResetStep" modified="No">50</Option>
    <Option name="Tau" modified="No">3.000000e+00</Option>
    <Option name="BPMode" modified="No">sequential</Option>
    <Option name="BatchSize" modified="No">-1</Option>
    <Option name="ConvergenceImprove" modified="No">1.000000e-30</Option>
    <Option name="ConvergenceTests" modified="No">-1</Option>
    <Option name="UseRegulator" modified="No">False</Option>
    <Option name="UpdateLimit" modified="No">10000</Option>
    <Option name="CalculateErrors" modified="No">False</Option>
    <Option name="WeightRange" modified="No">1.000000e+00</Option>
  </Options>
  <Variables NVar="11">
    <Variable VarIndex="0" Expression="Jet1Pt" Label="Jet1Pt" Title="Jet1Pt" Unit="" Internal="Jet1Pt" Type="F" Min="1.10048698e+02" Max="1.57276038e+03"/>
    <Variable VarIndex="1" Expression="LepPt" Label="LepPt" Title="LepPt" Unit="" Internal="LepPt" Type="F" Min="5.00075817e+00" Max="2.99984379e+01"/>
    <Variable VarIndex="2" Expression="LepChg" Label="LepChg" Title="LepChg" Unit="" Internal="LepChg" Type="F" Min="-1.00000000e+00" Max="1.00000000e+00"/>
    <Variable VarIndex="3" Expression="LepEta" Label="LepEta" Title="LepEta" Unit="" Internal="LepEta" Type="F" Min="-2.48411560e+00" Max="2.49880052e+00"/>
    <Variable VarIndex="4" Expression="Met" Label="Met" Title="Met" Unit="" Internal="Met" Type="F" Min="2.80020294e+02" Max="1.28947937e+03"/>
    <Variable VarIndex="5" Expression="mt" Label="mt" Title="mt" Unit="" Internal="mt" Type="F" Min="5.37815737e-04" Max="3.00527191e+02"/>
    <Variable VarIndex="6" Expression="HT20" Label="HT20" Title="HT20" Unit="" Internal="HT20" Type="F" Min="1.12003395e+02" Max="4.50487305e+03"/>
    <Variable VarIndex="7" Expression="NbLoose30" Label="NbLoose30" Title="NbLoose30" Unit="" Internal="NbLoose30" Type="F" Min="0.00000000e+00" Max="6.00000000e+00"/>
    <Variable VarIndex="8" Expression="Njet" Label="Njet" Title="Njet" Unit="" Internal="Njet" Type="F" Min="1.00000000e+00" Max="1.40000000e+01"/>
    <Variable VarIndex="9" Expression="JetHBpt" Label="JetHBpt" Title="JetHBpt" Unit="" Internal="JetHBpt" Type="F" Min="-9.99000000e+02" Max="1.37842883e+03"/>
    <Variable VarIndex="10" Expression="DrJetHBLep" Label="DrJetHBLep" Title="DrJetHBLep" Unit="" Internal="DrJetHBLep" Type="F" Min="-9.99000000e+02" Max="5.38026333e+00"/>
  </Variables>
  <Spectators NSpec="0"/>
  <Classes NClass="2">
    <Class Name="Signal" Index="0"/>
    <Class Name="Background" Index="1"/>
  </Classes>
  <Transformations NTransformations="1">
    <Transform Name="Normalize">
      <Selection>
        <Input NInputs="11">
          <Input Type="Variable" Label="Jet1Pt" Expression="Jet1Pt"/>
          <Input Type="Variable" Label="LepPt" Expression="LepPt"/>
          <Input Type="Variable" Label="LepChg" Expression="LepChg"/>
          <Input Type="Variable" Label="LepEta" Expression="LepEta"/>
          <Input Type="Variable" Label="Met" Expression="Met"/>
          <Input Type="Variable" Label="mt" Expression="mt"/>
          <Input Type="Variable" Label="HT20" Expression="HT20"/>
          <Input Type="Variable" Label="NbLoose30" Expression="NbLoose30"/>
          <Input Type="Variable" Label="Njet" Expression="Njet"/>
          <Input Type="Variable" Label="JetHBpt" Expression="JetHBpt"/>
          <Input Type="Variable" Label="DrJetHBLep" Expression="DrJetHBLep"/>
        </Input>
        <Output NOutputs="11">
          <Output Type="Variable" Label="Jet1Pt" Expression="Jet1Pt"/>
          <Output Type="Variable" Label="LepPt" Expression="LepPt"/>
          <Output Type="Variable" Label="LepChg" Expression="LepChg"/>
          <Output Type="Variable" Label="LepEta" Expression="LepEta"/>
          <Output Type="Variable" Label="Met" Expression="Met"/>
          <Output Type="Variable" Label="mt" Expression="mt"/>
          <Output Type="Variable" Label="HT20" Expression="HT20"/>
          <Output Type="Variable" Label="NbLoose30" Expression="NbLoose30"/>
          <Output Type="Variable" Label="Njet" Expression="Njet"/>
          <Output Type="Variable" Label="JetHBpt" Expression="JetHBpt"/>
          <Output Type="Variable" Label="DrJetHBLep" Expression="DrJetHBLep"/>
        </Output>
      </Selection>
      <Class ClassIndex="0">
        <Ranges>
          <Range Index="0" Min="1.1004869842529297e+02" Max="1.2779298095703125e+03"/>
          <Range Index="1" Min="5.0007581710815430e+00" Max="2.9949773788452148e+01"/>
          <Range Index="2" Min="-1.0000000000000000e+00" Max="1.0000000000000000e+00"/>
          <Range Index="3" Min="-2.4711689949035645e+00" Max="2.3791146278381348e+00"/>
          <Range Index="4" Min="2.8022933959960938e+02" Max="1.2514943847656250e+03"/>
          <Range Index="5" Min="5.5733408778905869e-02" Max="3.0052719116210938e+02"/>
          <Range Index="6" Min="1.1735253143310547e+02" Max="2.3474851074218750e+03"/>
          <Range Index="7" Min="0.0000000000000000e+00" Max="5.0000000000000000e+00"/>
          <Range Index="8" Min="1.0000000000000000e+00" Max="1.1000000000000000e+01"/>
          <Range Index="9" Min="2.0057344436645508e+01" Max="1.0570437011718750e+03"/>
          <Range Index="10" Min="6.2708742916584015e-05" Max="4.9576835632324219e+00"/>
        </Ranges>
      </Class>
      <Class ClassIndex="1">
        <Ranges>
          <Range Index="0" Min="1.1005755615234375e+02" Max="1.5727603759765625e+03"/>
          <Range Index="1" Min="5.0013527870178223e+00" Max="2.9998437881469727e+01"/>
          <Range Index="2" Min="-1.0000000000000000e+00" Max="1.0000000000000000e+00"/>
          <Range Index="3" Min="-2.4841156005859375e+00" Max="2.4988005161285400e+00"/>
          <Range Index="4" Min="2.8002029418945312e+02" Max="1.2894793701171875e+03"/>
          <Range Index="5" Min="5.3781573660671711e-04" Max="2.1579251098632812e+02"/>
          <Range Index="6" Min="1.1200339508056641e+02" Max="4.5048730468750000e+03"/>
          <Range Index="7" Min="0.0000000000000000e+00" Max="6.0000000000000000e+00"/>
          <Range Index="8" Min="1.0000000000000000e+00" Max="1.4000000000000000e+01"/>
          <Range Index="9" Min="-9.9900000000000000e+02" Max="1.3784288330078125e+03"/>
          <Range Index="10" Min="-9.9900000000000000e+02" Max="5.3802633285522461e+00"/>
        </Ranges>
      </Class>
      <Class ClassIndex="2">
        <Ranges>
          <Range Index="0" Min="1.1004869842529297e+02" Max="1.5727603759765625e+03"/>
          <Range Index="1" Min="5.0007581710815430e+00" Max="2.9998437881469727e+01"/>
          <Range Index="2" Min="-1.0000000000000000e+00" Max="1.0000000000000000e+00"/>
          <Range Index="3" Min="-2.4841156005859375e+00" Max="2.4988005161285400e+00"/>
          <Range Index="4" Min="2.8002029418945312e+02" Max="1.2894793701171875e+03"/>
          <Range Index="5" Min="5.3781573660671711e-04" Max="3.0052719116210938e+02"/>
          <Range Index="6" Min="1.1200339508056641e+02" Max="4.5048730468750000e+03"/>
          <Range Index="7" Min="0.0000000000000000e+00" Max="6.0000000000000000e+00"/>
          <Range Index="8" Min="1.0000000000000000e+00" Max="1.4000000000000000e+01"/>
          <Range Index="9" Min="-9.9900000000000000e+02" Max="1.3784288330078125e+03"/>
          <Range Index="10" Min="-9.9900000000000000e+02" Max="5.3802633285522461e+00"/>
        </Ranges>
      </Class>
    </Transform>
  </Transformations>
  <MVAPdfs/>
  <Weights>
    <Layout NLayers="5">
      <Layer Index="0" NNeurons="12">
        <Neuron NSynapses="11">
          8.2551190285838205e-01 5.4079584280679815e-01 1.4492709233932979e+00 4.2470253345279652e+00 -2.0299935341574540e+00 -5.2074451412527356e-01 1.3852985678694307e+00 1.4446398276489734e+00 -2.2177320111521288e+00 -3.8087023440528817e-01 -3.4213500485105683e+00 
        </Neuron>
        <Neuron NSynapses="11">
          2.4997880741884764e+00 -3.9680593788846313e-01 -3.1665379168297467e+00 -4.0058294437636432e-01 9.7271757372699674e-01 -1.8975587773476552e+00 2.3888069453825369e+00 -1.9323032270567672e-01 3.1243748294961908e+00 1.0834149686217436e+00 -2.3040482863453238e-01 
        </Neuron>
        <Neuron NSynapses="11">
          1.4301101641148080e+00 8.1568195949919570e-02 5.0888856898834445e-01 -4.2578032503605199e+00 1.2290518482989097e+00 5.8186699478341986e-01 -3.6486917420941061e+00 5.5408638723883197e-01 -3.8678374278894923e-01 -1.4051960394011928e-01 -7.7018595437895976e-01 
        </Neuron>
        <Neuron NSynapses="11">
          1.2525210593238627e-02 5.4365818209020506e-02 1.5800407981987066e+00 -1.0778807371150296e+00 1.5325782740990557e+00 -2.4108703889901055e+00 6.6019612922267845e-01 1.0052274306246365e+00 -3.8928684380320877e-01 5.2071518596807618e+00 -2.9632672434172309e+00 
        </Neuron>
        <Neuron NSynapses="11">
          6.2857717055523690e+00 -2.9250232107485941e+00 9.0977033401987608e+00 6.7240188978121640e-01 2.5180233840361246e+00 6.8250023895667722e+00 4.0608594908436269e+00 1.0930576798589104e+00 -4.3552256292209597e+00 2.1244924498418061e-01 -4.8769179715743710e-01 
        </Neuron>
        <Neuron NSynapses="11">
          -1.6092671935855318e+00 -1.7824955429730320e+01 1.1790479605464518e-01 3.4460855294407811e+00 7.4943178350469097e-02 -2.8235027970442164e+00 -1.4719034218633643e-02 -7.6799236413676331e-01 2.7637388356450567e+00 2.3198532486756958e+00 3.4325179822787319e+00 
        </Neuron>
        <Neuron NSynapses="11">
          -1.3706692189275278e+00 3.6263860315608532e+00 -4.3751936969499177e+00 -7.0754278822827132e-01 -6.0927622148235661e-01 -1.9476705435173913e+00 -1.4792707932041346e-01 6.0551910287441590e-01 3.6956060344802952e+00 1.8108357603426737e+00 -6.8329470627450684e-01 
        </Neuron>
        <Neuron NSynapses="11">
          -6.6571518570405210e+00 -3.7840089514779685e-01 -3.7689051953145936e+00 3.4116963832209574e-01 1.7073937380396147e+00 1.4402059721668308e+00 -2.9612237388430507e+00 -1.3470035314532867e+00 6.6917263635920232e-01 2.2033559855719040e-01 -8.8940603024926579e-01 
        </Neuron>
        <Neuron NSynapses="11">
          -5.8435415637666388e+00 2.7423273980019425e-01 -7.6914181324675701e-01 1.2731959353770257e+00 1.6007972421834167e+00 -1.0935362574022693e+00 -2.2138173687318154e+00 1.6803859894091966e+00 -3.8017944695131130e+00 -5.7653888695089899e+00 -6.5152835160245468e+00 
        </Neuron>
        <Neuron NSynapses="11">
          -1.5271728429980005e+00 3.2432503525892709e+00 -5.3598063973255297e+00 1.0871335253100034e+00 1.2924795166659837e+00 1.9707772805093221e-01 3.7513175942517751e+00 -1.1316067845752287e+00 3.9871395177265634e-01 -1.2815889111881786e+00 -3.9252560983770901e-01 
        </Neuron>
        <Neuron NSynapses="11">
          -1.7772266401275627e+00 -2.3028367515054535e+00 1.2407938235373979e+00 1.0128593044743954e+00 -1.7457855083099107e+00 2.7435939820209354e+00 4.7320861856203456e-01 -5.1771470038977452e-01 -4.6173558908353524e-01 -2.5150078431609697e+00 -4.3402801989695803e+00 
        </Neuron>
        <Neuron NSynapses="11">
          1.8122545636699008e-01 -2.9819424117881113e+00 2.4570850684275065e+00 1.3044911092335965e+00 -3.6451349103225766e-01 5.0365581963262174e-01 1.6854566023211112e-01 -1.3605614814831806e+00 2.6058184372711679e-01 -9.3367699708406104e-01 -4.4189024671796142e+00 
        </Neuron>
      </Layer>
      <Layer Index="1" NNeurons="12">
        <Neuron NSynapses="11">
          7.1947622077575124e-01 -7.9891823702826736e-01 1.8233731924047774e+00 -1.4695258443961643e+00 3.3051852526803982e+00 -2.3335145418631451e+00 -1.5661071167576992e+00 3.5318303956288890e+00 1.8460505275405648e+00 -3.8716157576544883e+00 -1.6957237104372478e+00 
        </Neuron>
        <Neuron NSynapses="11">
          1.2686027358950993e+00 -3.5429430148138636e+00 8.2404377748494639e-01 3.4637432694408381e+00 -2.4043165484473858e+00 2.5911085985708493e-01 -2.3902030650142612e+00 -5.0592339441696685e+00 -2.2882109875820529e+00 -1.3130267390067565e+00 -1.2484978952505963e+00 
        </Neuron>
        <Neuron NSynapses="11">
          -9.1727146275039773e-01 2.1536028675930929e-01 1.7626137822506849e+00 -2.6131899230621349e+00 -8.8378278157812185e-01 -1.0796675791585066e+00 3.6897548931848263e+00 3.0031109191389453e+00 2.9611398187509579e+00 -1.8953762831899070e+00 2.2000470921829214e+00 
        </Neuron>
        <Neuron NSynapses="11">
          -7.9161551300641864e-01 -8.3317775348296796e-01 1.1353583441438251e+00 -1.5926686845676006e+00 -1.6682476013206937e-01 8.2314427626996656e-01 2.4156975064523336e+00 7.6812652610760834e-01 2.6843624888228041e+00 4.1882856782906224e+00 -2.2060384470470025e+00 
        </Neuron>
        <Neuron NSynapses="11">
          5.0088509268338188e-01 -5.8422249612711412e-02 6.3484934885947775e-01 -1.8631552205410864e+00 -1.0105871233912960e+00 1.3003744256086687e+00 2.6938602237978699e+00 -1.0104621090950765e+00 1.6323370604474460e-01 -3.8129246776503989e-01 4.0436547123922206e-01 
        </Neuron>
        <Neuron NSynapses="11">
          7.7718830465821465e-01 -1.4313759204526214e-01 1.1012503843796801e+00 -2.7312596323114322e+00 2.9656572303871669e+00 2.5162178578322383e+00 2.9821315386106173e+00 -2.0120354646784504e+00 -1.4095372053322806e+00 -4.6766385166417361e+00 4.2613506602383486e-02 
        </Neuron>
        <Neuron NSynapses="11">
          8.3973417098981662e-01 -1.1698189660128040e+00 3.7694894014370739e+00 -7.5421486773149715e-01 -4.8434999832694892e-02 -2.9509658139658423e+00 1.8776583706810688e+00 3.3932564763561981e+00 3.2089505012535635e-01 -1.2771056492293666e+00 1.8610224976683218e+00 
        </Neuron>
        <Neuron NSynapses="11">
          1.0994813419139571e+00 4.2120023696483622e-01 -1.8149925301382008e-01 -1.7877204717036512e+00 -9.3779328777401239e-01 1.9497940198140249e+00 1.4335495458603686e+00 9.5590639510193465e-01 5.0450840146173770e-01 1.9830026646437868e+00 -1.6174057692232984e+00 
        </Neuron>
        <Neuron NSynapses="11">
          -1.9645417594140726e+00 -6.0495489351132270e-01 -3.2356487120451374e+00 3.2164605416962235e+00 1.0773567167330094e+00 -2.4130760084912426e+00 -2.4886635854807513e+00 -3.1478705396094671e+00 -2.9036190241993682e+00 1.3904435424322166e+00 2.7824348471758042e-01 
        </Neuron>
        <Neuron NSynapses="11">
          1.1347123136894066e+00 9.0639421981269630e-01 -4.6279663624839351e+00 1.3292800188318059e+00 -3.0489238415715922e+00 9.3620701582720001e-01 -3.0280134605789738e-01 -2.3845030367130193e+00 -2.2514677147163065e+00 -1.5725204546706384e-01 -3.5068810068796596e-01 
        </Neuron>
        <Neuron NSynapses="11">
          -3.3646170868009317e+00 -1.3050579785506775e+00 -4.7957326973247483e+00 1.7548374404480600e+00 -2.2817227835883824e+00 -2.1331589527995587e+00 6.3703033609234949e-01 -5.8231319277431135e+00 -2.3604224710863808e+00 -2.0039829197275210e+00 -6.1213568537559870e-01 
        </Neuron>
        <Neuron NSynapses="11">
          1.9755478713165646e+00 9.6160775423397971e-01 2.4188168141504305e-03 -8.9347482612766849e-01 -1.8679319672568095e+00 -1.3310256301228751e-01 -2.2190701022418771e+00 2.2548086658917104e+00 -8.2333458326222930e-01 1.5631129247891349e+00 -9.6603803703018221e-01 
        </Neuron>
      </Layer>
      <Layer Index="2" NNeurons="12">
        <Neuron NSynapses="14">
          -1.8850187003027865e+00 -5.5658603860176115e-01 -2.9795731039883635e+00 1.6604810407104473e-01 -1.2201029355319786e+00 -1.3082944924785904e+00 -1.9731713055235989e+00 3.5553060247021440e-01 6.6329863624579688e-01 -6.1115970769880856e-01 -1.7028968388866319e+00 -5.4026500094853147e-01 -3.2915366397447271e-01 2.7062469905854952e-01 
        </Neuron>
        <Neuron NSynapses="14">
          7.8661172691567982e-01 -1.8180390740276856e-01 -5.1011407876577930e-01 -4.4123780360921189e-01 -1.7855157352898998e+00 -5.7231380870865256e-01 -1.6792710250331380e+00 -1.5286415234449975e+00 -1.0193915791970747e+00 1.4828304409007411e+00 -1.6984310623244774e+00 1.5406513015704095e+00 -1.6016503634286925e+00 1.0335027797918390e+00 
        </Neuron>
        <Neuron NSynapses="14">
          -3.6826746577218490e+00 1.0704592133939950e+00 -1.2525747610013658e+00 -2.9725343477432506e+00 -9.0225273561123642e-01 3.2899711021697337e-01 -2.5664328254957107e+00 -2.5312475680668243e+00 -2.4571412656098022e+00 -1.9221388924095211e+00 4.2103148578681171e-01 -1.1461033624473991e+00 -1.5267586886588816e-02 -1.1665225694290455e+00 
        </Neuron>
        <Neuron NSynapses="14">
          1.4474126942698258e+00 -1.6795186163420077e+00 -2.8577614030587180e+00 -2.2143543645634076e+00 -2.8705646570536054e-02 -1.3256825785277191e+00 -1.2329665237606904e+00 1.9463837136672202e+00 4.3143766410058071e-01 -2.8080277446279889e-02 2.1398200515669368e+00 -2.8232908847557119e+00 5.3650895505013785e-01 3.0879924204794540e-01 
        </Neuron>
        <Neuron NSynapses="14">
          -3.3237773198406360e+00 -8.9921608789010654e-01 5.7505676060832067e-01 -8.2628102166003548e-01 -7.4074699409407840e-01 1.6710815359965774e+00 2.0442619812703557e+00 2.8212009116733228e+00 -2.7974874832935859e+00 3.0782886007880284e-01 -2.4600160949413183e+00 2.3397628765031189e+00 -3.0383865737696025e+00 -2.0621296054343716e+00 
        </Neuron>
        <Neuron NSynapses="14">
          6.2043105739298343e-01 1.4756671417193004e+00 2.4963627687433179e+00 7.5858457004506230e-01 1.9557111738243041e-01 -1.9743399672031284e-01 -9.6985618754151426e-01 9.5497973818713466e-01 3.0518894465319484e+00 -1.7886197075439259e+00 5.9770103773322425e-01 -1.6609551787406347e+00 -1.6194445752338604e-01 -5.3224790014586680e-02 
        </Neuron>
        <Neuron NSynapses="14">
          -1.4844408220029714e+00 -1.2474429279064010e+00 2.7000777339407316e+00 1.8947490861072378e+00 -3.3347534509020810e-01 -5.6008816386561233e-01 -1.1451244358296324e+00 -2.5310322388713757e+00 -2.6959717106716856e+00 5.1351001908360017e-01 -1.1315911320036232e+00 -9.9422612108122554e-01 -5.4004131007645817e-01 -2.1616325573746642e+00 
        </Neuron>
        <Neuron NSynapses="14">
          -3.6741323542085751e+00 -1.7708374995051877e+00 1.2267901765652767e+00 -1.0906192650061548e+00 -2.4812761057815349e+00 -1.1376807509550670e+00 -1.7178768627956369e+00 -4.0111938091395025e+00 8.3657748390795006e-01 -2.7231980125973378e+00 -1.8681965733684878e+00 3.3134670855984525e+00 1.1560312084886584e-02 1.9356947842345804e-01 
        </Neuron>
        <Neuron NSynapses="14">
          -1.5530169964088538e+00 1.3741801347628815e+00 4.1144271084594513e+00 1.1698615717781407e+00 -1.3412341840008299e+00 -1.0590287691293132e+00 -2.5053045720581317e+00 -2.7029793830917809e-01 1.2416444819908339e+00 -1.0398143545393401e+00 4.9928317762908370e-01 1.7404170395120477e+00 1.2423831523434350e+00 -1.3943436329397156e+00 
        </Neuron>
        <Neuron NSynapses="14">
          3.2185157148713675e+00 8.2591044217835297e-01 -3.8489793179634297e+00 -7.7658114530417000e-01 -1.2936313460329401e+00 9.6637126085705460e-01 6.2107488951867995e-01 1.1490850703911026e+00 2.4792997314075400e+00 -5.2314842675511786e-01 1.6427517702258483e+00 -4.8661743942096120e-01 9.5345220647018669e-01 -1.3483952348387120e+00 
        </Neuron>
        <Neuron NSynapses="14">
          6.9611186254410884e-01 -1.6506937302306144e+00 1.5216453719199535e-01 1.2240779423419590e+00 -7.6268447779891302e-01 -8.6042579306460998e-01 5.0922402104270605e-02 -1.9077400295371969e+00 6.7163767448749767e-01 -2.1705439044810557e+00 1.8397369189744237e-01 -1.0051254806347638e+00 2.3881263961791879e+00 9.4483979200839907e-01 
        </Neuron>
        <Neuron NSynapses="14">
          1.3093886892271360e+00 4.8401177242808957e-02 -2.3549561607200218e+00 -7.5012014519346859e-01 -2.2338128503798238e-01 -1.9470518371478285e+00 -6.7034661522270633e-01 -1.6024380596055328e-02 -1.5407289216788214e+00 -2.0060388235899294e+00 -2.0131069738581928e+00 -3.2272932094013290e-01 -1.4363320423153483e+00 -2.8658755773048523e+00 
        </Neuron>
      </Layer>
      <Layer Index="3" NNeurons="15">
        <Neuron NSynapses="1">
          -4.1803705751075402e+00 
        </Neuron>
        <Neuron NSynapses="1">
          -1.5119531940490307e+00 
        </Neuron>
        <Neuron NSynapses="1">
          2.9295401562469303e+00 
        </Neuron>
        <Neuron NSynapses="1">
          1.0804256328092949e+00 
        </Neuron>
        <Neuron NSynapses="1">
          -9.4970580143252736e-01 
        </Neuron>
        <Neuron NSynapses="1">
          -9.2524178057352224e-01 
        </Neuron>
        <Neuron NSynapses="1">
          -2.8383758685194707e+00 
        </Neuron>
        <Neuron NSynapses="1">
          -1.8616686930765549e+00 
        </Neuron>
        <Neuron NSynapses="1">
          -3.0417960698042235e+00 
        </Neuron>
        <Neuron NSynapses="1">
          -1.6505174292675659e+00 
        </Neuron>
        <Neuron NSynapses="1">
          -1.9322468581580527e+00 
        </Neuron>
        <Neuron NSynapses="1">
          8.0510815358362342e-01 
        </Neuron>
        <Neuron NSynapses="1">
          -1.6626457786518178e+00 
        </Neuron>
        <Neuron NSynapses="1">
          7.3910400898185680e-01 
        </Neuron>
        <Neuron NSynapses="1">
          4.8738367311293085e-01 
        </Neuron>
      </Layer>
      <Layer Index="4" NNeurons="1">
        <Neuron NSynapses="0"/>
      </Layer>
    </Layout>
  </Weights>
</MethodSetup>
