<?xml version="1.0"?>
<MethodSetup Method="MLP::MLP_ANN_N2_NC300">
  <GeneralInfo>
    <Info name="TMVA Release" value="4.2.1 [262657]"/>
    <Info name="ROOT Release" value="6.06/01 [394753]"/>
    <Info name="Creator" value="brucms16"/>
    <Info name="Date" value="Wed Sep  7 02:43:17 2016"/>
    <Info name="Host" value="Linux vocms0315.cern.ch 2.6.32-573.26.1.el6.x86_64 #1 SMP Wed May 4 09:23:05 CEST 2016 x86_64 x86_64 x86_64 GNU/Linux"/>
    <Info name="Dir" value="/home/t3cms/brucms16/CMSSW_8_0_14/src/UserCode/SkeletonAnalysis/macros"/>
    <Info name="Training events" value="15056"/>
    <Info name="TrainingTime" value="1.49569128e+02"/>
    <Info name="AnalysisType" value="Classification"/>
  </GeneralInfo>
  <Options>
    <Option name="NCycles" modified="Yes">300</Option>
    <Option name="HiddenLayers" modified="Yes">N,N,N+2</Option>
    <Option name="NeuronType" modified="No">sigmoid</Option>
    <Option name="RandomSeed" modified="No">1</Option>
    <Option name="EstimatorType" modified="No">CE</Option>
    <Option name="NeuronInputType" modified="No">sum</Option>
    <Option name="V" modified="Yes">False</Option>
    <Option name="VerbosityLevel" modified="No">Default</Option>
    <Option name="VarTransform" modified="Yes">Norm</Option>
    <Option name="H" modified="Yes">False</Option>
    <Option name="CreateMVAPdfs" modified="No">False</Option>
    <Option name="IgnoreNegWeightsInTraining" modified="No">False</Option>
    <Option name="TrainingMethod" modified="No">BP</Option>
    <Option name="LearningRate" modified="Yes">9.000000e-02</Option>
    <Option name="DecayRate" modified="Yes">1.000000e-02</Option>
    <Option name="TestRate" modified="No">10</Option>
    <Option name="EpochMonitoring" modified="No">False</Option>
    <Option name="Sampling" modified="No">1.000000e+00</Option>
    <Option name="SamplingEpoch" modified="No">1.000000e+00</Option>
    <Option name="SamplingImportance" modified="No">1.000000e+00</Option>
    <Option name="SamplingTraining" modified="No">True</Option>
    <Option name="SamplingTesting" modified="No">False</Option>
    <Option name="ResetStep" modified="No">50</Option>
    <Option name="Tau" modified="No">3.000000e+00</Option>
    <Option name="BPMode" modified="No">sequential</Option>
    <Option name="BatchSize" modified="No">-1</Option>
    <Option name="ConvergenceImprove" modified="No">1.000000e-30</Option>
    <Option name="ConvergenceTests" modified="No">-1</Option>
    <Option name="UseRegulator" modified="No">False</Option>
    <Option name="UpdateLimit" modified="No">10000</Option>
    <Option name="CalculateErrors" modified="No">False</Option>
    <Option name="WeightRange" modified="No">1.000000e+00</Option>
  </Options>
  <Variables NVar="11">
    <Variable VarIndex="0" Expression="Jet1Pt" Label="Jet1Pt" Title="Jet1Pt" Unit="" Internal="Jet1Pt" Type="F" Min="1.10048698e+02" Max="1.57276038e+03"/>
    <Variable VarIndex="1" Expression="LepPt" Label="LepPt" Title="LepPt" Unit="" Internal="LepPt" Type="F" Min="5.00075817e+00" Max="2.99984379e+01"/>
    <Variable VarIndex="2" Expression="LepChg" Label="LepChg" Title="LepChg" Unit="" Internal="LepChg" Type="F" Min="-1.00000000e+00" Max="1.00000000e+00"/>
    <Variable VarIndex="3" Expression="LepEta" Label="LepEta" Title="LepEta" Unit="" Internal="LepEta" Type="F" Min="-2.48411560e+00" Max="2.49880052e+00"/>
    <Variable VarIndex="4" Expression="Met" Label="Met" Title="Met" Unit="" Internal="Met" Type="F" Min="2.80020294e+02" Max="1.28947937e+03"/>
    <Variable VarIndex="5" Expression="mt" Label="mt" Title="mt" Unit="" Internal="mt" Type="F" Min="5.37815737e-04" Max="3.00527191e+02"/>
    <Variable VarIndex="6" Expression="HT20" Label="HT20" Title="HT20" Unit="" Internal="HT20" Type="F" Min="1.12003395e+02" Max="4.50487305e+03"/>
    <Variable VarIndex="7" Expression="NbLoose30" Label="NbLoose30" Title="NbLoose30" Unit="" Internal="NbLoose30" Type="F" Min="0.00000000e+00" Max="6.00000000e+00"/>
    <Variable VarIndex="8" Expression="Njet" Label="Njet" Title="Njet" Unit="" Internal="Njet" Type="F" Min="1.00000000e+00" Max="1.40000000e+01"/>
    <Variable VarIndex="9" Expression="JetHBpt" Label="JetHBpt" Title="JetHBpt" Unit="" Internal="JetHBpt" Type="F" Min="-9.99000000e+02" Max="1.37842883e+03"/>
    <Variable VarIndex="10" Expression="DrJetHBLep" Label="DrJetHBLep" Title="DrJetHBLep" Unit="" Internal="DrJetHBLep" Type="F" Min="-9.99000000e+02" Max="5.38026333e+00"/>
  </Variables>
  <Spectators NSpec="0"/>
  <Classes NClass="2">
    <Class Name="Signal" Index="0"/>
    <Class Name="Background" Index="1"/>
  </Classes>
  <Transformations NTransformations="1">
    <Transform Name="Normalize">
      <Selection>
        <Input NInputs="11">
          <Input Type="Variable" Label="Jet1Pt" Expression="Jet1Pt"/>
          <Input Type="Variable" Label="LepPt" Expression="LepPt"/>
          <Input Type="Variable" Label="LepChg" Expression="LepChg"/>
          <Input Type="Variable" Label="LepEta" Expression="LepEta"/>
          <Input Type="Variable" Label="Met" Expression="Met"/>
          <Input Type="Variable" Label="mt" Expression="mt"/>
          <Input Type="Variable" Label="HT20" Expression="HT20"/>
          <Input Type="Variable" Label="NbLoose30" Expression="NbLoose30"/>
          <Input Type="Variable" Label="Njet" Expression="Njet"/>
          <Input Type="Variable" Label="JetHBpt" Expression="JetHBpt"/>
          <Input Type="Variable" Label="DrJetHBLep" Expression="DrJetHBLep"/>
        </Input>
        <Output NOutputs="11">
          <Output Type="Variable" Label="Jet1Pt" Expression="Jet1Pt"/>
          <Output Type="Variable" Label="LepPt" Expression="LepPt"/>
          <Output Type="Variable" Label="LepChg" Expression="LepChg"/>
          <Output Type="Variable" Label="LepEta" Expression="LepEta"/>
          <Output Type="Variable" Label="Met" Expression="Met"/>
          <Output Type="Variable" Label="mt" Expression="mt"/>
          <Output Type="Variable" Label="HT20" Expression="HT20"/>
          <Output Type="Variable" Label="NbLoose30" Expression="NbLoose30"/>
          <Output Type="Variable" Label="Njet" Expression="Njet"/>
          <Output Type="Variable" Label="JetHBpt" Expression="JetHBpt"/>
          <Output Type="Variable" Label="DrJetHBLep" Expression="DrJetHBLep"/>
        </Output>
      </Selection>
      <Class ClassIndex="0">
        <Ranges>
          <Range Index="0" Min="1.1004869842529297e+02" Max="1.2779298095703125e+03"/>
          <Range Index="1" Min="5.0007581710815430e+00" Max="2.9949773788452148e+01"/>
          <Range Index="2" Min="-1.0000000000000000e+00" Max="1.0000000000000000e+00"/>
          <Range Index="3" Min="-2.4711689949035645e+00" Max="2.3791146278381348e+00"/>
          <Range Index="4" Min="2.8022933959960938e+02" Max="1.2514943847656250e+03"/>
          <Range Index="5" Min="5.5733408778905869e-02" Max="3.0052719116210938e+02"/>
          <Range Index="6" Min="1.1735253143310547e+02" Max="2.3474851074218750e+03"/>
          <Range Index="7" Min="0.0000000000000000e+00" Max="5.0000000000000000e+00"/>
          <Range Index="8" Min="1.0000000000000000e+00" Max="1.1000000000000000e+01"/>
          <Range Index="9" Min="2.0057344436645508e+01" Max="1.0570437011718750e+03"/>
          <Range Index="10" Min="6.2708742916584015e-05" Max="4.9576835632324219e+00"/>
        </Ranges>
      </Class>
      <Class ClassIndex="1">
        <Ranges>
          <Range Index="0" Min="1.1005755615234375e+02" Max="1.5727603759765625e+03"/>
          <Range Index="1" Min="5.0013527870178223e+00" Max="2.9998437881469727e+01"/>
          <Range Index="2" Min="-1.0000000000000000e+00" Max="1.0000000000000000e+00"/>
          <Range Index="3" Min="-2.4841156005859375e+00" Max="2.4988005161285400e+00"/>
          <Range Index="4" Min="2.8002029418945312e+02" Max="1.2894793701171875e+03"/>
          <Range Index="5" Min="5.3781573660671711e-04" Max="2.1579251098632812e+02"/>
          <Range Index="6" Min="1.1200339508056641e+02" Max="4.5048730468750000e+03"/>
          <Range Index="7" Min="0.0000000000000000e+00" Max="6.0000000000000000e+00"/>
          <Range Index="8" Min="1.0000000000000000e+00" Max="1.4000000000000000e+01"/>
          <Range Index="9" Min="-9.9900000000000000e+02" Max="1.3784288330078125e+03"/>
          <Range Index="10" Min="-9.9900000000000000e+02" Max="5.3802633285522461e+00"/>
        </Ranges>
      </Class>
      <Class ClassIndex="2">
        <Ranges>
          <Range Index="0" Min="1.1004869842529297e+02" Max="1.5727603759765625e+03"/>
          <Range Index="1" Min="5.0007581710815430e+00" Max="2.9998437881469727e+01"/>
          <Range Index="2" Min="-1.0000000000000000e+00" Max="1.0000000000000000e+00"/>
          <Range Index="3" Min="-2.4841156005859375e+00" Max="2.4988005161285400e+00"/>
          <Range Index="4" Min="2.8002029418945312e+02" Max="1.2894793701171875e+03"/>
          <Range Index="5" Min="5.3781573660671711e-04" Max="3.0052719116210938e+02"/>
          <Range Index="6" Min="1.1200339508056641e+02" Max="4.5048730468750000e+03"/>
          <Range Index="7" Min="0.0000000000000000e+00" Max="6.0000000000000000e+00"/>
          <Range Index="8" Min="1.0000000000000000e+00" Max="1.4000000000000000e+01"/>
          <Range Index="9" Min="-9.9900000000000000e+02" Max="1.3784288330078125e+03"/>
          <Range Index="10" Min="-9.9900000000000000e+02" Max="5.3802633285522461e+00"/>
        </Ranges>
      </Class>
    </Transform>
  </Transformations>
  <MVAPdfs/>
  <Weights>
    <Layout NLayers="5">
      <Layer Index="0" NNeurons="12">
        <Neuron NSynapses="11">
          -6.5262115614833704e-01 1.1607950057907057e+00 1.2560498383032868e+00 4.4755732335827658e-01 -1.5449772560321282e+00 -1.3935717098025873e+00 1.0727913441455046e+00 2.0106192229174109e+00 -2.9858484923808617e+00 2.7583007615152794e-01 -6.2825795184375899e+00 
        </Neuron>
        <Neuron NSynapses="11">
          -6.5802654974295405e-01 -3.1795408934847358e-01 -3.3324735114085202e-01 -2.9081204419645053e+00 3.8552009243028307e-01 1.5500725321004187e+00 2.1586079764611217e+00 2.0640245919621367e-01 5.0819306440108427e+00 2.3641811973935098e+00 -1.2023474584582909e+00 
        </Neuron>
        <Neuron NSynapses="11">
          3.8623926939187830e-01 1.6915112266557869e-01 -7.3185026999234937e-01 -1.4768008049622825e+00 -1.6140100817294163e+00 -4.6616336745128697e+00 -3.3332779827942556e+00 3.4153382905622126e-01 -1.2314856077133101e+00 1.4771135056251903e+00 -2.2390118228048003e-01 
        </Neuron>
        <Neuron NSynapses="11">
          1.5353880176546502e+00 4.0599337786216261e-01 -1.3913987677284165e+00 5.3985172966249917e-01 8.7866445955090597e+00 -3.3661457657250411e+00 1.5683735917549526e+00 1.0269103689780850e+00 -6.3740661897927453e-01 -1.7954597407242776e-01 -9.2743902966633729e-01 
        </Neuron>
        <Neuron NSynapses="11">
          5.6123755315127086e+00 -2.5738622516366081e+00 1.1736073492115626e+01 4.9947993268825774e+00 -6.1937316556357191e-01 -1.1704222233169683e+00 4.1040909696002643e+00 1.3593184132574208e+00 -4.8202146810405244e+00 5.2675284358098795e-01 -1.2657757579191942e+00 
        </Neuron>
        <Neuron NSynapses="11">
          1.0396158841367931e+00 -1.5795816399053310e+01 -3.5989391303978091e+00 1.5049796057755380e+00 1.1810983584168613e+00 1.7327824581155558e+00 5.7254194300702632e-01 -4.8693955686905421e-01 2.8344204641543533e+00 2.6980975388313340e+00 2.1594036567135348e+00 
        </Neuron>
        <Neuron NSynapses="11">
          -3.4917053855544284e+00 3.6920067936361236e+00 -4.9442837840856111e+00 -3.9717180317211662e+00 1.4514252641417946e+00 -6.4329686311523793e-01 -4.3667267998540865e-01 1.0372175027493635e+00 4.0534079858128127e+00 2.4213188114966875e+00 -1.2829102530880854e+00 
        </Neuron>
        <Neuron NSynapses="11">
          -5.7209158391887085e+00 -1.8433797921514898e+00 -8.7723148698968323e-01 5.8775460613692454e-01 -1.2759627954017125e-01 2.4092175643809974e+00 -1.9556297687794311e+00 -9.7410151827847613e-01 9.8847928716066213e-01 -9.1863366705623867e-02 7.3659586009351485e-01 
        </Neuron>
        <Neuron NSynapses="11">
          -4.0733816879832094e+00 5.5737039066085015e-01 1.1207227554647896e+00 5.7569922929641811e-02 -1.0725942922362619e+00 -2.8180206378574213e+00 -1.4366884160630069e+00 1.6866993048402132e+00 -1.0472620957063601e+00 -8.8161647905751668e+00 -4.4027148136880667e+00 
        </Neuron>
        <Neuron NSynapses="11">
          -2.2461892488568873e+00 3.6378597527947565e+00 -5.1776016764984059e+00 6.4719410107193054e-01 7.3957648352367044e-03 -7.6060979324784705e-01 2.0508163345203632e+00 -8.2931709706233803e-01 -4.8213730965624855e+00 -2.0043199383765917e-01 -8.0790881355956912e-01 
        </Neuron>
        <Neuron NSynapses="11">
          -2.8915784797138913e+00 -2.1681036562865335e+00 1.4748383386181614e+00 1.2590738859478650e+00 -2.5254556116861382e+00 1.1767437044285693e+00 6.9825302353525487e-01 -7.7385886132575521e-01 -3.0652331167980607e-01 -1.7452639814996751e+00 -4.3270755426958765e+00 
        </Neuron>
        <Neuron NSynapses="11">
          -9.9973438224822797e-01 -2.8240554362977304e+00 2.5433652026444635e+00 1.4829499894723934e+00 -1.0882353276349341e+00 -8.7803152464380663e-01 4.3762061162022042e-01 -1.6321258208526170e+00 3.9524534386703120e-01 -4.0549259720408609e-01 -4.5149851790559667e+00 
        </Neuron>
      </Layer>
      <Layer Index="1" NNeurons="12">
        <Neuron NSynapses="11">
          -7.5026725657625382e-01 -1.8103791852397852e+00 1.0594453561238688e+00 2.7464257158744059e+00 4.0894771138404993e+00 -2.2859812812787283e+00 1.9081759986728800e-01 5.1610801553561929e+00 1.6082031604966640e+00 -6.5317543239820552e-01 -5.3613099644723858e+00 
        </Neuron>
        <Neuron NSynapses="11">
          1.0627432823981715e+00 -2.5757390843338079e+00 3.8535384729990940e+00 2.3000223904702506e+00 7.0536430352431040e-02 -3.7265018484102702e-01 -1.1832350671724303e+00 -6.4290567094229205e+00 -4.9119623986294836e-01 -3.6610971562328487e-01 -1.0890764753131512e+00 
        </Neuron>
        <Neuron NSynapses="11">
          -4.8322850515340114e+00 8.8746599793700709e-01 3.3724866429109754e+00 2.5248306890790335e+00 1.5359973011527536e-01 -1.2270413642494449e+00 2.6058701726564220e+00 4.8755057993500799e+00 1.4199726379995914e+00 6.9353281933792555e-03 -6.9396647576247028e-01 
        </Neuron>
        <Neuron NSynapses="11">
          -1.4987023960064476e+00 -1.6818254785520446e+00 -1.0789989704817332e-01 -3.7431382914888784e+00 -2.7697259234522753e-01 1.4259676498965943e+00 1.4909746246895226e+00 9.5361950608588808e-01 2.9647552113579168e+00 2.0932774789921447e+00 -2.8594294117203756e+00 
        </Neuron>
        <Neuron NSynapses="11">
          1.5283072096781609e+00 -2.2107970938400898e+00 -3.3432223171676192e+00 -2.0090676199398856e+00 -3.0919645393689952e+00 7.1463396411953872e-01 2.7613715624921644e+00 -1.3422589516804966e+00 -3.7409591399199358e+00 -2.5352187915736941e+00 -2.9740895738794180e+00 
        </Neuron>
        <Neuron NSynapses="11">
          -7.7174836706468253e-01 -5.8303041345149098e-01 1.8107503311370250e+00 3.8792979299278257e-01 2.6670259735926616e-01 1.7670235442093605e+00 1.2796387232388224e+00 -4.2621726190923370e+00 -1.2874473439026992e+00 -2.5830085319829990e+00 1.2959402472073824e+00 
        </Neuron>
        <Neuron NSynapses="11">
          -8.1604293466398392e-01 -1.5512893461934547e+00 2.4460870929628284e+00 -3.9006683015640205e-02 1.1480826061620362e+00 -2.1084868689403886e+00 3.7402591528135622e+00 2.3513694385428141e+00 7.9437929949819341e-01 4.9452409232054645e-01 1.5309940974706917e+00 
        </Neuron>
        <Neuron NSynapses="11">
          1.0092710032499048e+00 4.6388962795815092e-01 -3.7144131748488463e-02 -2.1666246837330911e+00 -9.2922469235869809e-01 1.7073148021972848e+00 1.2995660951854531e+00 7.7443768615371267e-01 6.1915863178559676e-02 2.0232412944040448e+00 -1.6003433110718057e+00 
        </Neuron>
        <Neuron NSynapses="11">
          7.7739232170281836e-01 1.7006829742519827e-01 -3.7767281736985545e+00 -2.0800399566778660e-01 -1.1338688398884723e-01 -1.2584808528471410e+00 -2.2330432509481213e+00 1.2050816897563636e+00 -4.1962799098757211e+00 -3.1262982606141181e+00 2.6889152923551460e+00 
        </Neuron>
        <Neuron NSynapses="11">
          -7.1262510368456444e-01 1.8289230990324823e+00 -2.8666012939692900e+00 3.8476341228926043e+00 -1.8763038945123378e+00 7.9476062938930037e-01 -1.7134595578217600e+00 -3.5627671363322064e+00 4.1185557316661320e-01 -3.7158383112613134e+00 -2.3886427790945133e+00 
        </Neuron>
        <Neuron NSynapses="11">
          -1.5956201010086513e+00 -2.6347608529004578e+00 -2.9796470957365444e+00 5.7118043939380636e-01 -4.5825706213827422e+00 -1.6908621378209652e+00 1.0848141681828058e+00 -2.6977501764149130e+00 2.6781806884586967e-01 -6.3869962843308403e-01 6.2314630931435278e-01 
        </Neuron>
        <Neuron NSynapses="11">
          2.8046553259062237e+00 1.0825599708429210e+00 -7.7709841566222404e-02 -2.9508097063823082e+00 -1.9057399989102346e+00 -1.0603521809984988e+00 -3.3139711456309269e+00 1.9139729875010953e+00 1.1683371985810689e+00 2.4563446870873311e+00 -1.0515881463518165e-01 
        </Neuron>
      </Layer>
      <Layer Index="2" NNeurons="12">
        <Neuron NSynapses="13">
          5.3489585690686103e-01 -2.0976670865939453e+00 -1.9665366645807676e+00 8.3233935893164612e-01 1.0353261220227958e+00 -9.4415246870903047e-01 -1.1512528073569872e+00 -2.5774351339638452e-01 1.7629478855668870e+00 -1.4530584803522941e+00 -9.7565342504673580e-01 -2.7225585928551044e+00 6.4621478832483226e-01 
        </Neuron>
        <Neuron NSynapses="13">
          4.5899991169043258e-01 7.2288792507363286e-01 1.7973177171131627e+00 -3.3432910901395435e-01 -5.2654013609064187e-01 -1.6035511144736567e+00 -8.1738628027034677e-01 -2.5856150708445917e+00 -1.6235675932227089e+00 -1.2668161351157377e+00 2.2568872401436333e+00 -1.8127029401184640e+00 9.7824330486415656e-01 
        </Neuron>
        <Neuron NSynapses="13">
          -4.1058151350882008e+00 1.5978529218848327e+00 -3.9195527492106375e+00 -5.5151492783804135e-01 -1.2814117012050880e-01 -2.2143384069594769e+00 -1.0869922773406322e+00 -1.2441114882631974e+00 -3.9904662512510027e+00 -3.3824041589345057e+00 -3.7220946890422022e+00 -1.2860324373922485e+00 1.7003474463337814e-01 
        </Neuron>
        <Neuron NSynapses="13">
          -2.2652181389049546e+00 4.3382084586934933e-01 -1.4796318302258136e+00 -3.7234823737704215e+00 -2.7157818570404699e+00 -1.6428860736783626e+00 -2.4329826928721197e+00 -1.0330643345956605e+00 -1.6849749017179050e+00 -3.1589087696443294e+00 3.5527365374164799e-01 1.5197153940344150e+00 -2.3397101581193533e+00 
        </Neuron>
        <Neuron NSynapses="13">
          7.9204314686370503e-01 -2.1175585261832759e+00 2.9465671157335662e+00 3.9284566034443608e-01 -1.2492121752996297e+00 -1.5135340406595157e+00 -6.1164486845191723e-01 -2.4351363178963599e+00 -2.5327887140066146e-01 2.6876002178313132e+00 1.4665113663895863e+00 -2.1460066373456024e-01 -1.9285226179420767e+00 
        </Neuron>
        <Neuron NSynapses="13">
          5.6235653655748352e-01 -2.0511580311323852e+00 3.6895769818837948e-01 -1.6243073812438997e+00 -2.0509687496296714e+00 3.1408455163101451e-02 1.7545879190624614e+00 5.4510726242427687e-01 5.9478703387347676e-01 3.0747056060062772e-01 -3.4430152120679730e-01 -4.6932513008096438e-01 1.8525419194505480e-01 
        </Neuron>
        <Neuron NSynapses="13">
          5.1406336296216026e-01 -5.9338633475508340e-01 8.2041935371832753e-01 -2.5244384287000625e+00 -1.4931277144047077e+00 -5.9877088183742455e-01 -1.1919192371851077e+00 -1.7902990854967307e+00 -1.0765522686451980e-01 2.2019241921232537e+00 2.4066786839706078e-01 -2.1394311762181464e+00 -2.1526659447748506e+00 
        </Neuron>
        <Neuron NSynapses="13">
          -2.4343541350995399e+00 -8.0680457659051918e-01 2.1227480663636245e+00 -2.1180376873112188e+00 -1.9180549778498663e+00 -2.3531226983729758e-01 -3.1701326372653691e+00 -2.7974501496149924e+00 -2.3274694037656465e+00 4.6583515102418954e-02 -1.0019064287290096e+00 -3.8804511518779097e+00 -1.2263435664945002e+00 
        </Neuron>
        <Neuron NSynapses="13">
          -2.8495526678802703e+00 -8.0154013260067913e-01 2.0193630065727941e+00 -1.9175209223038654e+00 -1.4197900415452367e+00 1.1633456117975995e+00 3.0050032861742071e-01 -6.0503860658140907e-01 -1.4173697715667195e+00 7.8492653808017177e-01 7.9433845008518389e-01 -1.7150464701947632e-01 -1.5235990476864594e+00 
        </Neuron>
        <Neuron NSynapses="13">
          -1.8121670046271983e+00 -2.1877697997435863e+00 8.9751160729794943e-01 6.4325494715359410e-01 4.4287575907983429e-01 5.1512225333225781e-01 1.8432580957865998e+00 1.0786974827594353e+00 -1.8996603545777182e+00 1.5465202035520251e+00 2.4451265292611504e-01 -3.9551889781069622e+00 -8.7732822837109592e-01 
        </Neuron>
        <Neuron NSynapses="13">
          -2.7036933161383940e+00 4.8258680356155803e-01 -3.0972598098508614e-01 2.5075034495266908e+00 2.5874763495700805e+00 -6.2890677652437399e-01 3.5292725597240953e+00 2.1153467451907724e+00 -1.5956334804593777e+00 -9.2096410268418127e-01 1.5884395914148144e+00 -3.5286161466831456e+00 6.1161491200751950e-01 
        </Neuron>
        <Neuron NSynapses="13">
          1.4139002666707770e+00 -3.6594936551292861e-01 -1.6892175217469796e+00 -2.8654640924082181e-01 -1.3910537536018486e+00 6.1293780649767871e-02 -1.3774075257013429e+00 -5.2574094905015223e-01 5.5049830545932010e-01 -1.0254217752683048e+00 -9.1496259180633721e-01 1.4060732201860346e+00 -1.6349928564250855e+00 
        </Neuron>
      </Layer>
      <Layer Index="3" NNeurons="14">
        <Neuron NSynapses="1">
          -3.8572308689543706e+00 
        </Neuron>
        <Neuron NSynapses="1">
          -1.8555478798965377e+00 
        </Neuron>
        <Neuron NSynapses="1">
          2.1901872304482812e+00 
        </Neuron>
        <Neuron NSynapses="1">
          -3.1295369874439340e+00 
        </Neuron>
        <Neuron NSynapses="1">
          -2.3397551576126916e+00 
        </Neuron>
        <Neuron NSynapses="1">
          -1.0720609205029163e+00 
        </Neuron>
        <Neuron NSynapses="1">
          -3.0428767326009845e+00 
        </Neuron>
        <Neuron NSynapses="1">
          -2.0644797936140673e+00 
        </Neuron>
        <Neuron NSynapses="1">
          -3.4819684834209941e+00 
        </Neuron>
        <Neuron NSynapses="1">
          2.4558477549459603e+00 
        </Neuron>
        <Neuron NSynapses="1">
          1.6105860379405936e+00 
        </Neuron>
        <Neuron NSynapses="1">
          -3.6015702697679037e+00 
        </Neuron>
        <Neuron NSynapses="1">
          -1.6053896079543974e+00 
        </Neuron>
        <Neuron NSynapses="1">
          6.3954234836049006e-01 
        </Neuron>
      </Layer>
      <Layer Index="4" NNeurons="1">
        <Neuron NSynapses="0"/>
      </Layer>
    </Layout>
  </Weights>
</MethodSetup>
