<?xml version="1.0"?>
<MethodSetup Method="MLP::MLP_ANN_N3_NC500">
  <GeneralInfo>
    <Info name="TMVA Release" value="4.2.1 [262657]"/>
    <Info name="ROOT Release" value="6.06/01 [394753]"/>
    <Info name="Creator" value="brucms16"/>
    <Info name="Date" value="Wed Sep  7 03:35:47 2016"/>
    <Info name="Host" value="Linux vocms0315.cern.ch 2.6.32-573.26.1.el6.x86_64 #1 SMP Wed May 4 09:23:05 CEST 2016 x86_64 x86_64 x86_64 GNU/Linux"/>
    <Info name="Dir" value="/home/t3cms/brucms16/CMSSW_8_0_14/src/UserCode/SkeletonAnalysis/macros"/>
    <Info name="Training events" value="15056"/>
    <Info name="TrainingTime" value="2.54898348e+02"/>
    <Info name="AnalysisType" value="Classification"/>
  </GeneralInfo>
  <Options>
    <Option name="NCycles" modified="Yes">500</Option>
    <Option name="HiddenLayers" modified="Yes">N,N,N+3</Option>
    <Option name="NeuronType" modified="No">sigmoid</Option>
    <Option name="RandomSeed" modified="No">1</Option>
    <Option name="EstimatorType" modified="No">CE</Option>
    <Option name="NeuronInputType" modified="No">sum</Option>
    <Option name="V" modified="Yes">False</Option>
    <Option name="VerbosityLevel" modified="No">Default</Option>
    <Option name="VarTransform" modified="Yes">Norm</Option>
    <Option name="H" modified="Yes">False</Option>
    <Option name="CreateMVAPdfs" modified="No">False</Option>
    <Option name="IgnoreNegWeightsInTraining" modified="No">False</Option>
    <Option name="TrainingMethod" modified="No">BP</Option>
    <Option name="LearningRate" modified="Yes">9.000000e-02</Option>
    <Option name="DecayRate" modified="Yes">1.000000e-02</Option>
    <Option name="TestRate" modified="No">10</Option>
    <Option name="EpochMonitoring" modified="No">False</Option>
    <Option name="Sampling" modified="No">1.000000e+00</Option>
    <Option name="SamplingEpoch" modified="No">1.000000e+00</Option>
    <Option name="SamplingImportance" modified="No">1.000000e+00</Option>
    <Option name="SamplingTraining" modified="No">True</Option>
    <Option name="SamplingTesting" modified="No">False</Option>
    <Option name="ResetStep" modified="No">50</Option>
    <Option name="Tau" modified="No">3.000000e+00</Option>
    <Option name="BPMode" modified="No">sequential</Option>
    <Option name="BatchSize" modified="No">-1</Option>
    <Option name="ConvergenceImprove" modified="No">1.000000e-30</Option>
    <Option name="ConvergenceTests" modified="No">-1</Option>
    <Option name="UseRegulator" modified="No">False</Option>
    <Option name="UpdateLimit" modified="No">10000</Option>
    <Option name="CalculateErrors" modified="No">False</Option>
    <Option name="WeightRange" modified="No">1.000000e+00</Option>
  </Options>
  <Variables NVar="11">
    <Variable VarIndex="0" Expression="Jet1Pt" Label="Jet1Pt" Title="Jet1Pt" Unit="" Internal="Jet1Pt" Type="F" Min="1.10048698e+02" Max="1.57276038e+03"/>
    <Variable VarIndex="1" Expression="LepPt" Label="LepPt" Title="LepPt" Unit="" Internal="LepPt" Type="F" Min="5.00075817e+00" Max="2.99984379e+01"/>
    <Variable VarIndex="2" Expression="LepChg" Label="LepChg" Title="LepChg" Unit="" Internal="LepChg" Type="F" Min="-1.00000000e+00" Max="1.00000000e+00"/>
    <Variable VarIndex="3" Expression="LepEta" Label="LepEta" Title="LepEta" Unit="" Internal="LepEta" Type="F" Min="-2.48411560e+00" Max="2.49880052e+00"/>
    <Variable VarIndex="4" Expression="Met" Label="Met" Title="Met" Unit="" Internal="Met" Type="F" Min="2.80020294e+02" Max="1.28947937e+03"/>
    <Variable VarIndex="5" Expression="mt" Label="mt" Title="mt" Unit="" Internal="mt" Type="F" Min="5.37815737e-04" Max="3.00527191e+02"/>
    <Variable VarIndex="6" Expression="HT20" Label="HT20" Title="HT20" Unit="" Internal="HT20" Type="F" Min="1.12003395e+02" Max="4.50487305e+03"/>
    <Variable VarIndex="7" Expression="NbLoose30" Label="NbLoose30" Title="NbLoose30" Unit="" Internal="NbLoose30" Type="F" Min="0.00000000e+00" Max="6.00000000e+00"/>
    <Variable VarIndex="8" Expression="Njet" Label="Njet" Title="Njet" Unit="" Internal="Njet" Type="F" Min="1.00000000e+00" Max="1.40000000e+01"/>
    <Variable VarIndex="9" Expression="JetHBpt" Label="JetHBpt" Title="JetHBpt" Unit="" Internal="JetHBpt" Type="F" Min="-9.99000000e+02" Max="1.37842883e+03"/>
    <Variable VarIndex="10" Expression="DrJetHBLep" Label="DrJetHBLep" Title="DrJetHBLep" Unit="" Internal="DrJetHBLep" Type="F" Min="-9.99000000e+02" Max="5.38026333e+00"/>
  </Variables>
  <Spectators NSpec="0"/>
  <Classes NClass="2">
    <Class Name="Signal" Index="0"/>
    <Class Name="Background" Index="1"/>
  </Classes>
  <Transformations NTransformations="1">
    <Transform Name="Normalize">
      <Selection>
        <Input NInputs="11">
          <Input Type="Variable" Label="Jet1Pt" Expression="Jet1Pt"/>
          <Input Type="Variable" Label="LepPt" Expression="LepPt"/>
          <Input Type="Variable" Label="LepChg" Expression="LepChg"/>
          <Input Type="Variable" Label="LepEta" Expression="LepEta"/>
          <Input Type="Variable" Label="Met" Expression="Met"/>
          <Input Type="Variable" Label="mt" Expression="mt"/>
          <Input Type="Variable" Label="HT20" Expression="HT20"/>
          <Input Type="Variable" Label="NbLoose30" Expression="NbLoose30"/>
          <Input Type="Variable" Label="Njet" Expression="Njet"/>
          <Input Type="Variable" Label="JetHBpt" Expression="JetHBpt"/>
          <Input Type="Variable" Label="DrJetHBLep" Expression="DrJetHBLep"/>
        </Input>
        <Output NOutputs="11">
          <Output Type="Variable" Label="Jet1Pt" Expression="Jet1Pt"/>
          <Output Type="Variable" Label="LepPt" Expression="LepPt"/>
          <Output Type="Variable" Label="LepChg" Expression="LepChg"/>
          <Output Type="Variable" Label="LepEta" Expression="LepEta"/>
          <Output Type="Variable" Label="Met" Expression="Met"/>
          <Output Type="Variable" Label="mt" Expression="mt"/>
          <Output Type="Variable" Label="HT20" Expression="HT20"/>
          <Output Type="Variable" Label="NbLoose30" Expression="NbLoose30"/>
          <Output Type="Variable" Label="Njet" Expression="Njet"/>
          <Output Type="Variable" Label="JetHBpt" Expression="JetHBpt"/>
          <Output Type="Variable" Label="DrJetHBLep" Expression="DrJetHBLep"/>
        </Output>
      </Selection>
      <Class ClassIndex="0">
        <Ranges>
          <Range Index="0" Min="1.1004869842529297e+02" Max="1.2779298095703125e+03"/>
          <Range Index="1" Min="5.0007581710815430e+00" Max="2.9949773788452148e+01"/>
          <Range Index="2" Min="-1.0000000000000000e+00" Max="1.0000000000000000e+00"/>
          <Range Index="3" Min="-2.4711689949035645e+00" Max="2.3791146278381348e+00"/>
          <Range Index="4" Min="2.8022933959960938e+02" Max="1.2514943847656250e+03"/>
          <Range Index="5" Min="5.5733408778905869e-02" Max="3.0052719116210938e+02"/>
          <Range Index="6" Min="1.1735253143310547e+02" Max="2.3474851074218750e+03"/>
          <Range Index="7" Min="0.0000000000000000e+00" Max="5.0000000000000000e+00"/>
          <Range Index="8" Min="1.0000000000000000e+00" Max="1.1000000000000000e+01"/>
          <Range Index="9" Min="2.0057344436645508e+01" Max="1.0570437011718750e+03"/>
          <Range Index="10" Min="6.2708742916584015e-05" Max="4.9576835632324219e+00"/>
        </Ranges>
      </Class>
      <Class ClassIndex="1">
        <Ranges>
          <Range Index="0" Min="1.1005755615234375e+02" Max="1.5727603759765625e+03"/>
          <Range Index="1" Min="5.0013527870178223e+00" Max="2.9998437881469727e+01"/>
          <Range Index="2" Min="-1.0000000000000000e+00" Max="1.0000000000000000e+00"/>
          <Range Index="3" Min="-2.4841156005859375e+00" Max="2.4988005161285400e+00"/>
          <Range Index="4" Min="2.8002029418945312e+02" Max="1.2894793701171875e+03"/>
          <Range Index="5" Min="5.3781573660671711e-04" Max="2.1579251098632812e+02"/>
          <Range Index="6" Min="1.1200339508056641e+02" Max="4.5048730468750000e+03"/>
          <Range Index="7" Min="0.0000000000000000e+00" Max="6.0000000000000000e+00"/>
          <Range Index="8" Min="1.0000000000000000e+00" Max="1.4000000000000000e+01"/>
          <Range Index="9" Min="-9.9900000000000000e+02" Max="1.3784288330078125e+03"/>
          <Range Index="10" Min="-9.9900000000000000e+02" Max="5.3802633285522461e+00"/>
        </Ranges>
      </Class>
      <Class ClassIndex="2">
        <Ranges>
          <Range Index="0" Min="1.1004869842529297e+02" Max="1.5727603759765625e+03"/>
          <Range Index="1" Min="5.0007581710815430e+00" Max="2.9998437881469727e+01"/>
          <Range Index="2" Min="-1.0000000000000000e+00" Max="1.0000000000000000e+00"/>
          <Range Index="3" Min="-2.4841156005859375e+00" Max="2.4988005161285400e+00"/>
          <Range Index="4" Min="2.8002029418945312e+02" Max="1.2894793701171875e+03"/>
          <Range Index="5" Min="5.3781573660671711e-04" Max="3.0052719116210938e+02"/>
          <Range Index="6" Min="1.1200339508056641e+02" Max="4.5048730468750000e+03"/>
          <Range Index="7" Min="0.0000000000000000e+00" Max="6.0000000000000000e+00"/>
          <Range Index="8" Min="1.0000000000000000e+00" Max="1.4000000000000000e+01"/>
          <Range Index="9" Min="-9.9900000000000000e+02" Max="1.3784288330078125e+03"/>
          <Range Index="10" Min="-9.9900000000000000e+02" Max="5.3802633285522461e+00"/>
        </Ranges>
      </Class>
    </Transform>
  </Transformations>
  <MVAPdfs/>
  <Weights>
    <Layout NLayers="5">
      <Layer Index="0" NNeurons="12">
        <Neuron NSynapses="11">
          8.3033826625726515e-01 5.4818212480758810e-01 1.4467576422434429e+00 4.2298195448102263e+00 -2.0274488561487560e+00 -5.2473445582337697e-01 1.3970672959870511e+00 1.4605700136829416e+00 -2.2309212518739101e+00 -3.8004306839050678e-01 -3.4166983682756875e+00 
        </Neuron>
        <Neuron NSynapses="11">
          2.4964567749490985e+00 -3.9864135493022179e-01 -3.1626628527176099e+00 -4.0743527356291070e-01 9.6695093541727661e-01 -1.8951537239731726e+00 2.3875986651705672e+00 -1.8176025286945452e-01 3.1260094627926898e+00 1.0865663012981914e+00 -2.2688348593859750e-01 
        </Neuron>
        <Neuron NSynapses="11">
          1.4282236736928433e+00 8.0351799960640333e-02 5.0070810633309337e-01 -4.2370920791894955e+00 1.2310821443806106e+00 5.8408027511777838e-01 -3.6501870145616526e+00 5.3443603380630966e-01 -3.8143706303003505e-01 -1.3193745125222597e-01 -7.7114401826146151e-01 
        </Neuron>
        <Neuron NSynapses="11">
          9.7164558375271819e-03 5.7281462274444896e-02 1.5771510455350006e+00 -1.0590229319661941e+00 1.5340045233127317e+00 -2.4175361349096063e+00 6.4981171160805207e-01 1.0120921360518180e+00 -3.8687204791075325e-01 5.2110845824031031e+00 -2.9745895060220291e+00 
        </Neuron>
        <Neuron NSynapses="11">
          6.2888546577481437e+00 -2.9454908926799028e+00 9.0932066610133617e+00 6.8210998175868753e-01 2.5005857715076711e+00 6.8081592848063268e+00 4.0587033793609688e+00 1.0978919803296043e+00 -4.3595618234369669e+00 1.9570095164056817e-01 -5.0745057500044588e-01 
        </Neuron>
        <Neuron NSynapses="11">
          -1.6061750790947384e+00 -1.7770856067606903e+01 1.0815684816794359e-01 3.4454643378424961e+00 8.2620958122256810e-02 -2.8244138139110277e+00 -1.3938556459726815e-02 -7.5133964774558037e-01 2.7642191340875413e+00 2.3384536675320886e+00 3.4246849853731427e+00 
        </Neuron>
        <Neuron NSynapses="11">
          -1.3750409741416452e+00 3.6079977896648221e+00 -4.3701906393849423e+00 -7.1036748400254635e-01 -6.0888230436688173e-01 -1.9497081341997344e+00 -1.4237895676000872e-01 6.2082934395945788e-01 3.6985378589236428e+00 1.7992101511324261e+00 -6.8816251445314036e-01 
        </Neuron>
        <Neuron NSynapses="11">
          -6.6513861794145983e+00 -3.7306511173132934e-01 -3.7699955193398469e+00 3.4250167400292214e-01 1.7000072768379373e+00 1.4313671470276179e+00 -2.9548059431395890e+00 -1.3330270850407975e+00 6.7109287289162356e-01 2.1600445618275801e-01 -8.8254922114971068e-01 
        </Neuron>
        <Neuron NSynapses="11">
          -5.8553152897560592e+00 2.6929755997454308e-01 -7.6598564309783113e-01 1.2796015939581848e+00 1.6045927089711720e+00 -1.0758180747983292e+00 -2.2207335940843969e+00 1.6806973578096061e+00 -3.8015017816555359e+00 -5.7678187241437353e+00 -6.5295913113528279e+00 
        </Neuron>
        <Neuron NSynapses="11">
          -1.5164133966758195e+00 3.2321537613439286e+00 -5.3444325681657192e+00 1.0810725123422773e+00 1.2964885722728015e+00 1.8049307561515532e-01 3.7467159539337787e+00 -1.1232059999385839e+00 4.0313727341769812e-01 -1.2817184424126751e+00 -3.8484893069271936e-01 
        </Neuron>
        <Neuron NSynapses="11">
          -1.7755495201619873e+00 -2.3066495248172862e+00 1.2361317555407971e+00 1.0149082546083810e+00 -1.7478614204244276e+00 2.7376816646968987e+00 4.7807964780483536e-01 -5.3273548842407226e-01 -4.6720359425557895e-01 -2.5281952460827606e+00 -4.3516706641447218e+00 
        </Neuron>
        <Neuron NSynapses="11">
          1.8214790938938591e-01 -2.9853794157185569e+00 2.4533273344951119e+00 1.3068145764483345e+00 -3.6669117070363971e-01 4.9769700127410599e-01 1.7434654834191704e-01 -1.3758560079764710e+00 2.5462730206380241e-01 -9.4741706510391288e-01 -4.4314353364697752e+00 
        </Neuron>
      </Layer>
      <Layer Index="1" NNeurons="12">
        <Neuron NSynapses="11">
          7.0477503219867865e-01 -7.9411947184542331e-01 1.8098553927174783e+00 -1.4540824738932490e+00 3.3069409400471117e+00 -2.3222882719303621e+00 -1.5452336239323008e+00 3.5375557563806734e+00 1.8406679664413432e+00 -3.8622462202172927e+00 -1.6986704369813719e+00 
        </Neuron>
        <Neuron NSynapses="11">
          1.2704758634730633e+00 -3.5436178347295071e+00 8.2399495200468209e-01 3.4436745179542050e+00 -2.4148069539575348e+00 2.6132149865486798e-01 -2.3780696604614602e+00 -5.0607864058805889e+00 -2.2810544485806412e+00 -1.2945611570731033e+00 -1.2669200432321506e+00 
        </Neuron>
        <Neuron NSynapses="11">
          -9.1947377204853042e-01 2.2122125726746153e-01 1.7809504583038556e+00 -2.6092995179897271e+00 -8.6545603309344832e-01 -1.0827990794877482e+00 3.6816380887440894e+00 3.0058470483854429e+00 2.9421748649989290e+00 -1.8937858921939006e+00 2.1695221426105555e+00 
        </Neuron>
        <Neuron NSynapses="11">
          -7.7977981087411830e-01 -8.3718958040564506e-01 1.1412717625202420e+00 -1.5951973410640625e+00 -1.7318047720882526e-01 8.3188537290664644e-01 2.3952622032308497e+00 7.5334935106736844e-01 2.6769246618075218e+00 4.1843568923281174e+00 -2.1839738357279224e+00 
        </Neuron>
        <Neuron NSynapses="11">
          5.0054583142000075e-01 -5.6237644885543711e-02 6.3507599939081694e-01 -1.8652502548403733e+00 -1.0131919185473421e+00 1.2985960441861246e+00 2.6842213106901029e+00 -1.0009454134162257e+00 1.6465204105524861e-01 -3.8207397158306144e-01 3.9804812101904735e-01 
        </Neuron>
        <Neuron NSynapses="11">
          7.7760553823964818e-01 -1.3989153186972220e-01 1.0933740868731279e+00 -2.7295030442382711e+00 2.9520224972141480e+00 2.5060391224179490e+00 2.9637690380999806e+00 -2.0002706493033031e+00 -1.3941113070370665e+00 -4.6632784823493090e+00 3.6674508004288439e-02 
        </Neuron>
        <Neuron NSynapses="11">
          8.3972818496151258e-01 -1.1754731311039179e+00 3.7379249137561974e+00 -7.6288774523950365e-01 -4.9593268073070240e-02 -2.9438191425146187e+00 1.8657114351469977e+00 3.4092581971705087e+00 3.2614861666241829e-01 -1.2623097793701687e+00 1.8670596880220420e+00 
        </Neuron>
        <Neuron NSynapses="11">
          1.0990299860904496e+00 4.2283222961972283e-01 -1.7863008699601476e-01 -1.7887198788377048e+00 -9.3840390591794764e-01 1.9405597343942429e+00 1.4358801598144941e+00 9.4560260544938024e-01 4.9377652230133212e-01 1.9849082728566863e+00 -1.6220032415539101e+00 
        </Neuron>
        <Neuron NSynapses="11">
          -1.9629561832535958e+00 -6.0157539373881608e-01 -3.2360056598998543e+00 3.2203354053646498e+00 1.0786306897801388e+00 -2.3888098917965026e+00 -2.4690068893863031e+00 -3.1352442832352443e+00 -2.9175541256072797e+00 1.3776319308346505e+00 2.8532664452448531e-01 
        </Neuron>
        <Neuron NSynapses="11">
          1.1131714547463860e+00 8.9544955616952415e-01 -4.6086335626109136e+00 1.3572932621016958e+00 -3.0533139082725209e+00 9.4381822015743699e-01 -3.0685486169888038e-01 -2.3728356436258764e+00 -2.2577714903992105e+00 -1.7678123641849725e-01 -3.5591453245351418e-01 
        </Neuron>
        <Neuron NSynapses="11">
          -3.3489501041406675e+00 -1.3081331698846781e+00 -4.7820844685069419e+00 1.7429734717284013e+00 -2.2523259195980323e+00 -2.1287272079109103e+00 6.2403768141344806e-01 -5.8079203383214191e+00 -2.3638585851203429e+00 -2.0004466738894862e+00 -6.1259717572502881e-01 
        </Neuron>
        <Neuron NSynapses="11">
          1.9763268448304847e+00 9.6277483122288732e-01 1.4146575472975506e-02 -8.9310875602817297e-01 -1.8589039337238349e+00 -1.3188880308108636e-01 -2.2125938295802352e+00 2.2471626058349443e+00 -8.2855573475902644e-01 1.5652938852239677e+00 -9.6704848453222136e-01 
        </Neuron>
      </Layer>
      <Layer Index="2" NNeurons="12">
        <Neuron NSynapses="14">
          -1.8613497501448264e+00 -5.5042077679283297e-01 -2.9719726389072290e+00 1.6510822111006659e-01 -1.2106671545314005e+00 -1.3055832647649843e+00 -1.9618555743792225e+00 3.5374529246863068e-01 6.6556060417662211e-01 -6.0371012967769089e-01 -1.6925179577704372e+00 -5.4396348291818897e-01 -3.1109957182620041e-01 2.6799221378720156e-01 
        </Neuron>
        <Neuron NSynapses="14">
          7.9181758088621246e-01 -1.8299852176598511e-01 -4.9670657227874082e-01 -4.3662691135765658e-01 -1.7848684053050545e+00 -5.7335086039097838e-01 -1.6842693200045586e+00 -1.5298720349412325e+00 -1.0366771963949610e+00 1.4828021746352766e+00 -1.6974275570758321e+00 1.5347396837387381e+00 -1.6027197464021625e+00 1.0341228533068936e+00 
        </Neuron>
        <Neuron NSynapses="14">
          -3.6664880051675905e+00 1.0416148439956223e+00 -1.2467570735125704e+00 -2.9621800930820807e+00 -9.0273917743176746e-01 3.2671370328646837e-01 -2.5589901136659190e+00 -2.5303258345671078e+00 -2.4529384304404851e+00 -1.9207957800086042e+00 4.2107010034001241e-01 -1.1422698913069018e+00 -2.4240907075570382e-02 -1.1670691233525476e+00 
        </Neuron>
        <Neuron NSynapses="14">
          1.4110368631591410e+00 -1.6753018892568221e+00 -2.8489997217819862e+00 -2.2196843812908318e+00 -2.8399712186377865e-02 -1.3255577681925812e+00 -1.2288430836705084e+00 1.9438110701781606e+00 4.5280277446165701e-01 -2.6715167453580616e-02 2.1403945888812359e+00 -2.8250972841061963e+00 5.5591871003981308e-01 3.0537656222720216e-01 
        </Neuron>
        <Neuron NSynapses="14">
          -3.3048331343907051e+00 -9.0171365202020282e-01 5.9154748014551439e-01 -8.2916226364353895e-01 -7.3683623270968068e-01 1.6698182468450413e+00 2.0387759818333162e+00 2.7904510561217890e+00 -2.8052553901296657e+00 3.0992520929057565e-01 -2.4617195658550677e+00 2.3218709303588758e+00 -3.0397490333036936e+00 -2.0621626892146838e+00 
        </Neuron>
        <Neuron NSynapses="14">
          6.1556260281254460e-01 1.4698665319795812e+00 2.4733149756493109e+00 7.5826910870132669e-01 1.9623611056173132e-01 -1.9627194481569660e-01 -9.6838306208092984e-01 9.5614535295089165e-01 3.0481079494755168e+00 -1.7875497208112763e+00 5.9684961382473845e-01 -1.6586411982511526e+00 -1.7345254449859213e-01 -5.3184671770353867e-02 
        </Neuron>
        <Neuron NSynapses="14">
          -1.4842254339010184e+00 -1.2548640924443919e+00 2.6849813966485305e+00 1.8929288838107905e+00 -3.3184893171225210e-01 -5.5733307668704524e-01 -1.1386172745142871e+00 -2.5166130336024217e+00 -2.6783683790631940e+00 5.1426458809512476e-01 -1.1319415629399729e+00 -1.0009144208056953e+00 -5.3152549227974089e-01 -2.1612695086311375e+00 
        </Neuron>
        <Neuron NSynapses="14">
          -3.6550237494488220e+00 -1.7709843216650554e+00 1.2412980289729292e+00 -1.0802925189140340e+00 -2.4821605841977519e+00 -1.1416085020901605e+00 -1.7232008722342369e+00 -4.0039526590802517e+00 8.0214197359168316e-01 -2.7232352479291997e+00 -1.8605745546965109e+00 3.3059779871197947e+00 1.4530654154518376e-02 1.9398591858413206e-01 
        </Neuron>
        <Neuron NSynapses="14">
          -1.5490203937559703e+00 1.3653433655868983e+00 4.0911729191329327e+00 1.1760275855680953e+00 -1.3423729411715148e+00 -1.0612518833611078e+00 -2.5042753253302816e+00 -2.6994584323239645e-01 1.2054933852069878e+00 -1.0397573916076308e+00 4.9723649565878170e-01 1.7346226751893070e+00 1.2399157590127696e+00 -1.3930494994274252e+00 
        </Neuron>
        <Neuron NSynapses="14">
          3.2105210460745264e+00 8.3049002624648549e-01 -3.8492042309919454e+00 -7.7638273757120346e-01 -1.2926475664751804e+00 9.6910147142372005e-01 6.2205372977020534e-01 1.1519250502884988e+00 2.4722452870232718e+00 -5.2305629417042931e-01 1.6502682497423429e+00 -4.9228997697904681e-01 9.6075349706534519e-01 -1.3483845180392808e+00 
        </Neuron>
        <Neuron NSynapses="14">
          7.0191884654077408e-01 -1.6623486362527877e+00 1.6209304998383556e-01 1.2304277568843949e+00 -7.6013704090366108e-01 -8.6066082114447617e-01 5.1887256829745175e-02 -1.9043962122442433e+00 6.5220590543971546e-01 -2.1689321831193049e+00 1.8356043773356137e-01 -9.9759361630331156e-01 2.3663853890154884e+00 9.4567367170431926e-01 
        </Neuron>
        <Neuron NSynapses="14">
          1.3014118891576534e+00 3.1064908621636758e-02 -2.3443354450890030e+00 -7.4988204274484505e-01 -2.1890529185142193e-01 -1.9474697351179995e+00 -6.6908898461562449e-01 -1.5456674019931321e-02 -1.5493874710628708e+00 -2.0030355279103795e+00 -2.0119494236186375e+00 -3.3802275163480866e-01 -1.4272976286900170e+00 -2.8675869234699327e+00 
        </Neuron>
      </Layer>
      <Layer Index="3" NNeurons="15">
        <Neuron NSynapses="1">
          -4.1581922835189085e+00 
        </Neuron>
        <Neuron NSynapses="1">
          -1.4921207275621537e+00 
        </Neuron>
        <Neuron NSynapses="1">
          2.9315558819857412e+00 
        </Neuron>
        <Neuron NSynapses="1">
          1.0683172643236085e+00 
        </Neuron>
        <Neuron NSynapses="1">
          -9.5263966764283725e-01 
        </Neuron>
        <Neuron NSynapses="1">
          -9.2460585964349207e-01 
        </Neuron>
        <Neuron NSynapses="1">
          -2.8342022748005040e+00 
        </Neuron>
        <Neuron NSynapses="1">
          -1.8422572064485172e+00 
        </Neuron>
        <Neuron NSynapses="1">
          -3.0271929845418817e+00 
        </Neuron>
        <Neuron NSynapses="1">
          -1.6520440555793914e+00 
        </Neuron>
        <Neuron NSynapses="1">
          -1.9297227726011428e+00 
        </Neuron>
        <Neuron NSynapses="1">
          8.0214128881348423e-01 
        </Neuron>
        <Neuron NSynapses="1">
          -1.6494196796723073e+00 
        </Neuron>
        <Neuron NSynapses="1">
          7.3635745973464561e-01 
        </Neuron>
        <Neuron NSynapses="1">
          4.6838814831660103e-01 
        </Neuron>
      </Layer>
      <Layer Index="4" NNeurons="1">
        <Neuron NSynapses="0"/>
      </Layer>
    </Layout>
  </Weights>
</MethodSetup>
