<?xml version="1.0"?>
<MethodSetup Method="MLP::MLP_ANN_N-4_NC1000">
  <GeneralInfo>
    <Info name="TMVA Release" value="4.2.1 [262657]"/>
    <Info name="ROOT Release" value="6.06/01 [394753]"/>
    <Info name="Creator" value="brucms16"/>
    <Info name="Date" value="Tue Sep  6 22:57:57 2016"/>
    <Info name="Host" value="Linux vocms0315.cern.ch 2.6.32-573.26.1.el6.x86_64 #1 SMP Wed May 4 09:23:05 CEST 2016 x86_64 x86_64 x86_64 GNU/Linux"/>
    <Info name="Dir" value="/home/t3cms/brucms16/CMSSW_8_0_14/src/UserCode/SkeletonAnalysis/macros"/>
    <Info name="Training events" value="15056"/>
    <Info name="TrainingTime" value="5.04773594e+02"/>
    <Info name="AnalysisType" value="Classification"/>
  </GeneralInfo>
  <Options>
    <Option name="NCycles" modified="Yes">1000</Option>
    <Option name="HiddenLayers" modified="Yes">N,N,N+-4</Option>
    <Option name="NeuronType" modified="No">sigmoid</Option>
    <Option name="RandomSeed" modified="No">1</Option>
    <Option name="EstimatorType" modified="No">CE</Option>
    <Option name="NeuronInputType" modified="No">sum</Option>
    <Option name="V" modified="Yes">False</Option>
    <Option name="VerbosityLevel" modified="No">Default</Option>
    <Option name="VarTransform" modified="Yes">Norm</Option>
    <Option name="H" modified="Yes">False</Option>
    <Option name="CreateMVAPdfs" modified="No">False</Option>
    <Option name="IgnoreNegWeightsInTraining" modified="No">False</Option>
    <Option name="TrainingMethod" modified="No">BP</Option>
    <Option name="LearningRate" modified="Yes">9.000000e-02</Option>
    <Option name="DecayRate" modified="Yes">1.000000e-02</Option>
    <Option name="TestRate" modified="No">10</Option>
    <Option name="EpochMonitoring" modified="No">False</Option>
    <Option name="Sampling" modified="No">1.000000e+00</Option>
    <Option name="SamplingEpoch" modified="No">1.000000e+00</Option>
    <Option name="SamplingImportance" modified="No">1.000000e+00</Option>
    <Option name="SamplingTraining" modified="No">True</Option>
    <Option name="SamplingTesting" modified="No">False</Option>
    <Option name="ResetStep" modified="No">50</Option>
    <Option name="Tau" modified="No">3.000000e+00</Option>
    <Option name="BPMode" modified="No">sequential</Option>
    <Option name="BatchSize" modified="No">-1</Option>
    <Option name="ConvergenceImprove" modified="No">1.000000e-30</Option>
    <Option name="ConvergenceTests" modified="No">-1</Option>
    <Option name="UseRegulator" modified="No">False</Option>
    <Option name="UpdateLimit" modified="No">10000</Option>
    <Option name="CalculateErrors" modified="No">False</Option>
    <Option name="WeightRange" modified="No">1.000000e+00</Option>
  </Options>
  <Variables NVar="11">
    <Variable VarIndex="0" Expression="Jet1Pt" Label="Jet1Pt" Title="Jet1Pt" Unit="" Internal="Jet1Pt" Type="F" Min="1.10048698e+02" Max="1.57276038e+03"/>
    <Variable VarIndex="1" Expression="LepPt" Label="LepPt" Title="LepPt" Unit="" Internal="LepPt" Type="F" Min="5.00075817e+00" Max="2.99984379e+01"/>
    <Variable VarIndex="2" Expression="LepChg" Label="LepChg" Title="LepChg" Unit="" Internal="LepChg" Type="F" Min="-1.00000000e+00" Max="1.00000000e+00"/>
    <Variable VarIndex="3" Expression="LepEta" Label="LepEta" Title="LepEta" Unit="" Internal="LepEta" Type="F" Min="-2.48411560e+00" Max="2.49880052e+00"/>
    <Variable VarIndex="4" Expression="Met" Label="Met" Title="Met" Unit="" Internal="Met" Type="F" Min="2.80020294e+02" Max="1.28947937e+03"/>
    <Variable VarIndex="5" Expression="mt" Label="mt" Title="mt" Unit="" Internal="mt" Type="F" Min="5.37815737e-04" Max="3.00527191e+02"/>
    <Variable VarIndex="6" Expression="HT20" Label="HT20" Title="HT20" Unit="" Internal="HT20" Type="F" Min="1.12003395e+02" Max="4.50487305e+03"/>
    <Variable VarIndex="7" Expression="NbLoose30" Label="NbLoose30" Title="NbLoose30" Unit="" Internal="NbLoose30" Type="F" Min="0.00000000e+00" Max="6.00000000e+00"/>
    <Variable VarIndex="8" Expression="Njet" Label="Njet" Title="Njet" Unit="" Internal="Njet" Type="F" Min="1.00000000e+00" Max="1.40000000e+01"/>
    <Variable VarIndex="9" Expression="JetHBpt" Label="JetHBpt" Title="JetHBpt" Unit="" Internal="JetHBpt" Type="F" Min="-9.99000000e+02" Max="1.37842883e+03"/>
    <Variable VarIndex="10" Expression="DrJetHBLep" Label="DrJetHBLep" Title="DrJetHBLep" Unit="" Internal="DrJetHBLep" Type="F" Min="-9.99000000e+02" Max="5.38026333e+00"/>
  </Variables>
  <Spectators NSpec="0"/>
  <Classes NClass="2">
    <Class Name="Signal" Index="0"/>
    <Class Name="Background" Index="1"/>
  </Classes>
  <Transformations NTransformations="1">
    <Transform Name="Normalize">
      <Selection>
        <Input NInputs="11">
          <Input Type="Variable" Label="Jet1Pt" Expression="Jet1Pt"/>
          <Input Type="Variable" Label="LepPt" Expression="LepPt"/>
          <Input Type="Variable" Label="LepChg" Expression="LepChg"/>
          <Input Type="Variable" Label="LepEta" Expression="LepEta"/>
          <Input Type="Variable" Label="Met" Expression="Met"/>
          <Input Type="Variable" Label="mt" Expression="mt"/>
          <Input Type="Variable" Label="HT20" Expression="HT20"/>
          <Input Type="Variable" Label="NbLoose30" Expression="NbLoose30"/>
          <Input Type="Variable" Label="Njet" Expression="Njet"/>
          <Input Type="Variable" Label="JetHBpt" Expression="JetHBpt"/>
          <Input Type="Variable" Label="DrJetHBLep" Expression="DrJetHBLep"/>
        </Input>
        <Output NOutputs="11">
          <Output Type="Variable" Label="Jet1Pt" Expression="Jet1Pt"/>
          <Output Type="Variable" Label="LepPt" Expression="LepPt"/>
          <Output Type="Variable" Label="LepChg" Expression="LepChg"/>
          <Output Type="Variable" Label="LepEta" Expression="LepEta"/>
          <Output Type="Variable" Label="Met" Expression="Met"/>
          <Output Type="Variable" Label="mt" Expression="mt"/>
          <Output Type="Variable" Label="HT20" Expression="HT20"/>
          <Output Type="Variable" Label="NbLoose30" Expression="NbLoose30"/>
          <Output Type="Variable" Label="Njet" Expression="Njet"/>
          <Output Type="Variable" Label="JetHBpt" Expression="JetHBpt"/>
          <Output Type="Variable" Label="DrJetHBLep" Expression="DrJetHBLep"/>
        </Output>
      </Selection>
      <Class ClassIndex="0">
        <Ranges>
          <Range Index="0" Min="1.1004869842529297e+02" Max="1.2779298095703125e+03"/>
          <Range Index="1" Min="5.0007581710815430e+00" Max="2.9949773788452148e+01"/>
          <Range Index="2" Min="-1.0000000000000000e+00" Max="1.0000000000000000e+00"/>
          <Range Index="3" Min="-2.4711689949035645e+00" Max="2.3791146278381348e+00"/>
          <Range Index="4" Min="2.8022933959960938e+02" Max="1.2514943847656250e+03"/>
          <Range Index="5" Min="5.5733408778905869e-02" Max="3.0052719116210938e+02"/>
          <Range Index="6" Min="1.1735253143310547e+02" Max="2.3474851074218750e+03"/>
          <Range Index="7" Min="0.0000000000000000e+00" Max="5.0000000000000000e+00"/>
          <Range Index="8" Min="1.0000000000000000e+00" Max="1.1000000000000000e+01"/>
          <Range Index="9" Min="2.0057344436645508e+01" Max="1.0570437011718750e+03"/>
          <Range Index="10" Min="6.2708742916584015e-05" Max="4.9576835632324219e+00"/>
        </Ranges>
      </Class>
      <Class ClassIndex="1">
        <Ranges>
          <Range Index="0" Min="1.1005755615234375e+02" Max="1.5727603759765625e+03"/>
          <Range Index="1" Min="5.0013527870178223e+00" Max="2.9998437881469727e+01"/>
          <Range Index="2" Min="-1.0000000000000000e+00" Max="1.0000000000000000e+00"/>
          <Range Index="3" Min="-2.4841156005859375e+00" Max="2.4988005161285400e+00"/>
          <Range Index="4" Min="2.8002029418945312e+02" Max="1.2894793701171875e+03"/>
          <Range Index="5" Min="5.3781573660671711e-04" Max="2.1579251098632812e+02"/>
          <Range Index="6" Min="1.1200339508056641e+02" Max="4.5048730468750000e+03"/>
          <Range Index="7" Min="0.0000000000000000e+00" Max="6.0000000000000000e+00"/>
          <Range Index="8" Min="1.0000000000000000e+00" Max="1.4000000000000000e+01"/>
          <Range Index="9" Min="-9.9900000000000000e+02" Max="1.3784288330078125e+03"/>
          <Range Index="10" Min="-9.9900000000000000e+02" Max="5.3802633285522461e+00"/>
        </Ranges>
      </Class>
      <Class ClassIndex="2">
        <Ranges>
          <Range Index="0" Min="1.1004869842529297e+02" Max="1.5727603759765625e+03"/>
          <Range Index="1" Min="5.0007581710815430e+00" Max="2.9998437881469727e+01"/>
          <Range Index="2" Min="-1.0000000000000000e+00" Max="1.0000000000000000e+00"/>
          <Range Index="3" Min="-2.4841156005859375e+00" Max="2.4988005161285400e+00"/>
          <Range Index="4" Min="2.8002029418945312e+02" Max="1.2894793701171875e+03"/>
          <Range Index="5" Min="5.3781573660671711e-04" Max="3.0052719116210938e+02"/>
          <Range Index="6" Min="1.1200339508056641e+02" Max="4.5048730468750000e+03"/>
          <Range Index="7" Min="0.0000000000000000e+00" Max="6.0000000000000000e+00"/>
          <Range Index="8" Min="1.0000000000000000e+00" Max="1.4000000000000000e+01"/>
          <Range Index="9" Min="-9.9900000000000000e+02" Max="1.3784288330078125e+03"/>
          <Range Index="10" Min="-9.9900000000000000e+02" Max="5.3802633285522461e+00"/>
        </Ranges>
      </Class>
    </Transform>
  </Transformations>
  <MVAPdfs/>
  <Weights>
    <Layout NLayers="5">
      <Layer Index="0" NNeurons="12">
        <Neuron NSynapses="11">
          9.0050694974040213e-01 2.0565156317683471e+00 4.1349033941113102e+00 -9.3402930948592089e-02 -2.1736663153120825e-01 -1.6568517666766043e+00 -3.2843338876415795e+00 1.9586114945942052e+00 5.1364719192728836e-01 1.6467926680904790e-01 -1.7483542235225462e+00 
        </Neuron>
        <Neuron NSynapses="11">
          1.6481281133272583e+00 -2.1607631664544145e+00 4.0560685702658639e-02 2.5144785119858692e-01 1.7725349757345792e+00 -7.9508264476412649e-01 5.5606970437458152e+00 1.7221852591615461e-01 2.6658974958499453e+00 2.8838790535259768e+00 -2.1184484504922936e+00 
        </Neuron>
        <Neuron NSynapses="11">
          9.3647474191233693e-01 -1.0624364507649120e+00 -4.9873702308636142e-01 2.6919439712367427e-01 -1.1460424848606707e+00 -3.0838028336504260e+00 -5.7693653280444124e-01 -1.8989403432608892e-01 -3.4096926695699226e-01 1.8489031089680099e+00 8.0168352898630990e-01 
        </Neuron>
        <Neuron NSynapses="11">
          -1.3189213584860202e+00 2.6609480216486467e+00 4.0479338468172094e-01 1.4391720859828458e-01 8.5376488587727639e+00 -1.2893724257178479e-01 -1.0182677738682560e+00 6.9372474826422681e-01 -2.0540436585685620e+00 -3.1875945400364042e-01 2.8072760148137516e-01 
        </Neuron>
        <Neuron NSynapses="11">
          5.1145805186665285e+00 -2.0643542084736241e-01 4.4048491459268009e+00 1.9351485975966094e+00 5.0865648751430272e-02 -2.6244459815793936e-01 -1.0754050560032458e+00 1.7462247491792895e+00 -8.9522777983532791e+00 4.1913888507473923e-01 -7.9429925859238208e+00 
        </Neuron>
        <Neuron NSynapses="11">
          -1.3730153344331724e+00 -2.3167177362293310e+00 -1.1601895717535040e+01 1.7600501269795309e+01 6.6849663736777187e-01 -2.6671509256630173e+00 8.7148065230702176e-01 -4.6684199870276116e-01 -1.5873594454786271e+00 2.9990927123431184e+00 -2.7439408371717091e+00 
        </Neuron>
        <Neuron NSynapses="11">
          -1.1477451158774234e+00 -1.4428120590033897e+00 9.4691659960197672e-01 -4.4021725845900450e+00 6.9778542785857023e-01 -1.5523011558515565e+00 1.6133447244086447e+00 1.0025231996687243e+00 6.4231159978129755e+00 7.9719924224200778e-01 2.3867900338144565e+00 
        </Neuron>
        <Neuron NSynapses="11">
          -6.3805429774195073e+00 -9.3102346969738770e-01 1.0952802204714798e+00 7.4899519092189182e-01 4.0543697972352778e-02 2.6632687781719775e+00 -5.7770650134800161e-01 -1.0362871043972404e+00 2.0131433919802162e+00 8.6111353011280978e-01 3.0569196659927997e+00 
        </Neuron>
        <Neuron NSynapses="11">
          -7.7975478305417800e+00 -2.2007971607806258e+00 6.7868724634891242e-01 -7.4710353451916511e-01 4.3344591283846745e-01 -2.4052678004433230e+00 -2.0531254548990399e+00 1.4698884858926566e+00 1.6605659777804838e+00 -8.7266874615153007e+00 -5.1272035833202123e+00 
        </Neuron>
        <Neuron NSynapses="11">
          -1.0881955272801618e+00 -2.6559673432304711e+00 -2.4260354279014478e+00 -2.4464321134550477e+00 -3.1122086824024381e-01 -2.5816570046984699e+00 -2.4535221113517798e+00 -1.0424317326262207e+00 2.5934202692584432e+00 -1.3404422132370317e+00 1.7217152562943807e+00 
        </Neuron>
        <Neuron NSynapses="11">
          -2.2859740273120601e+00 4.2054601672814129e-01 9.9032230925654885e-01 1.9829083258775175e+00 -1.7943563059875935e+00 8.5459188321781820e-01 -2.6939944804079030e-01 -9.5930985398463120e-01 -1.6131798322872801e+00 -2.1999705426580221e+00 -3.8721648272116065e+00 
        </Neuron>
        <Neuron NSynapses="11">
          -3.2512235041332449e-01 -1.9257788566417589e-01 1.8965415734095852e+00 2.3194666015111949e+00 -3.9997635940173959e-01 -1.1354399742068817e+00 -2.4477860604278584e-01 -1.8180459498696597e+00 -9.6009915026198589e-01 -9.2552780752267916e-01 -4.2027817116420394e+00 
        </Neuron>
      </Layer>
      <Layer Index="1" NNeurons="12">
        <Neuron NSynapses="11">
          3.9238222627518765e-01 -1.1966601794738845e+00 1.6680185292617371e+00 1.1813607342146772e+00 4.1574984427593877e+00 -1.9627293811769073e+00 -6.7140950355201312e-01 5.0364291457752390e+00 3.3238418785756720e+00 -1.2458547992374572e-01 -2.7114220535702405e+00 
        </Neuron>
        <Neuron NSynapses="11">
          -4.4688599478430879e-01 -1.3956799841158634e+00 2.8269503925124586e+00 2.2898559716911078e+00 -6.5535051237020392e-01 -6.4279512414022066e-01 -1.2281912914092501e+00 -2.5889459062185285e+00 8.1992295647032332e-01 3.3486756837515594e+00 -1.0916134788314500e+00 
        </Neuron>
        <Neuron NSynapses="11">
          2.0891692126987177e-01 1.2497988030882493e-01 1.4605380468217177e+00 -1.9337010860072728e+00 3.0931469091408705e+00 -1.4488533991192509e+00 7.6704963291959705e-01 -2.5276420586288151e-01 4.5951054196060541e+00 3.4504856505691324e+00 -2.1230383991535451e+00 
        </Neuron>
        <Neuron NSynapses="11">
          -1.3204496811160784e+00 -1.6667303114188631e-01 5.8327417687655929e+00 -3.2498838769612397e+00 -1.0867588887948458e+00 1.4648279104257957e+00 2.2496912996530787e+00 1.2888890634257435e+00 2.9428015921807384e+00 4.7215204466919145e+00 -1.8164940414148583e+00 
        </Neuron>
        <Neuron NSynapses="11">
          -3.7331196775557790e-01 1.5757287208052315e-01 2.9084434997734637e-01 -1.9707629702822902e+00 -3.7344961472117442e+00 1.0506029893058535e+00 2.6097517791685991e+00 -4.3417649264863361e+00 -9.4645871812629190e-01 -7.4230936926194768e-01 2.9299072427735098e+00 
        </Neuron>
        <Neuron NSynapses="11">
          2.4074537884444802e+00 -4.8396704298014975e-01 2.0335127038677115e-02 -2.6090607586088557e+00 6.7480403450279358e-01 1.3518658340877061e+00 -3.8305961841637237e-01 7.2065569744207125e-01 -2.8494710496423481e-01 -2.6550870103397783e+00 1.3101952798199461e+00 
        </Neuron>
        <Neuron NSynapses="11">
          1.8799027825193941e+00 -1.9308474224499479e+00 -1.9198802762996632e+00 1.8732993813254719e+00 8.2979239070141064e-01 -1.8870011163841005e+00 1.0729152281645540e+00 1.1673354004400667e+00 -2.6008546634825067e+00 -1.5831939333851952e+00 3.7912903665080520e+00 
        </Neuron>
        <Neuron NSynapses="11">
          1.0179366147493318e+00 4.3191590161169796e-01 -1.7141175185073079e-01 -2.1066780135193532e+00 -9.6786084485548918e-01 1.7237465104339391e+00 1.2060184220984154e+00 8.3050232565942061e-01 1.4957001131138339e-01 1.8960247795611780e+00 -1.7065581734563113e+00 
        </Neuron>
        <Neuron NSynapses="11">
          -2.6411202024997626e-01 -7.9551826070579001e-01 -2.5043103587989002e+00 4.8769430449581517e+00 2.9899621434600898e+00 -1.1307516004669838e+00 4.1312374237780176e+00 -6.7106156372909032e-01 -2.6209243924778240e+00 -4.5495696003531627e+00 3.2835664188523701e+00 
        </Neuron>
        <Neuron NSynapses="11">
          9.7167290967920050e-01 9.1031551874481043e-01 -2.3747252051272638e+00 2.5984963332128941e+00 -2.6855110219518399e+00 1.0637315714283224e+00 -1.2513269453826674e+00 -1.6407154124019910e-01 -2.9146553942617537e+00 -3.0738647838639874e+00 -4.7790754662184833e-02 
        </Neuron>
        <Neuron NSynapses="11">
          -2.6667798190471195e+00 -1.9787496523729076e+00 -4.7013115128350433e+00 1.9780503550455086e+00 -1.7426487285055339e+00 -1.8859189923618356e+00 9.6815792500941600e-01 -4.2278102431389702e-01 -1.3389761882757432e+00 -3.6776961807714867e+00 9.0564851666237189e-01 
        </Neuron>
        <Neuron NSynapses="11">
          1.9115470583589751e+00 1.3490558517417679e+00 -1.0079702071012966e+00 1.3531857564063893e-01 -1.2107871554552003e+00 -1.2690803667705244e+00 -2.4361112568745416e+00 -7.9529206691721399e-01 2.0040586335487054e-01 2.3045666079090190e+00 -1.2252125650027692e+00 
        </Neuron>
      </Layer>
      <Layer Index="2" NNeurons="12">
        <Neuron NSynapses="11">
          8.4470277287651563e-01 -2.3925350958195244e+00 -2.1128221811731374e+00 1.2647157983131416e+00 4.5363552925902262e-01 -2.6288812491821183e+00 -1.2476234662825796e+00 9.0000363604950329e-01 -1.3870730074929918e-01 7.5628599871215907e-01 -1.7226723543538720e+00 
        </Neuron>
        <Neuron NSynapses="11">
          -1.1764496670935362e-01 1.1336750893850809e+00 9.6196054694142819e-01 1.2415481752043365e+00 -3.5263195987041446e-01 2.1752090235339716e-01 -1.5723077060729582e-01 -1.0396530671531021e+00 -7.5115466153767574e-01 -1.5221571651196981e+00 -2.1549416320774006e+00 
        </Neuron>
        <Neuron NSynapses="11">
          -3.1573270667716771e+00 2.2940874245399234e+00 -1.8527871680197174e+00 5.1332868173595303e-01 -1.6020005303176881e+00 1.0612195799919280e-01 -1.7702447187333896e+00 -1.1331249603075653e+00 2.0951314269475350e+00 -3.8327572098923306e+00 1.1702722591296408e+00 
        </Neuron>
        <Neuron NSynapses="11">
          1.7934616861801853e+00 -3.5742028160146351e+00 -1.6409444221919212e+00 -3.9809460073962610e-01 -1.6011470303607966e+00 4.0289263906448003e-01 -1.5404227100208065e-01 1.6335126757039886e+00 -4.0940202345924579e+00 1.6696382722532654e+00 -2.3585725705365221e+00 
        </Neuron>
        <Neuron NSynapses="11">
          -2.2160313659830488e+00 -3.4920751039491740e+00 9.4726964301047090e-01 -2.6287729741338950e+00 -1.4459965902739720e+00 8.7756758285614722e-01 -3.1689616809665150e-01 -1.6640928141195668e+00 3.1565195292431558e+00 -1.6403648175340324e+00 1.4399976049147059e+00 
        </Neuron>
        <Neuron NSynapses="11">
          9.0652158651199188e-01 -7.1922597039003189e-01 -8.1677546948548296e-01 1.1193960128280243e-01 -1.2048421008526364e+00 4.6473344847627329e-01 1.9221082587648388e+00 1.4439658568490414e+00 1.5806661625026617e+00 -1.3312234471687507e+00 6.5171776396712389e-01 
        </Neuron>
        <Neuron NSynapses="11">
          -3.3434564839387031e+00 -1.5524042408137204e-01 -1.9175823921467898e+00 -2.8044420928235256e+00 -9.1000275446252321e-01 3.0088203195412971e-01 8.6559594409837759e-01 1.4235846598830701e+00 -6.2003924494679874e-01 2.8009468379874769e+00 -2.4384170110704080e+00 
        </Neuron>
        <Neuron NSynapses="11">
          2.2180431937938222e-01 3.4936651058534012e+00 -1.5931917300250893e+00 -1.6685141411047992e+00 -1.5836062588412712e+00 -1.4087702030691891e+00 -9.1890329225022405e-01 -2.7130963518130398e+00 -1.0879740510718854e+00 -1.0743801382811706e+00 2.9689844275394113e+00 
        </Neuron>
        <Neuron NSynapses="11">
          8.5542046235963720e-01 -1.3197187779709388e-02 -9.6444485225332666e-01 -3.2172970218128727e+00 -1.8682590653180040e+00 -2.3074525634437168e-01 -6.6400820281638773e-01 -1.9408191447679941e+00 6.1788535206958173e-01 -3.1904403987159524e+00 -2.1619509307399611e+00 
        </Neuron>
        <Neuron NSynapses="11">
          -3.5780811059868642e+00 7.2117225399557405e-01 -1.4311147953611991e+00 -2.4101164395064796e+00 -7.8707809483744273e-01 -2.1053173317427811e+00 -2.3206569725800912e+00 6.0753090621789807e-01 -1.5019276258969571e-02 -3.0102396845552550e+00 2.4563629533800131e+00 
        </Neuron>
        <Neuron NSynapses="11">
          4.0997532264859393e-01 -1.1262101242751874e+00 -3.2975742169345713e-02 2.3621682176483088e+00 1.0652034533856385e+00 8.6154697779403974e-02 -8.2011431419425596e-01 -7.8544773729350578e-02 -3.6712617894498987e+00 3.6200090641107687e+00 -2.4375709421019856e-01 
        </Neuron>
        <Neuron NSynapses="11">
          7.2683727821384889e-03 -2.0458089004415808e-01 7.7179170438846822e-01 1.7783817386190182e+00 -2.1976200278354043e+00 -2.6476285428365542e-01 3.5755975115691502e-01 -1.7656822879098872e+00 -1.8957186387149509e+00 -7.3054336453146818e-01 -8.2235886903896038e-01 
        </Neuron>
      </Layer>
      <Layer Index="3" NNeurons="12">
        <Neuron NSynapses="1">
          -1.4783468151865620e+00 
        </Neuron>
        <Neuron NSynapses="1">
          3.7994662900219005e+00 
        </Neuron>
        <Neuron NSynapses="1">
          1.6965010133924534e+00 
        </Neuron>
        <Neuron NSynapses="1">
          -2.1623671678318224e+00 
        </Neuron>
        <Neuron NSynapses="1">
          1.1775308793506423e+00 
        </Neuron>
        <Neuron NSynapses="1">
          -3.6731418475526845e-01 
        </Neuron>
        <Neuron NSynapses="1">
          -2.1198632711792834e-01 
        </Neuron>
        <Neuron NSynapses="1">
          -2.5510240873561907e+00 
        </Neuron>
        <Neuron NSynapses="1">
          1.7727752707571276e+00 
        </Neuron>
        <Neuron NSynapses="1">
          -1.8078053101199856e+00 
        </Neuron>
        <Neuron NSynapses="1">
          2.0156544968354688e+00 
        </Neuron>
        <Neuron NSynapses="1">
          -1.0863243279320785e-02 
        </Neuron>
      </Layer>
      <Layer Index="4" NNeurons="1">
        <Neuron NSynapses="0"/>
      </Layer>
    </Layout>
  </Weights>
</MethodSetup>
